svm_type c_svc
kernel_type rbf
gamma 0.007575757575757576
nr_class 2
total_sv 54
rho 0.09468735585896165
label 0 2
nr_sv 27 27
SV
0.5283629455934951 1:98.0 2:127.0 3:157.0 4:125.0 5:129.0 6:158.0 7:106.0 8:189.0 9:150.0 10:190.0 11:82.0 12:195.0 13:174.0 14:196.0 15:93.0 16:207.0 17:162.0 18:207.0 19:110.0 20:219.0 21:147.0 22:219.0 23:128.0 24:224.0 25:79.0 26:110.0 27:115.0 28:107.0 29:142.0 30:104.0 31:178.0 32:109.0 33:96.0 34:104.0 35:161.0 36:101.0 37:86.0 38:105.0 39:106.0 40:104.0 41:151.0 42:102.0 43:171.0 44:103.0 45:128.0 46:127.0 47:84.0 48:127.0 49:113.0 50:131.0 51:144.0 52:130.0 53:171.0 54:125.0 55:98.0 56:133.0 57:99.0 58:122.0 59:93.0 60:127.0 61:104.0 62:128.0 63:159.0 64:132.0 65:156.0 66:121.0 67:151.0 68:127.0 69:163.0 70:126.0 71:91.0 72:123.0 73:107.0 74:125.0 75:91.0 76:131.0 77:106.0 78:132.0 79:149.0 80:124.0 81:165.0 82:121.0 83:151.0 84:132.0 85:165.0 86:129.0 87:118.0 88:153.0 89:138.0 90:153.0 91:111.0 92:164.0 93:146.0 94:162.0 95:119.0 96:163.0 97:137.0 98:163.0 99:130.0 100:168.0 101:105.0 102:172.0 103:152.0 104:171.0 105:99.0 106:181.0 107:158.0 108:182.0 109:129.0 110:182.0 111:128.0 112:197.0 113:117.0 114:184.0 115:140.0 116:183.0 117:116.0 118:197.0 119:140.0 120:196.0 121:118.0 122:187.0 123:129.0 124:187.0 125:140.0 126:187.0 127:118.0 128:188.0 129:129.0 130:188.0 131:140.0 132:189.0 
0.7478836617652035 1:98.0 2:126.0 3:156.0 4:125.0 5:128.0 6:158.0 7:106.0 8:187.0 9:150.0 10:189.0 11:82.0 12:193.0 13:173.0 14:193.0 15:93.0 16:205.0 17:163.0 18:204.0 19:109.0 20:216.0 21:149.0 22:216.0 23:131.0 24:222.0 25:80.0 26:111.0 27:115.0 28:107.0 29:142.0 30:105.0 31:176.0 32:108.0 33:96.0 34:103.0 35:161.0 36:101.0 37:87.0 38:105.0 39:107.0 40:104.0 41:151.0 42:102.0 43:169.0 44:103.0 45:128.0 46:127.0 47:86.0 48:127.0 49:113.0 50:130.0 51:144.0 52:130.0 53:169.0 54:126.0 55:99.0 56:132.0 57:100.0 58:123.0 59:93.0 60:126.0 61:105.0 62:128.0 63:157.0 64:131.0 65:156.0 66:122.0 67:151.0 68:127.0 69:162.0 70:125.0 71:92.0 72:124.0 73:107.0 74:125.0 75:92.0 76:131.0 77:106.0 78:131.0 79:149.0 80:124.0 81:163.0 82:122.0 83:150.0 84:131.0 85:164.0 86:129.0 87:118.0 88:152.0 89:138.0 90:151.0 91:110.0 92:162.0 93:147.0 94:162.0 95:119.0 96:162.0 97:136.0 98:162.0 99:129.0 100:166.0 101:104.0 102:171.0 103:153.0 104:170.0 105:99.0 106:182.0 107:158.0 108:181.0 109:129.0 110:180.0 111:129.0 112:196.0 113:116.0 114:182.0 115:140.0 116:182.0 117:117.0 118:195.0 119:141.0 120:194.0 121:117.0 122:186.0 123:129.0 124:186.0 125:139.0 126:186.0 127:118.0 128:189.0 129:129.0 130:189.0 131:139.0 132:188.0 
0.5845855083138536 1:100.0 2:126.0 3:158.0 4:126.0 5:128.0 6:157.0 7:106.0 8:188.0 9:150.0 10:189.0 11:82.0 12:195.0 13:172.0 14:194.0 15:94.0 16:207.0 17:162.0 18:207.0 19:110.0 20:219.0 21:146.0 22:219.0 23:127.0 24:224.0 25:80.0 26:110.0 27:115.0 28:107.0 29:143.0 30:105.0 31:178.0 32:109.0 33:97.0 34:103.0 35:162.0 36:102.0 37:87.0 38:105.0 39:107.0 40:104.0 41:152.0 42:103.0 43:171.0 44:104.0 45:128.0 46:126.0 47:85.0 48:126.0 49:113.0 50:130.0 51:144.0 52:130.0 53:171.0 54:125.0 55:98.0 56:133.0 57:100.0 58:122.0 59:93.0 60:126.0 61:105.0 62:128.0 63:159.0 64:132.0 65:157.0 66:121.0 67:151.0 68:127.0 69:163.0 70:126.0 71:92.0 72:123.0 73:108.0 74:125.0 75:91.0 76:130.0 77:106.0 78:132.0 79:150.0 80:124.0 81:164.0 82:122.0 83:151.0 84:131.0 85:165.0 86:129.0 87:117.0 88:154.0 89:140.0 90:153.0 91:110.0 92:163.0 93:148.0 94:163.0 95:119.0 96:163.0 97:137.0 98:163.0 99:129.0 100:168.0 101:103.0 102:172.0 103:154.0 104:172.0 105:97.0 106:182.0 107:160.0 108:182.0 109:129.0 110:181.0 111:128.0 112:196.0 113:116.0 114:183.0 115:140.0 116:183.0 117:116.0 118:194.0 119:139.0 120:195.0 121:117.0 122:186.0 123:128.0 124:187.0 125:139.0 126:187.0 127:117.0 128:187.0 129:128.0 130:188.0 131:139.0 132:188.0 
0.6865839483516484 1:97.0 2:125.0 3:158.0 4:127.0 5:126.0 6:161.0 7:104.0 8:195.0 9:147.0 10:195.0 11:79.0 12:199.0 13:173.0 14:201.0 15:90.0 16:210.0 17:163.0 18:212.0 19:104.0 20:222.0 21:147.0 22:225.0 23:125.0 24:230.0 25:75.0 26:112.0 27:110.0 28:107.0 29:146.0 30:106.0 31:180.0 32:114.0 33:91.0 34:103.0 35:165.0 36:104.0 37:82.0 38:106.0 39:100.0 40:103.0 41:156.0 42:104.0 43:174.0 44:107.0 45:126.0 46:128.0 47:82.0 48:127.0 49:108.0 50:131.0 51:144.0 52:133.0 53:172.0 54:129.0 55:94.0 56:132.0 57:96.0 58:122.0 59:91.0 60:126.0 61:102.0 62:128.0 63:159.0 64:134.0 65:158.0 66:123.0 67:152.0 68:129.0 69:164.0 70:128.0 71:88.0 72:123.0 73:104.0 74:125.0 75:88.0 76:130.0 77:102.0 78:132.0 79:149.0 80:126.0 81:166.0 82:125.0 83:152.0 84:134.0 85:166.0 86:133.0 87:115.0 88:156.0 89:137.0 90:156.0 91:108.0 92:165.0 93:144.0 94:165.0 95:117.0 96:165.0 97:134.0 98:165.0 99:126.0 100:170.0 101:100.0 102:176.0 103:152.0 104:176.0 105:95.0 106:188.0 107:158.0 108:188.0 109:125.0 110:186.0 111:125.0 112:204.0 113:114.0 114:188.0 115:137.0 116:188.0 117:113.0 118:203.0 119:137.0 120:202.0 121:113.0 122:193.0 123:125.0 124:194.0 125:137.0 126:193.0 127:113.0 128:195.0 129:125.0 130:196.0 131:137.0 132:195.0 
0.8848723755558145 1:97.0 2:126.0 3:158.0 4:127.0 5:127.0 6:161.0 7:105.0 8:194.0 9:148.0 10:195.0 11:82.0 12:199.0 13:170.0 14:206.0 15:92.0 16:211.0 17:161.0 18:216.0 19:106.0 20:223.0 21:146.0 22:226.0 23:126.0 24:230.0 25:76.0 26:112.0 27:112.0 28:109.0 29:146.0 30:108.0 31:182.0 32:114.0 33:93.0 34:104.0 35:165.0 36:106.0 37:83.0 38:106.0 39:102.0 40:105.0 41:156.0 42:106.0 43:174.0 44:109.0 45:127.0 46:129.0 47:83.0 48:127.0 49:109.0 50:132.0 51:145.0 52:133.0 53:172.0 54:129.0 55:95.0 56:132.0 57:97.0 58:122.0 59:92.0 60:126.0 61:103.0 62:128.0 63:159.0 64:134.0 65:157.0 66:123.0 67:152.0 68:130.0 69:164.0 70:128.0 71:89.0 72:123.0 73:105.0 74:125.0 75:89.0 76:130.0 77:103.0 78:132.0 79:150.0 80:127.0 81:166.0 82:125.0 83:152.0 84:134.0 85:166.0 86:132.0 87:115.0 88:156.0 89:138.0 90:156.0 91:108.0 92:165.0 93:144.0 94:166.0 95:117.0 96:166.0 97:135.0 98:167.0 99:126.0 100:171.0 101:101.0 102:175.0 103:152.0 104:177.0 105:96.0 106:187.0 107:157.0 108:188.0 109:126.0 110:187.0 111:127.0 112:204.0 113:115.0 114:187.0 115:138.0 116:188.0 117:114.0 118:202.0 119:140.0 120:202.0 121:115.0 122:193.0 123:126.0 124:194.0 125:138.0 126:193.0 127:115.0 128:194.0 129:127.0 130:196.0 131:138.0 132:195.0 
0.8493050145057831 1:96.0 2:125.0 3:157.0 4:127.0 5:124.0 6:160.0 7:104.0 8:194.0 9:148.0 10:195.0 11:81.0 12:201.0 13:169.0 14:204.0 15:90.0 16:212.0 17:161.0 18:214.0 19:103.0 20:223.0 21:146.0 22:224.0 23:125.0 24:229.0 25:72.0 26:114.0 27:109.0 28:107.0 29:145.0 30:106.0 31:180.0 32:115.0 33:89.0 34:103.0 35:165.0 36:105.0 37:79.0 38:107.0 39:99.0 40:104.0 41:155.0 42:105.0 43:174.0 44:109.0 45:125.0 46:128.0 47:81.0 48:126.0 49:108.0 50:131.0 51:143.0 52:133.0 53:171.0 54:129.0 55:94.0 56:132.0 57:96.0 58:121.0 59:91.0 60:126.0 61:102.0 62:128.0 63:158.0 64:134.0 65:156.0 66:123.0 67:152.0 68:129.0 69:163.0 70:128.0 71:88.0 72:122.0 73:104.0 74:125.0 75:87.0 76:130.0 77:101.0 78:132.0 79:148.0 80:126.0 81:164.0 82:125.0 83:151.0 84:133.0 85:165.0 86:132.0 87:113.0 88:155.0 89:136.0 90:156.0 91:107.0 92:165.0 93:142.0 94:166.0 95:115.0 96:165.0 97:133.0 98:166.0 99:124.0 100:170.0 101:99.0 102:175.0 103:150.0 104:176.0 105:92.0 106:187.0 107:156.0 108:188.0 109:124.0 110:186.0 111:124.0 112:204.0 113:113.0 114:187.0 115:137.0 116:187.0 117:111.0 118:202.0 119:138.0 120:202.0 121:113.0 122:193.0 123:125.0 124:194.0 125:137.0 126:193.0 127:112.0 128:194.0 129:124.0 130:195.0 131:137.0 132:194.0 
0.896323770528612 1:98.0 2:126.0 3:156.0 4:125.0 5:129.0 6:162.0 7:104.0 8:196.0 9:154.0 10:197.0 11:79.0 12:204.0 13:184.0 14:201.0 15:92.0 16:219.0 17:173.0 18:216.0 19:110.0 20:231.0 21:154.0 22:228.0 23:132.0 24:235.0 25:75.0 26:115.0 27:113.0 28:111.0 29:141.0 30:108.0 31:178.0 32:110.0 33:93.0 34:106.0 35:160.0 36:103.0 37:82.0 38:108.0 39:103.0 40:107.0 41:149.0 42:105.0 43:170.0 44:104.0 45:127.0 46:128.0 47:84.0 48:129.0 49:111.0 50:132.0 51:143.0 52:131.0 53:170.0 54:126.0 55:97.0 56:132.0 57:98.0 58:122.0 59:92.0 60:127.0 61:104.0 62:129.0 63:158.0 64:131.0 65:155.0 66:120.0 67:150.0 68:127.0 69:161.0 70:125.0 71:90.0 72:124.0 73:106.0 74:125.0 75:90.0 76:131.0 77:104.0 78:132.0 79:148.0 80:124.0 81:164.0 82:121.0 83:151.0 84:131.0 85:165.0 86:129.0 87:116.0 88:157.0 89:139.0 90:156.0 91:109.0 92:168.0 93:147.0 94:167.0 95:119.0 96:167.0 97:137.0 98:167.0 99:128.0 100:174.0 101:102.0 102:177.0 103:156.0 104:177.0 105:95.0 106:187.0 107:162.0 108:187.0 109:129.0 110:184.0 111:129.0 112:207.0 113:115.0 114:187.0 115:143.0 116:187.0 117:115.0 118:205.0 119:144.0 120:204.0 121:116.0 122:195.0 123:129.0 124:194.0 125:143.0 126:195.0 127:116.0 128:195.0 129:129.0 130:195.0 131:142.0 132:195.0 
0.6674745807583095 1:100.0 2:127.0 3:156.0 4:125.0 5:129.0 6:163.0 7:106.0 8:197.0 9:153.0 10:197.0 11:78.0 12:201.0 13:183.0 14:202.0 15:89.0 16:216.0 17:173.0 18:216.0 19:107.0 20:230.0 21:154.0 22:230.0 23:133.0 24:236.0 25:77.0 26:114.0 27:114.0 28:112.0 29:141.0 30:109.0 31:178.0 32:110.0 33:94.0 34:106.0 35:159.0 36:103.0 37:84.0 38:108.0 39:105.0 40:108.0 41:150.0 42:105.0 43:170.0 44:104.0 45:128.0 46:128.0 47:86.0 48:130.0 49:112.0 50:132.0 51:144.0 52:131.0 53:170.0 54:126.0 55:99.0 56:133.0 57:99.0 58:123.0 59:95.0 60:128.0 61:105.0 62:129.0 63:158.0 64:132.0 65:156.0 66:121.0 67:151.0 68:128.0 69:162.0 70:125.0 71:91.0 72:124.0 73:107.0 74:125.0 75:92.0 76:131.0 77:106.0 78:133.0 79:149.0 80:124.0 81:164.0 82:122.0 83:151.0 84:132.0 85:165.0 86:130.0 87:119.0 88:158.0 89:139.0 90:157.0 91:112.0 92:169.0 93:148.0 94:167.0 95:121.0 96:168.0 97:138.0 98:167.0 99:130.0 100:174.0 101:104.0 102:178.0 103:156.0 104:177.0 105:96.0 106:189.0 107:163.0 108:188.0 109:129.0 110:185.0 111:129.0 112:208.0 113:116.0 114:188.0 115:143.0 116:188.0 117:116.0 118:206.0 119:143.0 120:206.0 121:117.0 122:196.0 123:130.0 124:195.0 125:143.0 126:196.0 127:117.0 128:196.0 129:129.0 130:196.0 131:143.0 132:196.0 
0.893147885183025 1:99.0 2:127.0 3:157.0 4:125.0 5:130.0 6:165.0 7:105.0 8:198.0 9:154.0 10:198.0 11:75.0 12:200.0 13:185.0 14:203.0 15:88.0 16:216.0 17:174.0 18:216.0 19:106.0 20:230.0 21:157.0 22:230.0 23:134.0 24:237.0 25:76.0 26:115.0 27:114.0 28:112.0 29:143.0 30:110.0 31:180.0 32:113.0 33:94.0 34:106.0 35:162.0 36:104.0 37:84.0 38:108.0 39:104.0 40:108.0 41:152.0 42:106.0 43:172.0 44:106.0 45:129.0 46:129.0 47:86.0 48:129.0 49:112.0 50:132.0 51:145.0 52:132.0 53:171.0 54:126.0 55:98.0 56:133.0 57:99.0 58:122.0 59:94.0 60:127.0 61:105.0 62:129.0 63:159.0 64:132.0 65:157.0 66:121.0 67:151.0 68:128.0 69:162.0 70:126.0 71:91.0 72:124.0 73:106.0 74:125.0 75:91.0 76:132.0 77:105.0 78:133.0 79:149.0 80:124.0 81:165.0 82:122.0 83:152.0 84:132.0 85:166.0 86:130.0 87:118.0 88:161.0 89:140.0 90:160.0 91:112.0 92:170.0 93:149.0 94:168.0 95:120.0 96:169.0 97:139.0 98:169.0 99:130.0 100:176.0 101:102.0 102:178.0 103:157.0 104:179.0 105:96.0 106:190.0 107:162.0 108:189.0 109:130.0 110:187.0 111:131.0 112:209.0 113:117.0 114:189.0 115:144.0 116:190.0 117:117.0 118:206.0 119:144.0 120:206.0 121:117.0 122:197.0 123:130.0 124:197.0 125:143.0 126:197.0 127:117.0 128:197.0 129:131.0 130:197.0 131:144.0 132:197.0 
1.0 1:96.0 2:126.0 3:160.0 4:127.0 5:130.0 6:163.0 7:104.0 8:194.0 9:155.0 10:193.0 11:77.0 12:201.0 13:180.0 14:202.0 15:90.0 16:218.0 17:171.0 18:216.0 19:109.0 20:232.0 21:154.0 22:230.0 23:133.0 24:238.0 25:72.0 26:115.0 27:113.0 28:111.0 29:146.0 30:110.0 31:187.0 32:113.0 33:92.0 34:108.0 35:168.0 36:106.0 37:81.0 38:110.0 39:103.0 40:108.0 41:156.0 42:107.0 43:178.0 44:109.0 45:129.0 46:127.0 47:81.0 48:129.0 49:110.0 50:131.0 51:147.0 52:132.0 53:175.0 54:129.0 55:95.0 56:133.0 57:97.0 58:123.0 59:90.0 60:127.0 61:102.0 62:128.0 63:161.0 64:134.0 65:160.0 66:122.0 67:154.0 68:129.0 69:166.0 70:127.0 71:88.0 72:124.0 73:105.0 74:125.0 75:88.0 76:132.0 77:103.0 78:133.0 79:152.0 80:126.0 81:169.0 82:124.0 83:154.0 84:133.0 85:169.0 86:132.0 87:116.0 88:158.0 89:140.0 90:156.0 91:112.0 92:167.0 93:147.0 94:167.0 95:121.0 96:168.0 97:139.0 98:168.0 99:131.0 100:173.0 101:102.0 102:176.0 103:157.0 104:176.0 105:96.0 106:187.0 107:163.0 108:187.0 109:130.0 110:187.0 111:131.0 112:205.0 113:116.0 114:187.0 115:143.0 116:188.0 117:116.0 118:202.0 119:144.0 120:202.0 121:116.0 122:193.0 123:130.0 124:194.0 125:143.0 126:193.0 127:117.0 128:194.0 129:130.0 130:194.0 131:143.0 132:193.0 
1.0 1:95.0 2:125.0 3:159.0 4:125.0 5:129.0 6:163.0 7:104.0 8:192.0 9:154.0 10:191.0 11:76.0 12:197.0 13:180.0 14:198.0 15:88.0 16:213.0 17:171.0 18:212.0 19:105.0 20:228.0 21:154.0 22:227.0 23:131.0 24:236.0 25:71.0 26:114.0 27:110.0 28:108.0 29:144.0 30:109.0 31:185.0 32:112.0 33:89.0 34:106.0 35:165.0 36:105.0 37:79.0 38:109.0 39:100.0 40:106.0 41:153.0 42:106.0 43:176.0 44:107.0 45:128.0 46:127.0 47:80.0 48:129.0 49:109.0 50:130.0 51:146.0 52:131.0 53:174.0 54:128.0 55:94.0 56:133.0 57:95.0 58:121.0 59:89.0 60:127.0 61:101.0 62:127.0 63:160.0 64:133.0 65:159.0 66:121.0 67:154.0 68:128.0 69:165.0 70:126.0 71:86.0 72:123.0 73:103.0 74:124.0 75:87.0 76:131.0 77:102.0 78:132.0 79:151.0 80:124.0 81:168.0 82:123.0 83:153.0 84:132.0 85:167.0 86:131.0 87:115.0 88:157.0 89:139.0 90:156.0 91:109.0 92:166.0 93:146.0 94:166.0 95:120.0 96:167.0 97:137.0 98:167.0 99:129.0 100:173.0 101:99.0 102:173.0 103:158.0 104:173.0 105:93.0 106:185.0 107:163.0 108:184.0 109:128.0 110:185.0 111:129.0 112:204.0 113:115.0 114:186.0 115:141.0 116:186.0 117:115.0 118:201.0 119:143.0 120:201.0 121:116.0 122:192.0 123:129.0 124:193.0 125:142.0 126:192.0 127:116.0 128:193.0 129:129.0 130:193.0 131:142.0 132:192.0 
1.0 1:97.0 2:126.0 3:159.0 4:125.0 5:130.0 6:162.0 7:106.0 8:190.0 9:155.0 10:189.0 11:80.0 12:197.0 13:180.0 14:196.0 15:93.0 16:212.0 17:169.0 18:211.0 19:111.0 20:226.0 21:154.0 22:224.0 23:134.0 24:232.0 25:73.0 26:115.0 27:112.0 28:111.0 29:145.0 30:109.0 31:186.0 32:113.0 33:92.0 34:108.0 35:167.0 36:106.0 37:82.0 38:110.0 39:102.0 40:108.0 41:155.0 42:107.0 43:177.0 44:108.0 45:128.0 46:126.0 47:82.0 48:129.0 49:110.0 50:131.0 51:146.0 52:130.0 53:173.0 54:127.0 55:96.0 56:133.0 57:97.0 58:122.0 59:91.0 60:127.0 61:102.0 62:128.0 63:161.0 64:132.0 65:159.0 66:121.0 67:154.0 68:127.0 69:165.0 70:126.0 71:88.0 72:124.0 73:105.0 74:125.0 75:89.0 76:131.0 77:103.0 78:132.0 79:151.0 80:124.0 81:167.0 82:122.0 83:154.0 84:131.0 85:167.0 86:130.0 87:117.0 88:157.0 89:140.0 90:155.0 91:112.0 92:164.0 93:146.0 94:165.0 95:121.0 96:167.0 97:139.0 98:166.0 99:130.0 100:171.0 101:103.0 102:172.0 103:156.0 104:171.0 105:97.0 106:182.0 107:163.0 108:182.0 109:130.0 110:184.0 111:131.0 112:201.0 113:116.0 114:184.0 115:143.0 116:184.0 117:117.0 118:198.0 119:144.0 120:198.0 121:117.0 122:190.0 123:130.0 124:191.0 125:143.0 126:189.0 127:117.0 128:190.0 129:131.0 130:192.0 131:143.0 132:190.0 
0.5989162370133323 1:99.0 2:126.0 3:158.0 4:125.0 5:127.0 6:156.0 7:103.0 8:186.0 9:153.0 10:187.0 11:81.0 12:189.0 13:176.0 14:192.0 15:91.0 16:203.0 17:166.0 18:204.0 19:107.0 20:215.0 21:150.0 22:216.0 23:129.0 24:221.0 25:79.0 26:113.0 27:115.0 28:113.0 29:143.0 30:111.0 31:178.0 32:112.0 33:97.0 34:106.0 35:161.0 36:105.0 37:87.0 38:107.0 39:106.0 40:108.0 41:151.0 42:107.0 43:171.0 44:106.0 45:128.0 46:125.0 47:86.0 48:128.0 49:112.0 50:130.0 51:144.0 52:130.0 53:171.0 54:128.0 55:98.0 56:132.0 57:99.0 58:122.0 59:94.0 60:127.0 61:104.0 62:127.0 63:158.0 64:131.0 65:157.0 66:121.0 67:152.0 68:127.0 69:163.0 70:126.0 71:91.0 72:123.0 73:107.0 74:124.0 75:91.0 76:130.0 77:105.0 78:131.0 79:149.0 80:124.0 81:165.0 82:123.0 83:151.0 84:131.0 85:165.0 86:130.0 87:116.0 88:152.0 89:136.0 90:151.0 91:111.0 92:160.0 93:144.0 94:160.0 95:117.0 96:160.0 97:135.0 98:160.0 99:127.0 100:167.0 101:102.0 102:170.0 103:154.0 104:170.0 105:96.0 106:180.0 107:161.0 108:180.0 109:127.0 110:180.0 111:129.0 112:196.0 113:115.0 114:181.0 115:140.0 116:182.0 117:115.0 118:194.0 119:141.0 120:194.0 121:114.0 122:188.0 123:128.0 124:188.0 125:140.0 126:188.0 127:115.0 128:188.0 129:128.0 130:188.0 131:141.0 132:188.0 
0.699506867285558 1:98.0 2:125.0 3:158.0 4:125.0 5:126.0 6:157.0 7:103.0 8:187.0 9:152.0 10:186.0 11:81.0 12:190.0 13:177.0 14:191.0 15:93.0 16:203.0 17:167.0 18:204.0 19:106.0 20:214.0 21:150.0 22:215.0 23:128.0 24:222.0 25:79.0 26:112.0 27:113.0 28:112.0 29:142.0 30:110.0 31:178.0 32:111.0 33:96.0 34:106.0 35:160.0 36:104.0 37:86.0 38:107.0 39:105.0 40:108.0 41:150.0 42:106.0 43:171.0 44:105.0 45:127.0 46:125.0 47:85.0 48:127.0 49:112.0 50:130.0 51:143.0 52:129.0 53:171.0 54:127.0 55:97.0 56:131.0 57:98.0 58:121.0 59:93.0 60:126.0 61:104.0 62:127.0 63:157.0 64:131.0 65:156.0 66:121.0 67:152.0 68:126.0 69:163.0 70:126.0 71:90.0 72:123.0 73:106.0 74:124.0 75:91.0 76:130.0 77:105.0 78:131.0 79:148.0 80:124.0 81:165.0 82:123.0 83:150.0 84:130.0 85:164.0 86:130.0 87:115.0 88:152.0 89:137.0 90:151.0 91:110.0 92:161.0 93:144.0 94:161.0 95:117.0 96:161.0 97:135.0 98:161.0 99:126.0 100:168.0 101:102.0 102:168.0 103:153.0 104:170.0 105:96.0 106:178.0 107:159.0 108:179.0 109:126.0 110:180.0 111:127.0 112:198.0 113:114.0 114:181.0 115:139.0 116:181.0 117:115.0 118:195.0 119:140.0 120:195.0 121:114.0 122:187.0 123:126.0 124:188.0 125:139.0 126:187.0 127:115.0 128:187.0 129:127.0 130:189.0 131:140.0 132:188.0 
0.7466519450022069 1:98.0 2:126.0 3:158.0 4:125.0 5:126.0 6:158.0 7:103.0 8:188.0 9:154.0 10:188.0 11:81.0 12:192.0 13:176.0 14:195.0 15:93.0 16:205.0 17:165.0 18:207.0 19:109.0 20:217.0 21:149.0 22:218.0 23:130.0 24:224.0 25:78.0 26:112.0 27:114.0 28:112.0 29:143.0 30:110.0 31:179.0 32:112.0 33:95.0 34:106.0 35:162.0 36:104.0 37:85.0 38:107.0 39:105.0 40:108.0 41:152.0 42:106.0 43:172.0 44:106.0 45:127.0 46:127.0 47:85.0 48:128.0 49:113.0 50:130.0 51:144.0 52:130.0 53:172.0 54:127.0 55:98.0 56:132.0 57:99.0 58:121.0 59:92.0 60:127.0 61:104.0 62:128.0 63:159.0 64:132.0 65:157.0 66:121.0 67:153.0 68:127.0 69:164.0 70:126.0 71:91.0 72:123.0 73:107.0 74:125.0 75:91.0 76:131.0 77:106.0 78:131.0 79:149.0 80:124.0 81:166.0 82:123.0 83:151.0 84:131.0 85:166.0 86:130.0 87:114.0 88:153.0 89:137.0 90:152.0 91:109.0 92:161.0 93:144.0 94:161.0 95:117.0 96:162.0 97:135.0 98:162.0 99:127.0 100:169.0 101:101.0 102:171.0 103:155.0 104:171.0 105:97.0 106:182.0 107:161.0 108:183.0 109:127.0 110:181.0 111:128.0 112:199.0 113:114.0 114:182.0 115:141.0 116:182.0 117:115.0 118:196.0 119:142.0 120:196.0 121:115.0 122:188.0 123:127.0 124:188.0 125:141.0 126:188.0 127:115.0 128:189.0 129:128.0 130:189.0 131:141.0 132:189.0 
0.8331620365137085 1:100.0 2:127.0 3:157.0 4:127.0 5:130.0 6:163.0 7:106.0 8:200.0 9:150.0 10:201.0 11:80.0 12:212.0 13:182.0 14:211.0 15:94.0 16:226.0 17:170.0 18:225.0 19:110.0 20:241.0 21:153.0 22:240.0 23:132.0 24:248.0 25:76.0 26:112.0 27:116.0 28:109.0 29:145.0 30:107.0 31:186.0 32:114.0 33:95.0 34:104.0 35:166.0 36:104.0 37:84.0 38:106.0 39:106.0 40:105.0 41:155.0 42:104.0 43:178.0 44:108.0 45:129.0 46:127.0 47:84.0 48:127.0 49:112.0 50:132.0 51:145.0 52:133.0 53:173.0 54:127.0 55:98.0 56:133.0 57:99.0 58:122.0 59:94.0 60:127.0 61:105.0 62:129.0 63:159.0 64:134.0 65:157.0 66:122.0 67:151.0 68:129.0 69:163.0 70:127.0 71:91.0 72:123.0 73:107.0 74:126.0 75:91.0 76:131.0 77:105.0 78:133.0 79:149.0 80:126.0 81:166.0 82:123.0 83:153.0 84:134.0 85:166.0 86:131.0 87:117.0 88:157.0 89:139.0 90:156.0 91:112.0 92:167.0 93:148.0 94:169.0 95:119.0 96:168.0 97:138.0 98:168.0 99:129.0 100:174.0 101:103.0 102:179.0 103:155.0 104:179.0 105:96.0 106:193.0 107:161.0 108:191.0 109:129.0 110:191.0 111:128.0 112:216.0 113:117.0 114:193.0 115:141.0 116:193.0 117:115.0 118:212.0 119:141.0 120:212.0 121:117.0 122:200.0 123:129.0 124:201.0 125:140.0 126:200.0 127:116.0 128:201.0 129:128.0 130:202.0 131:140.0 132:200.0 
0.7096235929181826 1:99.0 2:126.0 3:158.0 4:125.0 5:129.0 6:164.0 7:106.0 8:201.0 9:152.0 10:200.0 11:79.0 12:209.0 13:183.0 14:208.0 15:92.0 16:226.0 17:172.0 18:224.0 19:110.0 20:242.0 21:155.0 22:240.0 23:133.0 24:248.0 25:73.0 26:112.0 27:116.0 28:108.0 29:141.0 30:107.0 31:186.0 32:113.0 33:94.0 34:102.0 35:165.0 36:103.0 37:82.0 38:106.0 39:106.0 40:104.0 41:152.0 42:104.0 43:177.0 44:107.0 45:129.0 46:127.0 47:82.0 48:127.0 49:113.0 50:133.0 51:144.0 52:132.0 53:173.0 54:126.0 55:97.0 56:133.0 57:99.0 58:122.0 59:93.0 60:127.0 61:105.0 62:129.0 63:160.0 64:133.0 65:157.0 66:121.0 67:152.0 68:128.0 69:164.0 70:126.0 71:90.0 72:123.0 73:107.0 74:126.0 75:89.0 76:131.0 77:105.0 78:133.0 79:149.0 80:125.0 81:166.0 82:122.0 83:152.0 84:133.0 85:167.0 86:130.0 87:116.0 88:159.0 89:141.0 90:157.0 91:108.0 92:170.0 93:149.0 94:169.0 95:119.0 96:169.0 97:139.0 98:168.0 99:129.0 100:175.0 101:102.0 102:181.0 103:157.0 104:180.0 105:96.0 106:194.0 107:163.0 108:193.0 109:129.0 110:193.0 111:129.0 112:216.0 113:116.0 114:194.0 115:142.0 116:194.0 117:115.0 118:213.0 119:143.0 120:213.0 121:117.0 122:201.0 123:130.0 124:202.0 125:141.0 126:200.0 127:117.0 128:202.0 129:129.0 130:203.0 131:141.0 132:202.0 
0.7036650932691634 1:99.0 2:126.0 3:158.0 4:126.0 5:128.0 6:164.0 7:104.0 8:201.0 9:153.0 10:200.0 11:80.0 12:209.0 13:182.0 14:211.0 15:93.0 16:226.0 17:169.0 18:226.0 19:111.0 20:242.0 21:152.0 22:242.0 23:133.0 24:248.0 25:74.0 26:111.0 27:116.0 28:107.0 29:140.0 30:106.0 31:185.0 32:113.0 33:93.0 34:102.0 35:165.0 36:103.0 37:82.0 38:106.0 39:105.0 40:103.0 41:152.0 42:103.0 43:177.0 44:107.0 45:128.0 46:126.0 47:83.0 48:127.0 49:111.0 50:132.0 51:145.0 52:132.0 53:173.0 54:127.0 55:96.0 56:133.0 57:99.0 58:121.0 59:93.0 60:126.0 61:105.0 62:129.0 63:160.0 64:133.0 65:157.0 66:121.0 67:151.0 68:128.0 69:164.0 70:126.0 71:90.0 72:122.0 73:107.0 74:125.0 75:89.0 76:131.0 77:104.0 78:134.0 79:149.0 80:125.0 81:166.0 82:122.0 83:153.0 84:133.0 85:167.0 86:131.0 87:115.0 88:157.0 89:139.0 90:157.0 91:107.0 92:169.0 93:149.0 94:168.0 95:118.0 96:169.0 97:138.0 98:168.0 99:128.0 100:175.0 101:101.0 102:179.0 103:156.0 104:179.0 105:94.0 106:192.0 107:162.0 108:192.0 109:128.0 110:193.0 111:128.0 112:215.0 113:115.0 114:194.0 115:141.0 116:194.0 117:115.0 118:212.0 119:143.0 120:211.0 121:116.0 122:201.0 123:128.0 124:201.0 125:141.0 126:200.0 127:116.0 128:203.0 129:128.0 130:203.0 131:140.0 132:201.0 
0.7929479058581413 1:97.0 2:126.0 3:158.0 4:125.0 5:127.0 6:160.0 7:107.0 8:192.0 9:152.0 10:190.0 11:81.0 12:196.0 13:175.0 14:193.0 15:95.0 16:211.0 17:165.0 18:208.0 19:112.0 20:223.0 21:151.0 22:220.0 23:132.0 24:227.0 25:76.0 26:111.0 27:110.0 28:106.0 29:142.0 30:106.0 31:179.0 32:109.0 33:93.0 34:105.0 35:161.0 36:103.0 37:84.0 38:107.0 39:102.0 40:105.0 41:152.0 42:104.0 43:171.0 44:105.0 45:127.0 46:126.0 47:81.0 48:127.0 49:110.0 50:130.0 51:145.0 52:129.0 53:173.0 54:125.0 55:95.0 56:132.0 57:97.0 58:121.0 59:90.0 60:126.0 61:103.0 62:128.0 63:161.0 64:131.0 65:159.0 66:121.0 67:152.0 68:127.0 69:164.0 70:125.0 71:88.0 72:123.0 73:105.0 74:124.0 75:88.0 76:130.0 77:103.0 78:132.0 79:151.0 80:123.0 81:167.0 82:122.0 83:153.0 84:131.0 85:167.0 86:129.0 87:115.0 88:155.0 89:139.0 90:154.0 91:107.0 92:164.0 93:147.0 94:163.0 95:119.0 96:165.0 97:138.0 98:165.0 99:129.0 100:170.0 101:102.0 102:173.0 103:156.0 104:170.0 105:98.0 106:184.0 107:161.0 108:182.0 109:128.0 110:181.0 111:129.0 112:200.0 113:117.0 114:183.0 115:141.0 116:182.0 117:117.0 118:199.0 119:142.0 120:198.0 121:118.0 122:189.0 123:129.0 124:190.0 125:141.0 126:188.0 127:118.0 128:189.0 129:129.0 130:189.0 131:141.0 132:188.0 
0.9321656201195861 1:97.0 2:127.0 3:159.0 4:125.0 5:128.0 6:161.0 7:107.0 8:190.0 9:153.0 10:188.0 11:82.0 12:197.0 13:174.0 14:200.0 15:95.0 16:212.0 17:162.0 18:214.0 19:111.0 20:225.0 21:148.0 22:227.0 23:131.0 24:231.0 25:76.0 26:113.0 27:111.0 28:107.0 29:145.0 30:106.0 31:180.0 32:109.0 33:93.0 34:106.0 35:163.0 36:104.0 37:83.0 38:108.0 39:103.0 40:105.0 41:154.0 42:104.0 43:173.0 44:106.0 45:128.0 46:126.0 47:83.0 48:127.0 49:111.0 50:130.0 51:147.0 52:129.0 53:174.0 54:126.0 55:96.0 56:133.0 57:97.0 58:122.0 59:91.0 60:127.0 61:103.0 62:128.0 63:161.0 64:132.0 65:159.0 66:121.0 67:153.0 68:127.0 69:165.0 70:126.0 71:89.0 72:123.0 73:105.0 74:125.0 75:89.0 76:131.0 77:104.0 78:132.0 79:151.0 80:124.0 81:167.0 82:122.0 83:153.0 84:131.0 85:168.0 86:130.0 87:116.0 88:155.0 89:140.0 90:154.0 91:110.0 92:164.0 93:148.0 94:163.0 95:119.0 96:166.0 97:138.0 98:165.0 99:129.0 100:171.0 101:104.0 102:173.0 103:157.0 104:171.0 105:99.0 106:182.0 107:165.0 108:181.0 109:129.0 110:182.0 111:129.0 112:199.0 113:117.0 114:184.0 115:141.0 116:183.0 117:117.0 118:197.0 119:142.0 120:196.0 121:118.0 122:189.0 123:129.0 124:190.0 125:140.0 126:188.0 127:118.0 128:189.0 129:129.0 130:190.0 131:140.0 132:189.0 
0.9349334908266336 1:96.0 2:126.0 3:158.0 4:124.0 5:127.0 6:159.0 7:106.0 8:189.0 9:151.0 10:187.0 11:77.0 12:191.0 13:178.0 14:191.0 15:90.0 16:207.0 17:168.0 18:205.0 19:109.0 20:220.0 21:153.0 22:219.0 23:131.0 24:226.0 25:76.0 26:111.0 27:112.0 28:107.0 29:142.0 30:106.0 31:179.0 32:109.0 33:93.0 34:104.0 35:161.0 36:102.0 37:84.0 38:106.0 39:103.0 40:105.0 41:151.0 42:103.0 43:172.0 44:105.0 45:127.0 46:125.0 47:81.0 48:126.0 49:109.0 50:129.0 51:146.0 52:128.0 53:173.0 54:125.0 55:95.0 56:132.0 57:96.0 58:121.0 59:91.0 60:126.0 61:102.0 62:128.0 63:160.0 64:131.0 65:159.0 66:120.0 67:152.0 68:126.0 69:164.0 70:125.0 71:88.0 72:123.0 73:104.0 74:123.0 75:87.0 76:130.0 77:102.0 78:131.0 79:151.0 80:122.0 81:167.0 82:122.0 83:153.0 84:131.0 85:167.0 86:129.0 87:116.0 88:154.0 89:138.0 90:153.0 91:108.0 92:165.0 93:147.0 94:162.0 95:119.0 96:165.0 97:137.0 98:165.0 99:128.0 100:169.0 101:103.0 102:171.0 103:156.0 104:169.0 105:97.0 106:180.0 107:162.0 108:180.0 109:128.0 110:181.0 111:129.0 112:199.0 113:116.0 114:183.0 115:140.0 116:182.0 117:116.0 118:197.0 119:141.0 120:195.0 121:116.0 122:189.0 123:128.0 124:188.0 125:140.0 126:187.0 127:117.0 128:189.0 129:128.0 130:189.0 131:140.0 132:188.0 
0.8783986123519543 1:97.0 2:125.0 3:159.0 4:126.0 5:129.0 6:159.0 7:107.0 8:194.0 9:149.0 10:194.0 11:74.0 12:198.0 13:173.0 14:202.0 15:87.0 16:211.0 17:163.0 18:214.0 19:104.0 20:224.0 21:148.0 22:228.0 23:127.0 24:234.0 25:77.0 26:111.0 27:113.0 28:105.0 29:146.0 30:107.0 31:179.0 32:115.0 33:94.0 34:101.0 35:164.0 36:104.0 37:84.0 38:105.0 39:104.0 40:102.0 41:155.0 42:105.0 43:172.0 44:108.0 45:130.0 46:127.0 47:84.0 48:126.0 49:110.0 50:129.0 51:146.0 52:130.0 53:173.0 54:129.0 55:96.0 56:131.0 57:97.0 58:120.0 59:91.0 60:126.0 61:103.0 62:127.0 63:160.0 64:132.0 65:159.0 66:122.0 67:153.0 68:128.0 69:165.0 70:127.0 71:90.0 72:122.0 73:105.0 74:123.0 75:90.0 76:129.0 77:103.0 78:131.0 79:151.0 80:125.0 81:167.0 82:124.0 83:153.0 84:132.0 85:167.0 86:131.0 87:118.0 88:155.0 89:140.0 90:154.0 91:108.0 92:166.0 93:149.0 94:167.0 95:121.0 96:165.0 97:138.0 98:165.0 99:129.0 100:170.0 101:100.0 102:175.0 103:156.0 104:177.0 105:95.0 106:187.0 107:161.0 108:189.0 109:129.0 110:185.0 111:128.0 112:200.0 113:117.0 114:187.0 115:140.0 116:187.0 117:117.0 118:197.0 119:140.0 120:199.0 121:118.0 122:192.0 123:129.0 124:191.0 125:140.0 126:192.0 127:117.0 128:192.0 129:129.0 130:192.0 131:140.0 132:192.0 
0.7972513119614324 1:97.0 2:125.0 3:158.0 4:125.0 5:130.0 6:157.0 7:106.0 8:192.0 9:151.0 10:192.0 11:76.0 12:198.0 13:173.0 14:202.0 15:89.0 16:212.0 17:164.0 18:214.0 19:107.0 20:224.0 21:148.0 22:225.0 23:129.0 24:230.0 25:76.0 26:112.0 27:114.0 28:105.0 29:147.0 30:106.0 31:179.0 32:115.0 33:93.0 34:102.0 35:166.0 36:104.0 37:83.0 38:106.0 39:103.0 40:102.0 41:157.0 42:103.0 43:174.0 44:108.0 45:129.0 46:124.0 47:83.0 48:126.0 49:111.0 50:129.0 51:146.0 52:129.0 53:171.0 54:127.0 55:97.0 56:131.0 57:97.0 58:121.0 59:91.0 60:125.0 61:103.0 62:126.0 63:159.0 64:131.0 65:158.0 66:121.0 67:153.0 68:127.0 69:164.0 70:126.0 71:89.0 72:122.0 73:105.0 74:124.0 75:89.0 76:129.0 77:104.0 78:130.0 79:151.0 80:124.0 81:165.0 82:123.0 83:152.0 84:131.0 85:166.0 86:129.0 87:116.0 88:153.0 89:141.0 90:152.0 91:109.0 92:165.0 93:149.0 94:164.0 95:122.0 96:164.0 97:138.0 98:163.0 99:130.0 100:169.0 101:102.0 102:174.0 103:156.0 104:174.0 105:98.0 106:185.0 107:160.0 108:185.0 109:131.0 110:183.0 111:130.0 112:199.0 113:117.0 114:185.0 115:142.0 116:184.0 117:117.0 118:197.0 119:141.0 120:197.0 121:118.0 122:190.0 123:130.0 124:190.0 125:142.0 126:189.0 127:118.0 128:191.0 129:130.0 130:190.0 131:141.0 132:190.0 
0.7433673067010547 1:97.0 2:124.0 3:158.0 4:126.0 5:131.0 6:159.0 7:106.0 8:193.0 9:150.0 10:193.0 11:74.0 12:201.0 13:171.0 14:203.0 15:90.0 16:214.0 17:161.0 18:215.0 19:107.0 20:225.0 21:147.0 22:226.0 23:129.0 24:230.0 25:76.0 26:111.0 27:113.0 28:103.0 29:151.0 30:106.0 31:179.0 32:115.0 33:92.0 34:100.0 35:167.0 36:104.0 37:82.0 38:104.0 39:102.0 40:100.0 41:159.0 42:104.0 43:174.0 44:108.0 45:130.0 46:125.0 47:83.0 48:125.0 49:111.0 50:129.0 51:147.0 52:130.0 53:172.0 54:129.0 55:96.0 56:131.0 57:97.0 58:120.0 59:91.0 60:125.0 61:103.0 62:126.0 63:160.0 64:132.0 65:159.0 66:122.0 67:153.0 68:128.0 69:165.0 70:128.0 71:89.0 72:121.0 73:105.0 74:123.0 75:89.0 76:129.0 77:104.0 78:130.0 79:151.0 80:124.0 81:167.0 82:124.0 83:153.0 84:132.0 85:166.0 86:131.0 87:117.0 88:154.0 89:141.0 90:154.0 91:109.0 92:166.0 93:150.0 94:165.0 95:122.0 96:164.0 97:139.0 98:165.0 99:131.0 100:170.0 101:101.0 102:174.0 103:157.0 104:175.0 105:96.0 106:186.0 107:160.0 108:187.0 109:130.0 110:183.0 111:130.0 112:200.0 113:117.0 114:186.0 115:141.0 116:186.0 117:117.0 118:198.0 119:141.0 120:198.0 121:117.0 122:191.0 123:130.0 124:190.0 125:141.0 126:191.0 127:117.0 128:192.0 129:130.0 130:192.0 131:141.0 132:192.0 
1.0 1:98.0 2:126.0 3:160.0 4:125.0 5:130.0 6:163.0 7:105.0 8:195.0 9:155.0 10:194.0 11:85.0 12:203.0 13:174.0 14:203.0 15:95.0 16:219.0 17:163.0 18:218.0 19:109.0 20:233.0 21:149.0 22:233.0 23:129.0 24:239.0 25:72.0 26:109.0 27:111.0 28:105.0 29:147.0 30:104.0 31:185.0 32:108.0 33:89.0 34:100.0 35:167.0 36:100.0 37:79.0 38:103.0 39:101.0 40:101.0 41:157.0 42:101.0 43:177.0 44:102.0 45:129.0 46:126.0 47:82.0 48:127.0 49:111.0 50:130.0 51:146.0 52:130.0 53:176.0 54:127.0 55:96.0 56:131.0 57:97.0 58:121.0 59:92.0 60:126.0 61:103.0 62:128.0 63:162.0 64:132.0 65:160.0 66:121.0 67:154.0 68:127.0 69:166.0 70:126.0 71:89.0 72:123.0 73:105.0 74:124.0 75:88.0 76:131.0 77:104.0 78:131.0 79:152.0 80:124.0 81:169.0 82:123.0 83:154.0 84:131.0 85:169.0 86:130.0 87:117.0 88:157.0 89:140.0 90:156.0 91:109.0 92:166.0 93:149.0 94:166.0 95:120.0 96:169.0 97:138.0 98:168.0 99:129.0 100:174.0 101:101.0 102:175.0 103:159.0 104:176.0 105:96.0 106:187.0 107:166.0 108:188.0 109:130.0 110:185.0 111:129.0 112:205.0 113:116.0 114:187.0 115:143.0 116:188.0 117:116.0 118:202.0 119:144.0 120:203.0 121:117.0 122:193.0 123:130.0 124:195.0 125:143.0 126:193.0 127:117.0 128:195.0 129:130.0 130:195.0 131:142.0 132:195.0 
0.9048334123626631 1:98.0 2:125.0 3:158.0 4:125.0 5:129.0 6:160.0 7:106.0 8:191.0 9:152.0 10:191.0 11:86.0 12:198.0 13:172.0 14:199.0 15:96.0 16:210.0 17:162.0 18:209.0 19:111.0 20:220.0 21:149.0 22:220.0 23:131.0 24:225.0 25:75.0 26:110.0 27:113.0 28:107.0 29:145.0 30:105.0 31:182.0 32:111.0 33:92.0 34:101.0 35:165.0 36:101.0 37:82.0 38:104.0 39:103.0 40:102.0 41:154.0 42:102.0 43:175.0 44:104.0 45:128.0 46:127.0 47:83.0 48:127.0 49:111.0 50:129.0 51:144.0 52:129.0 53:173.0 54:127.0 55:97.0 56:131.0 57:98.0 58:122.0 59:93.0 60:126.0 61:104.0 62:127.0 63:159.0 64:131.0 65:158.0 66:121.0 67:152.0 68:127.0 69:163.0 70:126.0 71:90.0 72:123.0 73:105.0 74:124.0 75:89.0 76:130.0 77:104.0 78:131.0 79:150.0 80:124.0 81:166.0 82:123.0 83:152.0 84:131.0 85:167.0 86:130.0 87:116.0 88:154.0 89:139.0 90:153.0 91:110.0 92:164.0 93:147.0 94:163.0 95:120.0 96:166.0 97:137.0 98:165.0 99:129.0 100:171.0 101:103.0 102:172.0 103:155.0 104:173.0 105:96.0 106:183.0 107:160.0 108:184.0 109:129.0 110:183.0 111:130.0 112:201.0 113:117.0 114:185.0 115:141.0 116:185.0 117:117.0 118:198.0 119:141.0 120:198.0 121:117.0 122:190.0 123:129.0 124:191.0 125:141.0 126:190.0 127:117.0 128:191.0 129:130.0 130:192.0 131:141.0 132:191.0 
0.9979429908225255 1:98.0 2:126.0 3:160.0 4:125.0 5:130.0 6:161.0 7:106.0 8:192.0 9:154.0 10:192.0 11:84.0 12:197.0 13:174.0 14:201.0 15:97.0 16:210.0 17:162.0 18:213.0 19:111.0 20:222.0 21:146.0 22:225.0 23:130.0 24:230.0 25:74.0 26:110.0 27:111.0 28:107.0 29:147.0 30:105.0 31:186.0 32:110.0 33:91.0 34:101.0 35:167.0 36:101.0 37:81.0 38:104.0 39:101.0 40:102.0 41:157.0 42:102.0 43:177.0 44:104.0 45:129.0 46:126.0 47:83.0 48:128.0 49:112.0 50:130.0 51:145.0 52:130.0 53:176.0 54:127.0 55:97.0 56:132.0 57:98.0 58:122.0 59:92.0 60:127.0 61:103.0 62:127.0 63:161.0 64:132.0 65:159.0 66:121.0 67:154.0 68:127.0 69:166.0 70:125.0 71:90.0 72:124.0 73:106.0 74:124.0 75:89.0 76:131.0 77:105.0 78:131.0 79:151.0 80:124.0 81:168.0 82:123.0 83:153.0 84:131.0 85:168.0 86:130.0 87:116.0 88:154.0 89:140.0 90:153.0 91:109.0 92:165.0 93:150.0 94:165.0 95:120.0 96:167.0 97:139.0 98:167.0 99:130.0 100:172.0 101:102.0 102:174.0 103:158.0 104:174.0 105:97.0 106:184.0 107:164.0 108:186.0 109:130.0 110:185.0 111:130.0 112:205.0 113:117.0 114:187.0 115:143.0 116:187.0 117:117.0 118:202.0 119:143.0 120:201.0 121:118.0 122:192.0 123:130.0 124:193.0 125:142.0 126:192.0 127:117.0 128:193.0 129:130.0 130:194.0 131:142.0 132:192.0 
-0.8520440736484771 1:97.0 2:126.0 3:156.0 4:125.0 5:129.0 6:159.0 7:101.0 8:185.0 9:155.0 10:185.0 11:78.0 12:192.0 13:176.0 14:190.0 15:91.0 16:206.0 17:166.0 18:204.0 19:107.0 20:218.0 21:150.0 22:217.0 23:130.0 24:224.0 25:76.0 26:111.0 27:113.0 28:110.0 29:141.0 30:110.0 31:178.0 32:109.0 33:94.0 34:107.0 35:160.0 36:105.0 37:84.0 38:107.0 39:104.0 40:108.0 41:150.0 42:107.0 43:170.0 44:105.0 45:128.0 46:125.0 47:82.0 48:126.0 49:112.0 50:130.0 51:143.0 52:129.0 53:170.0 54:125.0 55:97.0 56:131.0 57:98.0 58:123.0 59:91.0 60:126.0 61:103.0 62:127.0 63:157.0 64:130.0 65:156.0 66:122.0 67:151.0 68:127.0 69:162.0 70:125.0 71:90.0 72:124.0 73:106.0 74:126.0 75:89.0 76:130.0 77:104.0 78:131.0 79:149.0 80:125.0 81:163.0 82:123.0 83:151.0 84:130.0 85:164.0 86:128.0 87:117.0 88:153.0 89:139.0 90:152.0 91:110.0 92:162.0 93:146.0 94:161.0 95:118.0 96:163.0 97:139.0 98:163.0 99:129.0 100:168.0 101:101.0 102:169.0 103:155.0 104:170.0 105:94.0 106:178.0 107:161.0 108:180.0 109:130.0 110:180.0 111:130.0 112:196.0 113:115.0 114:181.0 115:143.0 116:180.0 117:114.0 118:194.0 119:144.0 120:192.0 121:115.0 122:184.0 123:130.0 124:184.0 125:142.0 126:183.0 127:115.0 128:186.0 129:130.0 130:187.0 131:143.0 132:186.0 
-0.737439386895223 1:99.0 2:126.0 3:156.0 4:124.0 5:129.0 6:159.0 7:101.0 8:184.0 9:155.0 10:184.0 11:80.0 12:190.0 13:175.0 14:189.0 15:93.0 16:204.0 17:163.0 18:202.0 19:109.0 20:216.0 21:148.0 22:215.0 23:130.0 24:221.0 25:76.0 26:112.0 27:114.0 28:111.0 29:141.0 30:110.0 31:177.0 32:109.0 33:94.0 34:107.0 35:160.0 36:105.0 37:83.0 38:108.0 39:104.0 40:108.0 41:150.0 42:107.0 43:170.0 44:105.0 45:128.0 46:125.0 47:83.0 48:126.0 49:112.0 50:129.0 51:144.0 52:128.0 53:169.0 54:123.0 55:97.0 56:131.0 57:99.0 58:124.0 59:93.0 60:126.0 61:104.0 62:127.0 63:158.0 64:129.0 65:156.0 66:122.0 67:151.0 68:126.0 69:162.0 70:124.0 71:90.0 72:124.0 73:106.0 74:125.0 75:90.0 76:130.0 77:105.0 78:131.0 79:149.0 80:124.0 81:163.0 82:121.0 83:151.0 84:129.0 85:164.0 86:127.0 87:117.0 88:152.0 89:139.0 90:152.0 91:109.0 92:161.0 93:146.0 94:160.0 95:118.0 96:163.0 97:139.0 98:162.0 99:130.0 100:167.0 101:103.0 102:168.0 103:154.0 104:167.0 105:96.0 106:177.0 107:159.0 108:176.0 109:130.0 110:178.0 111:131.0 112:195.0 113:114.0 114:178.0 115:143.0 116:178.0 117:115.0 118:193.0 119:144.0 120:191.0 121:115.0 122:182.0 123:131.0 124:182.0 125:143.0 126:181.0 127:115.0 128:184.0 129:131.0 130:185.0 131:143.0 132:183.0 
-0.9079187960271623 1:98.0 2:125.0 3:154.0 4:127.0 5:127.0 6:157.0 7:102.0 8:186.0 9:146.0 10:187.0 11:75.0 12:186.0 13:170.0 14:191.0 15:87.0 16:199.0 17:159.0 18:204.0 19:102.0 20:212.0 21:142.0 22:214.0 23:123.0 24:220.0 25:78.0 26:109.0 27:114.0 28:111.0 29:141.0 30:111.0 31:176.0 32:112.0 33:96.0 34:107.0 35:159.0 36:108.0 37:86.0 38:106.0 39:105.0 40:108.0 41:150.0 42:109.0 43:169.0 44:108.0 45:127.0 46:125.0 47:85.0 48:125.0 49:111.0 50:128.0 51:141.0 52:130.0 53:167.0 54:126.0 55:97.0 56:131.0 57:99.0 58:123.0 59:93.0 60:126.0 61:103.0 62:127.0 63:155.0 64:132.0 65:153.0 66:124.0 67:150.0 68:128.0 69:160.0 70:127.0 71:91.0 72:123.0 73:105.0 74:125.0 75:90.0 76:128.0 77:104.0 78:130.0 79:147.0 80:126.0 81:161.0 82:125.0 83:148.0 84:131.0 85:162.0 86:130.0 87:115.0 88:152.0 89:136.0 90:152.0 91:108.0 92:161.0 93:142.0 94:161.0 95:117.0 96:162.0 97:134.0 98:162.0 99:126.0 100:167.0 101:100.0 102:168.0 103:149.0 104:170.0 105:95.0 106:177.0 107:151.0 108:180.0 109:126.0 110:179.0 111:124.0 112:197.0 113:114.0 114:180.0 115:137.0 116:180.0 117:112.0 118:195.0 119:137.0 120:195.0 121:114.0 122:184.0 123:126.0 124:185.0 125:136.0 126:184.0 127:113.0 128:189.0 129:125.0 130:191.0 131:137.0 132:189.0 
-0.9008397362383508 1:97.0 2:126.0 3:158.0 4:127.0 5:127.0 6:161.0 7:104.0 8:199.0 9:145.0 10:198.0 11:79.0 12:198.0 13:170.0 14:204.0 15:89.0 16:212.0 17:160.0 18:217.0 19:103.0 20:226.0 21:146.0 22:228.0 23:125.0 24:234.0 25:74.0 26:115.0 27:111.0 28:113.0 29:146.0 30:113.0 31:183.0 32:118.0 33:92.0 34:109.0 35:164.0 36:111.0 37:82.0 38:111.0 39:101.0 40:110.0 41:154.0 42:111.0 43:174.0 44:114.0 45:127.0 46:129.0 47:82.0 48:127.0 49:108.0 50:131.0 51:145.0 52:133.0 53:172.0 54:129.0 55:95.0 56:131.0 57:96.0 58:123.0 59:92.0 60:126.0 61:102.0 62:128.0 63:159.0 64:133.0 65:158.0 66:125.0 67:153.0 68:129.0 69:163.0 70:128.0 71:88.0 72:124.0 73:103.0 74:126.0 75:88.0 76:129.0 77:101.0 78:131.0 79:150.0 80:127.0 81:165.0 82:126.0 83:152.0 84:133.0 85:165.0 86:132.0 87:114.0 88:156.0 89:137.0 90:156.0 91:107.0 92:165.0 93:144.0 94:166.0 95:117.0 96:165.0 97:134.0 98:166.0 99:125.0 100:170.0 101:99.0 102:178.0 103:150.0 104:178.0 105:93.0 106:189.0 107:156.0 108:189.0 109:125.0 110:187.0 111:126.0 112:208.0 113:113.0 114:188.0 115:137.0 116:189.0 117:114.0 118:207.0 119:138.0 120:205.0 121:114.0 122:194.0 123:125.0 124:195.0 125:136.0 126:195.0 127:114.0 128:197.0 129:125.0 130:197.0 131:136.0 132:196.0 
-0.8482688785058904 1:97.0 2:126.0 3:158.0 4:127.0 5:126.0 6:159.0 7:105.0 8:194.0 9:145.0 10:194.0 11:79.0 12:194.0 13:172.0 14:200.0 15:89.0 16:208.0 17:161.0 18:213.0 19:103.0 20:222.0 21:146.0 22:224.0 23:125.0 24:230.0 25:73.0 26:116.0 27:111.0 28:113.0 29:145.0 30:113.0 31:181.0 32:118.0 33:91.0 34:109.0 35:164.0 36:111.0 37:81.0 38:111.0 39:101.0 40:110.0 41:154.0 42:111.0 43:173.0 44:113.0 45:126.0 46:128.0 47:82.0 48:126.0 49:108.0 50:131.0 51:144.0 52:132.0 53:171.0 54:129.0 55:95.0 56:131.0 57:97.0 58:123.0 59:91.0 60:126.0 61:102.0 62:128.0 63:158.0 64:132.0 65:157.0 66:125.0 67:152.0 68:129.0 69:163.0 70:128.0 71:89.0 72:123.0 73:104.0 74:126.0 75:88.0 76:129.0 77:102.0 78:131.0 79:149.0 80:126.0 81:164.0 82:126.0 83:151.0 84:132.0 85:165.0 86:131.0 87:113.0 88:154.0 89:137.0 90:154.0 91:107.0 92:163.0 93:143.0 94:164.0 95:117.0 96:165.0 97:133.0 98:165.0 99:125.0 100:169.0 101:101.0 102:174.0 103:151.0 104:175.0 105:94.0 106:186.0 107:156.0 108:186.0 109:125.0 110:183.0 111:126.0 112:204.0 113:114.0 114:185.0 115:136.0 116:185.0 117:115.0 118:201.0 119:138.0 120:201.0 121:115.0 122:191.0 123:126.0 124:192.0 125:137.0 126:191.0 127:115.0 128:193.0 129:126.0 130:193.0 131:137.0 132:192.0 
-0.836526447109041 1:97.0 2:126.0 3:158.0 4:128.0 5:128.0 6:159.0 7:105.0 8:194.0 9:149.0 10:195.0 11:80.0 12:197.0 13:172.0 14:199.0 15:91.0 16:209.0 17:164.0 18:212.0 19:104.0 20:222.0 21:152.0 22:224.0 23:129.0 24:230.0 25:74.0 26:117.0 27:111.0 28:114.0 29:147.0 30:114.0 31:181.0 32:118.0 33:92.0 34:110.0 35:165.0 36:111.0 37:82.0 38:113.0 39:102.0 40:110.0 41:156.0 42:112.0 43:174.0 44:114.0 45:128.0 46:129.0 47:83.0 48:127.0 49:109.0 50:131.0 51:146.0 52:132.0 53:172.0 54:129.0 55:95.0 56:131.0 57:96.0 58:124.0 59:92.0 60:127.0 61:102.0 62:128.0 63:159.0 64:133.0 65:158.0 66:125.0 67:153.0 68:130.0 69:164.0 70:128.0 71:89.0 72:125.0 73:104.0 74:126.0 75:89.0 76:130.0 77:102.0 78:131.0 79:150.0 80:127.0 81:165.0 82:126.0 83:152.0 84:133.0 85:166.0 86:132.0 87:115.0 88:155.0 89:139.0 90:154.0 91:108.0 92:164.0 93:144.0 94:164.0 95:118.0 96:164.0 97:135.0 98:165.0 99:127.0 100:169.0 101:101.0 102:175.0 103:153.0 104:175.0 105:95.0 106:187.0 107:159.0 108:187.0 109:128.0 110:183.0 111:128.0 112:207.0 113:115.0 114:184.0 115:140.0 116:184.0 117:114.0 118:204.0 119:141.0 120:205.0 121:115.0 122:191.0 123:128.0 124:191.0 125:140.0 126:191.0 127:115.0 128:195.0 129:129.0 130:196.0 131:141.0 132:196.0 
-0.742501959485657 1:98.0 2:127.0 3:155.0 4:127.0 5:128.0 6:168.0 7:102.0 8:198.0 9:152.0 10:199.0 11:83.0 12:200.0 13:177.0 14:208.0 15:93.0 16:213.0 17:164.0 18:220.0 19:106.0 20:228.0 21:150.0 22:231.0 23:130.0 24:236.0 25:76.0 26:114.0 27:112.0 28:116.0 29:140.0 30:115.0 31:178.0 32:114.0 33:94.0 34:110.0 35:159.0 36:109.0 37:84.0 38:110.0 39:103.0 40:112.0 41:148.0 42:111.0 43:169.0 44:109.0 45:127.0 46:131.0 47:84.0 48:128.0 49:111.0 50:133.0 51:144.0 52:134.0 53:171.0 54:129.0 55:96.0 56:133.0 57:98.0 58:122.0 59:93.0 60:127.0 61:103.0 62:129.0 63:157.0 64:133.0 65:156.0 66:122.0 67:150.0 68:130.0 69:161.0 70:128.0 71:90.0 72:124.0 73:106.0 74:126.0 75:89.0 76:131.0 77:104.0 78:133.0 79:148.0 80:126.0 81:164.0 82:124.0 83:151.0 84:133.0 85:164.0 86:132.0 87:115.0 88:163.0 89:138.0 90:162.0 91:107.0 92:171.0 93:147.0 94:172.0 95:117.0 96:173.0 97:137.0 98:173.0 99:128.0 100:179.0 101:100.0 102:180.0 103:154.0 104:182.0 105:94.0 106:191.0 107:158.0 108:192.0 109:127.0 110:189.0 111:128.0 112:209.0 113:113.0 114:189.0 115:140.0 116:190.0 117:114.0 118:205.0 119:141.0 120:206.0 121:114.0 122:196.0 123:127.0 124:196.0 125:140.0 126:197.0 127:114.0 128:197.0 129:128.0 130:198.0 131:140.0 132:197.0 
-0.717769952722473 1:97.0 2:127.0 3:155.0 4:127.0 5:128.0 6:168.0 7:102.0 8:199.0 9:151.0 10:200.0 11:79.0 12:204.0 13:177.0 14:206.0 15:90.0 16:221.0 17:165.0 18:221.0 19:105.0 20:234.0 21:149.0 22:232.0 23:129.0 24:237.0 25:75.0 26:115.0 27:114.0 28:116.0 29:140.0 30:115.0 31:179.0 32:114.0 33:93.0 34:109.0 35:159.0 36:109.0 37:83.0 38:110.0 39:104.0 40:111.0 41:149.0 42:111.0 43:170.0 44:110.0 45:128.0 46:128.0 47:82.0 48:128.0 49:111.0 50:133.0 51:144.0 52:133.0 53:171.0 54:128.0 55:96.0 56:132.0 57:98.0 58:122.0 59:92.0 60:127.0 61:103.0 62:129.0 63:158.0 64:133.0 65:156.0 66:123.0 67:150.0 68:129.0 69:162.0 70:127.0 71:89.0 72:123.0 73:107.0 74:126.0 75:89.0 76:131.0 77:103.0 78:133.0 79:147.0 80:126.0 81:164.0 82:124.0 83:151.0 84:133.0 85:164.0 86:131.0 87:115.0 88:163.0 89:138.0 90:162.0 91:108.0 92:171.0 93:147.0 94:172.0 95:117.0 96:173.0 97:138.0 98:173.0 99:128.0 100:180.0 101:101.0 102:180.0 103:153.0 104:181.0 105:94.0 106:190.0 107:159.0 108:191.0 109:128.0 110:187.0 111:128.0 112:206.0 113:114.0 114:189.0 115:141.0 116:190.0 117:115.0 118:205.0 119:141.0 120:206.0 121:115.0 122:196.0 123:128.0 124:196.0 125:139.0 126:197.0 127:116.0 128:197.0 129:128.0 130:196.0 131:139.0 132:197.0 
-0.8272004681139513 1:99.0 2:126.0 3:157.0 4:126.0 5:128.0 6:167.0 7:103.0 8:196.0 9:155.0 10:196.0 11:81.0 12:204.0 13:177.0 14:208.0 15:91.0 16:218.0 17:166.0 18:221.0 19:106.0 20:233.0 21:151.0 22:233.0 23:132.0 24:239.0 25:78.0 26:113.0 27:112.0 28:115.0 29:143.0 30:113.0 31:179.0 32:114.0 33:95.0 34:108.0 35:160.0 36:109.0 37:85.0 38:109.0 39:104.0 40:111.0 41:151.0 42:111.0 43:170.0 44:109.0 45:129.0 46:130.0 47:85.0 48:127.0 49:111.0 50:131.0 51:144.0 52:132.0 53:171.0 54:128.0 55:97.0 56:132.0 57:98.0 58:122.0 59:93.0 60:126.0 61:104.0 62:128.0 63:158.0 64:133.0 65:156.0 66:122.0 67:151.0 68:128.0 69:162.0 70:127.0 71:91.0 72:123.0 73:106.0 74:125.0 75:90.0 76:130.0 77:104.0 78:132.0 79:148.0 80:125.0 81:164.0 82:123.0 83:151.0 84:132.0 85:164.0 86:131.0 87:117.0 88:161.0 89:139.0 90:160.0 91:109.0 92:171.0 93:147.0 94:170.0 95:118.0 96:172.0 97:137.0 98:171.0 99:129.0 100:178.0 101:101.0 102:179.0 103:155.0 104:179.0 105:95.0 106:189.0 107:162.0 108:189.0 109:129.0 110:186.0 111:131.0 112:209.0 113:115.0 114:188.0 115:143.0 116:188.0 117:116.0 118:206.0 119:144.0 120:205.0 121:116.0 122:194.0 123:130.0 124:194.0 125:142.0 126:194.0 127:116.0 128:198.0 129:130.0 130:198.0 131:143.0 132:197.0 
-0.8246285534651473 1:97.0 2:126.0 3:158.0 4:125.0 5:129.0 6:165.0 7:103.0 8:185.0 9:155.0 10:184.0 11:80.0 12:191.0 13:175.0 14:192.0 15:92.0 16:206.0 17:164.0 18:205.0 19:108.0 20:220.0 21:149.0 22:220.0 23:129.0 24:227.0 25:75.0 26:114.0 27:113.0 28:116.0 29:145.0 30:116.0 31:183.0 32:114.0 33:93.0 34:111.0 35:163.0 36:111.0 37:83.0 38:112.0 39:103.0 40:112.0 41:154.0 42:113.0 43:174.0 44:112.0 45:129.0 46:126.0 47:83.0 48:127.0 49:111.0 50:130.0 51:146.0 52:131.0 53:172.0 54:126.0 55:96.0 56:132.0 57:98.0 58:122.0 59:91.0 60:126.0 61:102.0 62:127.0 63:159.0 64:132.0 65:157.0 66:122.0 67:152.0 68:128.0 69:163.0 70:125.0 71:89.0 72:123.0 73:106.0 74:125.0 75:89.0 76:131.0 77:104.0 78:132.0 79:150.0 80:125.0 81:165.0 82:123.0 83:152.0 84:132.0 85:166.0 86:130.0 87:115.0 88:157.0 89:141.0 90:156.0 91:110.0 92:163.0 93:147.0 94:164.0 95:120.0 96:169.0 97:139.0 98:169.0 99:130.0 100:173.0 101:102.0 102:170.0 103:155.0 104:170.0 105:96.0 106:178.0 107:161.0 108:178.0 109:129.0 110:182.0 111:129.0 112:203.0 113:115.0 114:181.0 115:142.0 116:181.0 117:114.0 118:198.0 119:144.0 120:198.0 121:115.0 122:185.0 123:129.0 124:187.0 125:143.0 126:185.0 127:114.0 128:192.0 129:129.0 130:196.0 131:144.0 132:192.0 
-0.8082680164960311 1:96.0 2:125.0 3:157.0 4:124.0 5:128.0 6:165.0 7:104.0 8:187.0 9:155.0 10:186.0 11:85.0 12:190.0 13:170.0 14:196.0 15:96.0 16:204.0 17:160.0 18:207.0 19:110.0 20:218.0 21:147.0 22:219.0 23:131.0 24:225.0 25:74.0 26:113.0 27:111.0 28:115.0 29:144.0 30:114.0 31:181.0 32:112.0 33:92.0 34:112.0 35:162.0 36:109.0 37:83.0 38:112.0 39:101.0 40:113.0 41:152.0 42:112.0 43:171.0 44:109.0 45:129.0 46:126.0 47:82.0 48:127.0 49:109.0 50:130.0 51:145.0 52:130.0 53:171.0 54:125.0 55:95.0 56:131.0 57:96.0 58:122.0 59:91.0 60:126.0 61:101.0 62:127.0 63:159.0 64:131.0 65:156.0 66:121.0 67:152.0 68:127.0 69:163.0 70:124.0 71:88.0 72:124.0 73:104.0 74:124.0 75:88.0 76:130.0 77:102.0 78:131.0 79:149.0 80:124.0 81:165.0 82:121.0 83:152.0 84:131.0 85:165.0 86:129.0 87:117.0 88:157.0 89:139.0 90:156.0 91:111.0 92:164.0 93:145.0 94:165.0 95:119.0 96:169.0 97:138.0 98:169.0 99:130.0 100:173.0 101:104.0 102:171.0 103:155.0 104:170.0 105:98.0 106:179.0 107:163.0 108:178.0 109:129.0 110:184.0 111:130.0 112:206.0 113:117.0 114:183.0 115:142.0 116:183.0 117:116.0 118:201.0 119:145.0 120:201.0 121:117.0 122:187.0 123:130.0 124:189.0 125:143.0 126:186.0 127:117.0 128:194.0 129:130.0 130:197.0 131:144.0 132:194.0 
-0.8633850935971772 1:95.0 2:125.0 3:158.0 4:126.0 5:129.0 6:166.0 7:103.0 8:190.0 9:152.0 10:189.0 11:82.0 12:192.0 13:174.0 14:194.0 15:92.0 16:209.0 17:163.0 18:209.0 19:108.0 20:223.0 21:149.0 22:223.0 23:130.0 24:228.0 25:72.0 26:114.0 27:111.0 28:116.0 29:145.0 30:116.0 31:184.0 32:113.0 33:91.0 34:112.0 35:164.0 36:111.0 37:81.0 38:112.0 39:101.0 40:113.0 41:154.0 42:113.0 43:174.0 44:111.0 45:128.0 46:126.0 47:81.0 48:127.0 49:110.0 50:131.0 51:145.0 52:132.0 53:173.0 54:126.0 55:95.0 56:132.0 57:97.0 58:122.0 59:90.0 60:126.0 61:101.0 62:127.0 63:160.0 64:133.0 65:157.0 66:122.0 67:153.0 68:128.0 69:164.0 70:126.0 71:88.0 72:123.0 73:105.0 74:125.0 75:88.0 76:130.0 77:102.0 78:132.0 79:149.0 80:125.0 81:166.0 82:122.0 83:153.0 84:132.0 85:167.0 86:130.0 87:115.0 88:159.0 89:139.0 90:158.0 91:110.0 92:167.0 93:145.0 94:167.0 95:117.0 96:171.0 97:138.0 98:171.0 99:128.0 100:176.0 101:101.0 102:173.0 103:154.0 104:173.0 105:94.0 106:182.0 107:161.0 108:181.0 109:128.0 110:186.0 111:128.0 112:203.0 113:115.0 114:185.0 115:140.0 116:186.0 117:115.0 118:200.0 119:141.0 120:199.0 121:115.0 122:189.0 123:128.0 124:192.0 125:140.0 126:190.0 127:116.0 128:190.0 129:128.0 130:192.0 131:140.0 132:190.0 
-0.8850331923671243 1:98.0 2:126.0 3:158.0 4:124.0 5:126.0 6:161.0 7:108.0 8:190.0 9:154.0 10:188.0 11:91.0 12:195.0 13:175.0 14:193.0 15:100.0 16:206.0 17:165.0 18:206.0 19:112.0 20:215.0 21:149.0 22:215.0 23:129.0 24:219.0 25:78.0 26:112.0 27:113.0 28:118.0 29:141.0 30:115.0 31:179.0 32:110.0 33:95.0 34:110.0 35:160.0 36:107.0 37:86.0 38:109.0 39:105.0 40:113.0 41:149.0 42:110.0 43:171.0 44:106.0 45:127.0 46:126.0 47:84.0 48:128.0 49:111.0 50:130.0 51:144.0 52:129.0 53:171.0 54:125.0 55:98.0 56:132.0 57:99.0 58:123.0 59:92.0 60:127.0 61:104.0 62:128.0 63:159.0 64:131.0 65:157.0 66:121.0 67:153.0 68:126.0 69:165.0 70:124.0 71:91.0 72:124.0 73:106.0 74:126.0 75:91.0 76:131.0 77:105.0 78:132.0 79:149.0 80:124.0 81:166.0 82:122.0 83:151.0 84:130.0 85:166.0 86:129.0 87:116.0 88:156.0 89:138.0 90:154.0 91:111.0 92:164.0 93:145.0 94:164.0 95:117.0 96:166.0 97:136.0 98:165.0 99:127.0 100:172.0 101:106.0 102:173.0 103:153.0 104:172.0 105:101.0 106:181.0 107:160.0 108:181.0 109:128.0 110:183.0 111:128.0 112:198.0 113:117.0 114:183.0 115:140.0 116:183.0 117:117.0 118:197.0 119:141.0 120:196.0 121:118.0 122:189.0 123:128.0 124:190.0 125:140.0 126:189.0 127:118.0 128:189.0 129:128.0 130:189.0 131:140.0 132:188.0 
-0.9012842567004339 1:98.0 2:126.0 3:160.0 4:124.0 5:126.0 6:161.0 7:106.0 8:190.0 9:155.0 10:189.0 11:92.0 12:202.0 13:176.0 14:201.0 15:103.0 16:216.0 17:164.0 18:214.0 19:114.0 20:228.0 21:150.0 22:228.0 23:132.0 24:235.0 25:76.0 26:111.0 27:114.0 28:117.0 29:142.0 30:116.0 31:182.0 32:109.0 33:95.0 34:110.0 35:162.0 36:106.0 37:84.0 38:109.0 39:106.0 40:113.0 41:151.0 42:110.0 43:174.0 44:106.0 45:127.0 46:125.0 47:83.0 48:127.0 49:112.0 50:131.0 51:144.0 52:130.0 53:175.0 54:124.0 55:97.0 56:132.0 57:98.0 58:122.0 59:92.0 60:126.0 61:104.0 62:128.0 63:160.0 64:131.0 65:158.0 66:120.0 67:155.0 68:126.0 69:167.0 70:124.0 71:90.0 72:123.0 73:106.0 74:125.0 75:89.0 76:131.0 77:104.0 78:132.0 79:150.0 80:124.0 81:168.0 82:121.0 83:152.0 84:131.0 85:168.0 86:128.0 87:116.0 88:156.0 89:138.0 90:154.0 91:110.0 92:165.0 93:146.0 94:164.0 95:118.0 96:166.0 97:137.0 98:166.0 99:128.0 100:173.0 101:104.0 102:172.0 103:155.0 104:172.0 105:99.0 106:181.0 107:162.0 108:180.0 109:129.0 110:185.0 111:129.0 112:209.0 113:116.0 114:185.0 115:142.0 116:185.0 117:115.0 118:204.0 119:145.0 120:204.0 121:117.0 122:191.0 123:129.0 124:191.0 125:142.0 126:190.0 127:117.0 128:194.0 129:129.0 130:198.0 131:143.0 132:195.0 
-0.8806278419656529 1:98.0 2:126.0 3:160.0 4:125.0 5:126.0 6:161.0 7:106.0 8:190.0 9:154.0 10:189.0 11:87.0 12:193.0 13:181.0 14:195.0 15:99.0 16:209.0 17:168.0 18:211.0 19:113.0 20:221.0 21:151.0 22:223.0 23:132.0 24:228.0 25:78.0 26:111.0 27:114.0 28:117.0 29:143.0 30:116.0 31:182.0 32:110.0 33:96.0 34:110.0 35:161.0 36:108.0 37:86.0 38:109.0 39:106.0 40:112.0 41:151.0 42:111.0 43:173.0 44:108.0 45:127.0 46:128.0 47:85.0 48:128.0 49:113.0 50:131.0 51:145.0 52:130.0 53:174.0 54:126.0 55:98.0 56:132.0 57:100.0 58:122.0 59:92.0 60:127.0 61:104.0 62:128.0 63:160.0 64:131.0 65:158.0 66:121.0 67:155.0 68:127.0 69:166.0 70:125.0 71:91.0 72:123.0 73:107.0 74:125.0 75:91.0 76:131.0 77:106.0 78:132.0 79:150.0 80:125.0 81:167.0 82:122.0 83:152.0 84:131.0 85:167.0 86:129.0 87:116.0 88:156.0 89:139.0 90:154.0 91:111.0 92:164.0 93:145.0 94:164.0 95:118.0 96:166.0 97:136.0 98:166.0 99:128.0 100:173.0 101:104.0 102:173.0 103:155.0 104:173.0 105:100.0 106:182.0 107:161.0 108:182.0 109:128.0 110:184.0 111:130.0 112:200.0 113:116.0 114:185.0 115:141.0 116:185.0 117:117.0 118:198.0 119:143.0 120:198.0 121:117.0 122:190.0 123:129.0 124:190.0 125:141.0 126:189.0 127:118.0 128:190.0 129:129.0 130:191.0 131:141.0 132:190.0 
-0.7625616072789817 1:97.0 2:126.0 3:155.0 4:125.0 5:129.0 6:167.0 7:103.0 8:201.0 9:155.0 10:200.0 11:79.0 12:211.0 13:176.0 14:210.0 15:95.0 16:226.0 17:165.0 18:225.0 19:111.0 20:239.0 21:150.0 22:239.0 23:132.0 24:246.0 25:70.0 26:112.0 27:113.0 28:111.0 29:141.0 30:109.0 31:183.0 32:112.0 33:91.0 34:106.0 35:163.0 36:106.0 37:79.0 38:108.0 39:103.0 40:107.0 41:151.0 42:107.0 43:173.0 44:107.0 45:127.0 46:128.0 47:79.0 48:127.0 49:110.0 50:133.0 51:142.0 52:132.0 53:171.0 54:126.0 55:94.0 56:133.0 57:96.0 58:122.0 59:90.0 60:126.0 61:103.0 62:129.0 63:157.0 64:133.0 65:154.0 66:121.0 67:149.0 68:128.0 69:162.0 70:125.0 71:87.0 72:123.0 73:105.0 74:126.0 75:87.0 76:131.0 77:102.0 78:134.0 79:147.0 80:125.0 81:163.0 82:122.0 83:150.0 84:133.0 85:165.0 86:131.0 87:115.0 88:160.0 89:140.0 90:159.0 91:107.0 92:171.0 93:148.0 94:171.0 95:118.0 96:172.0 97:139.0 98:172.0 99:128.0 100:178.0 101:100.0 102:183.0 103:156.0 104:181.0 105:93.0 106:194.0 107:164.0 108:193.0 109:129.0 110:194.0 111:129.0 112:213.0 113:116.0 114:195.0 115:142.0 116:194.0 117:115.0 118:211.0 119:143.0 120:209.0 121:116.0 122:199.0 123:129.0 124:201.0 125:141.0 126:199.0 127:116.0 128:201.0 129:129.0 130:202.0 131:141.0 132:200.0 
-0.8204169475304961 1:98.0 2:127.0 3:156.0 4:126.0 5:128.0 6:168.0 7:105.0 8:203.0 9:155.0 10:203.0 11:83.0 12:211.0 13:186.0 14:211.0 15:99.0 16:226.0 17:172.0 18:225.0 19:114.0 20:238.0 21:156.0 22:238.0 23:136.0 24:245.0 25:72.0 26:112.0 27:113.0 28:112.0 29:139.0 30:111.0 31:184.0 32:111.0 33:92.0 34:106.0 35:161.0 36:106.0 37:81.0 38:108.0 39:103.0 40:107.0 41:150.0 42:108.0 43:174.0 44:108.0 45:127.0 46:130.0 47:82.0 48:128.0 49:111.0 50:133.0 51:143.0 52:133.0 53:173.0 54:126.0 55:96.0 56:134.0 57:98.0 58:122.0 59:92.0 60:127.0 61:104.0 62:129.0 63:159.0 64:133.0 65:157.0 66:122.0 67:151.0 68:129.0 69:163.0 70:126.0 71:89.0 72:123.0 73:106.0 74:126.0 75:88.0 76:132.0 77:103.0 78:134.0 79:149.0 80:126.0 81:165.0 82:123.0 83:151.0 84:133.0 85:166.0 86:131.0 87:114.0 88:162.0 89:142.0 90:161.0 91:108.0 92:172.0 93:149.0 94:172.0 95:118.0 96:173.0 97:139.0 98:172.0 99:129.0 100:178.0 101:102.0 102:183.0 103:158.0 104:183.0 105:96.0 106:195.0 107:164.0 108:194.0 109:130.0 110:195.0 111:131.0 112:215.0 113:117.0 114:196.0 115:143.0 116:195.0 117:117.0 118:213.0 119:144.0 120:211.0 121:117.0 122:201.0 123:130.0 124:202.0 125:142.0 126:201.0 127:117.0 128:203.0 129:130.0 130:204.0 131:143.0 132:201.0 
-0.6852048792414259 1:98.0 2:126.0 3:157.0 4:124.0 5:128.0 6:168.0 7:105.0 8:202.0 9:154.0 10:200.0 11:84.0 12:211.0 13:179.0 14:209.0 15:96.0 16:225.0 17:168.0 18:225.0 19:109.0 20:238.0 21:153.0 22:238.0 23:132.0 24:244.0 25:73.0 26:112.0 27:113.0 28:112.0 29:142.0 30:110.0 31:183.0 32:111.0 33:93.0 34:107.0 35:164.0 36:106.0 37:82.0 38:108.0 39:103.0 40:108.0 41:153.0 42:107.0 43:175.0 44:107.0 45:127.0 46:129.0 47:81.0 48:127.0 49:110.0 50:133.0 51:143.0 52:132.0 53:172.0 54:125.0 55:95.0 56:134.0 57:97.0 58:122.0 59:92.0 60:126.0 61:104.0 62:129.0 63:158.0 64:132.0 65:156.0 66:121.0 67:151.0 68:127.0 69:163.0 70:125.0 71:89.0 72:123.0 73:106.0 74:126.0 75:87.0 76:131.0 77:103.0 78:134.0 79:148.0 80:125.0 81:164.0 82:122.0 83:151.0 84:132.0 85:166.0 86:129.0 87:114.0 88:162.0 89:142.0 90:160.0 91:106.0 92:173.0 93:150.0 94:172.0 95:118.0 96:173.0 97:139.0 98:171.0 99:128.0 100:178.0 101:100.0 102:183.0 103:156.0 104:181.0 105:93.0 106:194.0 107:163.0 108:192.0 109:130.0 110:193.0 111:130.0 112:214.0 113:117.0 114:195.0 115:142.0 116:194.0 117:117.0 118:212.0 119:143.0 120:210.0 121:118.0 122:200.0 123:130.0 124:201.0 125:141.0 126:199.0 127:118.0 128:202.0 129:130.0 130:202.0 131:142.0 132:201.0 
-0.7588195225503807 1:96.0 2:129.0 3:159.0 4:121.0 5:134.0 6:162.0 7:116.0 8:194.0 9:159.0 10:187.0 11:89.0 12:201.0 13:184.0 14:188.0 15:103.0 16:213.0 17:176.0 18:203.0 19:121.0 20:222.0 21:165.0 22:218.0 23:145.0 24:225.0 25:71.0 26:118.0 27:108.0 28:110.0 29:145.0 30:107.0 31:178.0 32:101.0 33:89.0 34:111.0 35:161.0 36:101.0 37:79.0 38:113.0 39:99.0 40:110.0 41:153.0 42:103.0 43:170.0 44:100.0 45:128.0 46:124.0 47:81.0 48:132.0 49:110.0 50:131.0 51:147.0 52:126.0 53:174.0 54:120.0 55:95.0 56:135.0 57:96.0 58:125.0 59:90.0 60:130.0 61:102.0 62:130.0 63:162.0 64:127.0 65:159.0 66:117.0 67:154.0 68:123.0 69:165.0 70:120.0 71:88.0 72:127.0 73:103.0 74:126.0 75:88.0 76:135.0 77:103.0 78:134.0 79:152.0 80:120.0 81:167.0 82:117.0 83:154.0 84:127.0 85:168.0 86:124.0 87:120.0 88:158.0 89:144.0 90:154.0 91:115.0 92:168.0 93:153.0 94:163.0 95:125.0 96:168.0 97:145.0 98:166.0 99:135.0 100:172.0 101:110.0 102:176.0 103:160.0 104:169.0 105:106.0 106:187.0 107:168.0 108:176.0 109:137.0 110:184.0 111:140.0 112:199.0 113:126.0 114:186.0 115:148.0 116:183.0 117:128.0 118:199.0 119:150.0 120:195.0 121:127.0 122:191.0 123:138.0 124:190.0 125:148.0 126:188.0 127:128.0 128:192.0 129:138.0 130:191.0 131:148.0 132:188.0 
-0.6868069218762082 1:96.0 2:130.0 3:159.0 4:119.0 5:135.0 6:163.0 7:117.0 8:194.0 9:160.0 10:186.0 11:94.0 12:204.0 13:186.0 14:187.0 15:110.0 16:216.0 17:178.0 18:202.0 19:127.0 20:225.0 21:166.0 22:217.0 23:148.0 24:225.0 25:72.0 26:118.0 27:109.0 28:111.0 29:142.0 30:108.0 31:179.0 32:100.0 33:89.0 34:112.0 35:159.0 36:101.0 37:79.0 38:115.0 39:99.0 40:111.0 41:151.0 42:104.0 43:169.0 44:100.0 45:127.0 46:125.0 47:81.0 48:133.0 49:110.0 50:132.0 51:146.0 52:126.0 53:174.0 54:118.0 55:96.0 56:136.0 57:95.0 58:127.0 59:90.0 60:132.0 61:103.0 62:131.0 63:162.0 64:126.0 65:158.0 66:116.0 67:154.0 68:122.0 69:165.0 70:119.0 71:87.0 72:129.0 73:104.0 74:128.0 75:88.0 76:136.0 77:103.0 78:135.0 79:151.0 80:120.0 81:167.0 82:116.0 83:154.0 84:126.0 85:168.0 86:123.0 87:121.0 88:159.0 89:144.0 90:155.0 91:117.0 92:169.0 93:153.0 94:162.0 95:125.0 96:169.0 97:146.0 98:166.0 99:136.0 100:172.0 101:112.0 102:179.0 103:161.0 104:170.0 105:108.0 106:188.0 107:168.0 108:177.0 109:137.0 110:184.0 111:142.0 112:201.0 113:126.0 114:187.0 115:149.0 116:183.0 117:129.0 118:201.0 119:152.0 120:197.0 121:128.0 122:191.0 123:139.0 124:191.0 125:150.0 126:188.0 127:128.0 128:193.0 129:139.0 130:192.0 131:149.0 132:189.0 
-0.6601183463514598 1:96.0 2:130.0 3:158.0 4:121.0 5:133.0 6:162.0 7:116.0 8:195.0 9:162.0 10:184.0 11:94.0 12:203.0 13:185.0 14:189.0 15:109.0 16:214.0 17:175.0 18:205.0 19:125.0 20:223.0 21:163.0 22:218.0 23:146.0 24:226.0 25:72.0 26:118.0 27:109.0 28:112.0 29:143.0 30:109.0 31:179.0 32:102.0 33:89.0 34:112.0 35:161.0 36:102.0 37:80.0 38:114.0 39:99.0 40:111.0 41:152.0 42:105.0 43:171.0 44:101.0 45:128.0 46:125.0 47:81.0 48:133.0 49:111.0 50:132.0 51:147.0 52:127.0 53:174.0 54:119.0 55:96.0 56:136.0 57:96.0 58:126.0 59:91.0 60:131.0 61:102.0 62:131.0 63:162.0 64:127.0 65:159.0 66:118.0 67:153.0 68:124.0 69:164.0 70:121.0 71:88.0 72:129.0 73:105.0 74:127.0 75:89.0 76:135.0 77:103.0 78:135.0 79:151.0 80:121.0 81:167.0 82:118.0 83:154.0 84:127.0 85:168.0 86:124.0 87:121.0 88:159.0 89:144.0 90:154.0 91:114.0 92:168.0 93:153.0 94:162.0 95:124.0 96:169.0 97:145.0 98:166.0 99:135.0 100:173.0 101:110.0 102:177.0 103:160.0 104:167.0 105:107.0 106:187.0 107:168.0 108:175.0 109:137.0 110:184.0 111:142.0 112:204.0 113:125.0 114:187.0 115:149.0 116:182.0 117:128.0 118:203.0 119:153.0 120:197.0 121:127.0 122:192.0 123:139.0 124:191.0 125:149.0 126:186.0 127:128.0 128:194.0 129:140.0 130:193.0 131:150.0 132:188.0 
-0.7501824122363543 1:96.0 2:125.0 3:158.0 4:125.0 5:130.0 6:162.0 7:108.0 8:195.0 9:152.0 10:191.0 11:78.0 12:198.0 13:171.0 14:199.0 15:93.0 16:212.0 17:161.0 18:213.0 19:108.0 20:224.0 21:147.0 22:226.0 23:129.0 24:230.0 25:74.0 26:114.0 27:114.0 28:111.0 29:145.0 30:110.0 31:180.0 32:115.0 33:92.0 34:106.0 35:164.0 36:107.0 37:81.0 38:108.0 39:103.0 40:107.0 41:154.0 42:108.0 43:173.0 44:109.0 45:129.0 46:126.0 47:81.0 48:127.0 49:111.0 50:130.0 51:145.0 52:129.0 53:172.0 54:126.0 55:95.0 56:132.0 57:96.0 58:122.0 59:90.0 60:126.0 61:102.0 62:127.0 63:159.0 64:131.0 65:158.0 66:122.0 67:153.0 68:127.0 69:164.0 70:126.0 71:88.0 72:123.0 73:105.0 74:125.0 75:88.0 76:130.0 77:103.0 78:131.0 79:150.0 80:124.0 81:165.0 82:123.0 83:152.0 84:130.0 85:166.0 86:129.0 87:116.0 88:156.0 89:141.0 90:155.0 91:109.0 92:167.0 93:149.0 94:166.0 95:121.0 96:168.0 97:139.0 98:168.0 99:131.0 100:174.0 101:103.0 102:176.0 103:156.0 104:175.0 105:98.0 106:188.0 107:161.0 108:186.0 109:131.0 110:184.0 111:130.0 112:203.0 113:118.0 114:187.0 115:142.0 116:185.0 117:118.0 118:201.0 119:141.0 120:199.0 121:120.0 122:191.0 123:130.0 124:190.0 125:141.0 126:189.0 127:120.0 128:191.0 129:130.0 130:192.0 131:141.0 132:190.0 
-0.8585842239557426 1:97.0 2:125.0 3:159.0 4:125.0 5:131.0 6:161.0 7:107.0 8:193.0 9:150.0 10:192.0 11:78.0 12:200.0 13:170.0 14:200.0 15:92.0 16:211.0 17:161.0 18:211.0 19:107.0 20:222.0 21:148.0 22:221.0 23:129.0 24:227.0 25:74.0 26:114.0 27:111.0 28:109.0 29:145.0 30:110.0 31:179.0 32:115.0 33:90.0 34:106.0 35:163.0 36:107.0 37:81.0 38:108.0 39:101.0 40:106.0 41:154.0 42:108.0 43:172.0 44:110.0 45:128.0 46:127.0 47:81.0 48:127.0 49:109.0 50:130.0 51:145.0 52:129.0 53:172.0 54:126.0 55:95.0 56:131.0 57:96.0 58:122.0 59:91.0 60:126.0 61:102.0 62:127.0 63:159.0 64:130.0 65:158.0 66:122.0 67:153.0 68:127.0 69:165.0 70:126.0 71:88.0 72:123.0 73:104.0 74:124.0 75:88.0 76:130.0 77:102.0 78:131.0 79:150.0 80:124.0 81:165.0 82:123.0 83:152.0 84:130.0 85:166.0 86:129.0 87:115.0 88:156.0 89:141.0 90:155.0 91:109.0 92:166.0 93:148.0 94:165.0 95:121.0 96:167.0 97:138.0 98:167.0 99:130.0 100:171.0 101:102.0 102:175.0 103:155.0 104:173.0 105:97.0 106:185.0 107:160.0 108:185.0 109:130.0 110:183.0 111:129.0 112:199.0 113:117.0 114:186.0 115:141.0 116:185.0 117:118.0 118:198.0 119:140.0 120:196.0 121:118.0 122:191.0 123:130.0 124:190.0 125:140.0 126:190.0 127:118.0 128:191.0 129:129.0 130:191.0 131:140.0 132:190.0 
-0.8655812704289663 1:96.0 2:126.0 3:158.0 4:124.0 5:131.0 6:162.0 7:109.0 8:194.0 9:154.0 10:192.0 11:78.0 12:199.0 13:172.0 14:199.0 15:94.0 16:212.0 17:164.0 18:213.0 19:109.0 20:224.0 21:151.0 22:226.0 23:133.0 24:231.0 25:74.0 26:115.0 27:112.0 28:110.0 29:144.0 30:109.0 31:180.0 32:114.0 33:91.0 34:106.0 35:162.0 36:106.0 37:81.0 38:110.0 39:102.0 40:107.0 41:152.0 42:107.0 43:172.0 44:108.0 45:128.0 46:125.0 47:81.0 48:128.0 49:110.0 50:130.0 51:145.0 52:129.0 53:172.0 54:126.0 55:95.0 56:133.0 57:96.0 58:123.0 59:90.0 60:127.0 61:102.0 62:128.0 63:159.0 64:129.0 65:158.0 66:121.0 67:152.0 68:126.0 69:164.0 70:125.0 71:87.0 72:124.0 73:104.0 74:125.0 75:88.0 76:131.0 77:103.0 78:132.0 79:150.0 80:124.0 81:166.0 82:122.0 83:152.0 84:130.0 85:166.0 86:128.0 87:116.0 88:156.0 89:142.0 90:155.0 91:109.0 92:167.0 93:151.0 94:166.0 95:122.0 96:168.0 97:140.0 98:167.0 99:132.0 100:172.0 101:104.0 102:176.0 103:157.0 104:174.0 105:100.0 106:186.0 107:162.0 108:185.0 109:132.0 110:185.0 111:132.0 112:206.0 113:119.0 114:187.0 115:143.0 116:187.0 117:119.0 118:204.0 119:145.0 120:203.0 121:120.0 122:190.0 123:132.0 124:191.0 125:143.0 126:191.0 127:120.0 128:197.0 129:132.0 130:200.0 131:144.0 132:197.0 
-0.8843281817771839 1:97.0 2:125.0 3:158.0 4:126.0 5:127.0 6:165.0 7:104.0 8:193.0 9:151.0 10:194.0 11:90.0 12:199.0 13:169.0 14:208.0 15:98.0 16:210.0 17:158.0 18:218.0 19:111.0 20:221.0 21:144.0 22:226.0 23:127.0 24:227.0 25:73.0 26:109.0 27:112.0 28:114.0 29:142.0 30:115.0 31:183.0 32:111.0 33:93.0 34:108.0 35:162.0 36:109.0 37:82.0 38:107.0 39:103.0 40:110.0 41:151.0 42:111.0 43:173.0 44:109.0 45:127.0 46:127.0 47:81.0 48:125.0 49:110.0 50:130.0 51:145.0 52:131.0 53:175.0 54:127.0 55:95.0 56:132.0 57:97.0 58:121.0 59:92.0 60:126.0 61:102.0 62:127.0 63:160.0 64:133.0 65:158.0 66:122.0 67:153.0 68:128.0 69:164.0 70:127.0 71:88.0 72:122.0 73:105.0 74:124.0 75:88.0 76:130.0 77:103.0 78:131.0 79:150.0 80:125.0 81:167.0 82:124.0 83:152.0 84:133.0 85:168.0 86:131.0 87:114.0 88:157.0 89:139.0 90:156.0 91:108.0 92:166.0 93:148.0 94:166.0 95:118.0 96:171.0 97:137.0 98:171.0 99:128.0 100:175.0 101:101.0 102:176.0 103:155.0 104:175.0 105:96.0 106:187.0 107:160.0 108:186.0 109:128.0 110:188.0 111:128.0 112:209.0 113:115.0 114:188.0 115:140.0 116:189.0 117:114.0 118:205.0 119:142.0 120:206.0 121:115.0 122:192.0 123:128.0 124:192.0 125:140.0 126:192.0 127:116.0 128:196.0 129:128.0 130:198.0 131:140.0 132:196.0 
-0.8647421657742262 1:97.0 2:125.0 3:159.0 4:125.0 5:129.0 6:165.0 7:103.0 8:187.0 9:155.0 10:186.0 11:86.0 12:193.0 13:174.0 14:198.0 15:98.0 16:206.0 17:162.0 18:210.0 19:112.0 20:217.0 21:148.0 22:220.0 23:130.0 24:222.0 25:71.0 26:108.0 27:110.0 28:113.0 29:142.0 30:114.0 31:183.0 32:110.0 33:90.0 34:107.0 35:162.0 36:108.0 37:80.0 38:106.0 39:100.0 40:109.0 41:151.0 42:110.0 43:174.0 44:107.0 45:127.0 46:126.0 47:81.0 48:126.0 49:110.0 50:129.0 51:144.0 52:130.0 53:174.0 54:126.0 55:95.0 56:131.0 57:96.0 58:122.0 59:91.0 60:125.0 61:103.0 62:126.0 63:160.0 64:131.0 65:158.0 66:122.0 67:154.0 68:126.0 69:166.0 70:125.0 71:88.0 72:123.0 73:104.0 74:124.0 75:88.0 76:130.0 77:103.0 78:130.0 79:150.0 80:124.0 81:167.0 82:123.0 83:152.0 84:130.0 85:167.0 86:129.0 87:115.0 88:156.0 89:140.0 90:156.0 91:109.0 92:165.0 93:148.0 94:166.0 95:119.0 96:170.0 97:138.0 98:169.0 99:130.0 100:174.0 101:102.0 102:171.0 103:156.0 104:171.0 105:95.0 106:180.0 107:162.0 108:180.0 109:129.0 110:185.0 111:130.0 112:202.0 113:115.0 114:184.0 115:142.0 116:185.0 117:115.0 118:198.0 119:145.0 120:198.0 121:115.0 122:188.0 123:130.0 124:190.0 125:143.0 126:188.0 127:115.0 128:191.0 129:129.0 130:192.0 131:143.0 132:190.0 
-0.8808229812226689 1:98.0 2:125.0 3:160.0 4:125.0 5:128.0 6:165.0 7:108.0 8:196.0 9:151.0 10:195.0 11:89.0 12:196.0 13:174.0 14:202.0 15:96.0 16:210.0 17:165.0 18:216.0 19:109.0 20:222.0 21:149.0 22:228.0 23:128.0 24:230.0 25:73.0 26:108.0 27:111.0 28:113.0 29:143.0 30:114.0 31:185.0 32:111.0 33:92.0 34:107.0 35:163.0 36:108.0 37:82.0 38:106.0 39:102.0 40:110.0 41:152.0 42:111.0 43:175.0 44:107.0 45:128.0 46:128.0 47:83.0 48:126.0 49:111.0 50:130.0 51:146.0 52:130.0 53:175.0 54:128.0 55:96.0 56:131.0 57:98.0 58:122.0 59:93.0 60:126.0 61:103.0 62:127.0 63:160.0 64:131.0 65:159.0 66:122.0 67:154.0 68:127.0 69:165.0 70:126.0 71:90.0 72:123.0 73:105.0 74:125.0 75:89.0 76:130.0 77:104.0 78:131.0 79:151.0 80:125.0 81:167.0 82:124.0 83:153.0 84:131.0 85:168.0 86:130.0 87:114.0 88:158.0 89:140.0 90:156.0 91:109.0 92:167.0 93:148.0 94:167.0 95:119.0 96:170.0 97:138.0 98:170.0 99:130.0 100:175.0 101:103.0 102:176.0 103:155.0 104:176.0 105:98.0 106:186.0 107:161.0 108:186.0 109:129.0 110:189.0 111:129.0 112:215.0 113:117.0 114:189.0 115:141.0 116:190.0 117:116.0 118:211.0 119:142.0 120:210.0 121:118.0 122:194.0 123:129.0 124:194.0 125:141.0 126:194.0 127:117.0 128:200.0 129:128.0 130:203.0 131:141.0 132:200.0 
