svm_type c_svc
kernel_type rbf
gamma 0.007575757575757576
nr_class 2
total_sv 40
rho 0.12870352763054962
label 1 -1
nr_sv 19 21
SV
1.0 1:-0.33333333333333337 2:-0.5 3:0.19999999999999996 4:0.33333333333333326 5:-0.25 6:-0.09090909090909094 7:-0.6923076923076923 8:-0.23809523809523814 9:0.33333333333333326 10:-0.04347826086956519 11:-0.1428571428571429 12:-0.16666666666666663 13:0.05882352941176472 14:0.08333333333333326 15:-0.2857142857142857 16:-0.25 17:-0.23076923076923073 18:-0.08333333333333337 19:-0.5 20:-0.2666666666666667 21:-0.2727272727272727 22:-0.11111111111111116 23:-0.2727272727272727 24:-0.22580645161290325 25:-0.11111111111111116 26:-0.09090909090909094 27:-1.0 28:-0.4545454545454546 29:0.4545454545454546 30:-0.5 31:0.09090909090909083 32:0.2727272727272727 33:-0.5 34:-0.33333333333333337 35:0.7777777777777777 36:-0.11111111111111116 37:-0.25 38:-0.19999999999999996 39:-0.75 40:-0.4 41:0.8 42:-0.25 43:0.5555555555555556 44:0.3999999999999999 45:-0.33333333333333337 46:1.0 47:-0.33333333333333337 48:-0.19999999999999996 49:-0.6 50:0.5 51:0.0 52:0.6666666666666667 53:0.1428571428571428 54:1.0 55:-0.6 56:0.19999999999999996 57:-0.19999999999999996 58:-0.19999999999999996 59:-0.33333333333333337 60:-0.5 61:-0.19999999999999996 62:0.33333333333333326 63:-0.19999999999999996 64:0.33333333333333326 65:0.19999999999999996 66:0.5 67:0.19999999999999996 68:0.5 69:-0.19999999999999996 70:0.5 71:0.0 72:-0.19999999999999996 73:-0.6 74:0.33333333333333326 75:-0.6 76:0.0 77:-0.6 78:-0.19999999999999996 79:0.5 80:0.6000000000000001 81:0.0 82:1.0 83:0.0 84:0.33333333333333326 85:-0.19999999999999996 86:0.33333333333333326 87:-0.5 88:-0.11111111111111116 89:0.1428571428571428 90:-0.11111111111111116 91:-0.5 92:0.09090909090909083 93:-0.11111111111111116 94:-0.11111111111111116 95:-0.25 96:0.3999999999999999 97:-0.25 98:0.3999999999999999 99:-0.5 100:0.0 101:-0.6 102:-0.05882352941176472 103:0.33333333333333326 104:-0.1428571428571429 105:-0.6666666666666667 106:-0.23809523809523814 107:0.2857142857142858 108:-0.1578947368421053 109:-0.25 110:-0.05882352941176472 111:-0.25 112:0.23809523809523814 113:-0.75 114:-0.17647058823529416 115:0.0 116:-0.25 117:-0.8 118:-0.19999999999999996 119:0.33333333333333326 120:0.04347826086956519 121:-0.5555555555555556 122:-0.09999999999999998 123:-0.7142857142857143 124:-0.33333333333333337 125:0.0 126:-0.1578947368421053 127:-0.7777777777777778 128:-0.125 129:-0.25 130:0.375 131:0.2727272727272727 132:0.17647058823529416 
1.0 1:0.33333333333333326 2:0.0 3:-1.0 4:0.33333333333333326 5:0.25 6:0.4545454545454546 7:0.3846153846153846 8:-0.1428571428571429 9:0.19999999999999996 10:-0.04347826086956519 11:-0.2857142857142857 12:-0.33333333333333337 13:0.8823529411764706 14:-0.08333333333333337 15:-0.2857142857142857 16:-0.16666666666666663 17:1.0 18:-0.08333333333333337 19:-0.33333333333333337 20:-0.19999999999999996 21:0.6363636363636365 22:-0.18518518518518523 23:0.2727272727272727 24:-0.22580645161290325 25:0.33333333333333326 26:-0.09090909090909094 27:0.4285714285714286 28:0.8181818181818181 29:-0.8181818181818181 30:0.75 31:-0.2727272727272727 32:0.09090909090909083 33:0.5 34:0.5555555555555556 35:-0.5555555555555556 36:0.11111111111111116 37:0.5 38:0.19999999999999996 39:0.5 40:1.0 41:-0.8 42:0.5 43:-0.33333333333333337 44:0.19999999999999996 45:0.0 46:0.33333333333333326 47:0.6666666666666667 48:0.19999999999999996 49:0.6000000000000001 50:0.0 51:-1.0 52:0.33333333333333326 53:-0.7142857142857143 54:-0.19999999999999996 55:0.6000000000000001 56:0.19999999999999996 57:0.6000000000000001 58:-0.19999999999999996 59:0.33333333333333326 60:0.0 61:0.19999999999999996 62:0.33333333333333326 63:-1.0 64:0.0 65:-0.6 66:-0.5 67:-1.0 68:0.0 69:-1.0 70:0.0 71:0.6666666666666667 72:-0.19999999999999996 73:0.6000000000000001 74:0.33333333333333326 75:0.6000000000000001 76:0.0 77:0.6000000000000001 78:-0.19999999999999996 79:-1.0 80:-0.19999999999999996 81:-0.6666666666666667 82:-0.5 83:-1.0 84:0.0 85:-1.0 86:-0.33333333333333337 87:0.5 88:0.33333333333333326 89:0.1428571428571428 90:0.33333333333333326 91:0.5 92:0.2727272727272727 93:0.11111111111111116 94:0.33333333333333326 95:0.25 96:0.6000000000000001 97:0.25 98:0.6000000000000001 99:0.25 100:0.6000000000000001 101:0.3999999999999999 102:0.05882352941176472 103:0.16666666666666674 104:0.1428571428571428 105:0.5 106:-0.04761904761904767 107:0.0 108:0.05263157894736836 109:0.5 110:-0.17647058823529416 111:0.5 112:-0.33333333333333337 113:0.5 114:-0.17647058823529416 115:0.19999999999999996 116:-0.25 117:0.6000000000000001 118:-0.4 119:0.16666666666666674 120:-0.21739130434782605 121:0.5555555555555556 122:-0.09999999999999998 123:0.4285714285714286 124:-0.2222222222222222 125:0.19999999999999996 126:0.05263157894736836 127:0.33333333333333326 128:-0.375 129:0.5 130:-0.375 131:0.09090909090909083 132:-0.17647058823529416 
1.0 1:0.33333333333333326 2:0.5 3:-1.0 4:0.33333333333333326 5:0.25 6:1.0 7:-0.07692307692307687 8:0.1428571428571428 9:0.19999999999999996 10:0.21739130434782616 11:-0.2857142857142857 12:0.0 13:0.6470588235294117 14:0.0 15:-0.4285714285714286 16:0.08333333333333326 17:0.6923076923076923 18:0.08333333333333326 19:-0.33333333333333337 20:0.1333333333333333 21:0.2727272727272727 22:0.11111111111111116 23:0.09090909090909083 24:0.09677419354838701 25:0.11111111111111116 26:0.09090909090909083 27:-0.1428571428571429 28:0.8181818181818181 29:-0.6363636363636364 30:1.0 31:-0.4545454545454546 32:0.2727272727272727 33:0.0 34:0.5555555555555556 35:-0.5555555555555556 36:0.33333333333333326 37:0.0 38:0.0 39:0.0 40:0.8 41:-0.6 42:0.75 43:-0.33333333333333337 44:0.19999999999999996 45:0.0 46:0.6666666666666667 47:0.6666666666666667 48:0.19999999999999996 49:0.19999999999999996 50:0.5 51:-0.5 52:0.33333333333333326 53:-0.7142857142857143 54:0.6000000000000001 55:0.19999999999999996 56:0.6000000000000001 57:0.6000000000000001 58:0.19999999999999996 59:0.33333333333333326 60:0.0 61:0.19999999999999996 62:1.0 63:-1.0 64:0.33333333333333326 65:-0.6 66:-0.5 67:-0.6 68:0.5 69:-1.0 70:0.5 71:0.6666666666666667 72:0.19999999999999996 73:0.19999999999999996 74:1.0 75:0.6000000000000001 76:0.5 77:0.19999999999999996 78:0.19999999999999996 79:-1.0 80:0.19999999999999996 81:-0.6666666666666667 82:0.0 83:-1.0 84:0.33333333333333326 85:-1.0 86:0.33333333333333326 87:0.25 88:0.5555555555555556 89:-0.1428571428571429 90:0.5555555555555556 91:0.25 92:0.6363636363636365 93:-0.11111111111111116 94:0.5555555555555556 95:0.0 96:1.0 97:0.0 98:1.0 99:0.25 100:0.8 101:0.0 102:0.17647058823529416 103:0.16666666666666674 104:0.2857142857142858 105:0.16666666666666674 106:-0.04761904761904767 107:-0.1428571428571429 108:0.05263157894736836 109:0.0 110:0.05882352941176472 111:0.0 112:0.4285714285714286 113:0.0 114:0.05882352941176472 115:0.0 116:0.0 117:0.0 118:0.19999999999999996 119:0.16666666666666674 120:0.30434782608695654 121:0.11111111111111116 122:0.10000000000000009 123:-0.1428571428571429 124:-0.11111111111111116 125:0.19999999999999996 126:0.1578947368421053 127:-0.11111111111111116 128:0.625 129:0.25 130:0.875 131:0.2727272727272727 132:0.7647058823529411 
0.6258678431016967 1:0.0 2:0.0 3:0.19999999999999996 4:1.0 5:0.25 6:0.2727272727272727 7:0.07692307692307687 8:-1.0 9:0.7333333333333334 10:-0.9130434782608696 11:0.1428571428571428 12:-0.9166666666666666 13:0.05882352941176472 14:-0.5833333333333333 15:0.0 16:-0.75 17:-0.07692307692307687 18:-0.5 19:0.0 20:-0.5333333333333333 21:-0.09090909090909094 22:-0.5555555555555556 23:-0.09090909090909094 24:-0.4838709677419355 25:-0.33333333333333337 26:0.2727272727272727 27:0.4285714285714286 28:0.2727272727272727 29:-0.09090909090909094 30:0.5 31:0.4545454545454546 32:0.4545454545454546 33:0.0 34:0.5555555555555556 35:0.33333333333333326 36:0.7777777777777777 37:-0.25 38:0.3999999999999999 39:0.25 40:0.3999999999999999 41:0.0 42:0.75 43:0.5555555555555556 44:0.8 45:0.6666666666666667 46:0.33333333333333326 47:0.6666666666666667 48:-0.19999999999999996 49:0.6000000000000001 50:-0.5 51:0.5 52:0.33333333333333326 53:-0.1428571428571429 54:0.6000000000000001 55:0.19999999999999996 56:0.19999999999999996 57:0.6000000000000001 58:-0.6 59:0.33333333333333326 60:-0.5 61:-0.19999999999999996 62:-0.33333333333333337 63:0.19999999999999996 64:0.33333333333333326 65:0.19999999999999996 66:0.0 67:0.6000000000000001 68:0.0 69:0.19999999999999996 70:0.5 71:0.6666666666666667 72:-0.19999999999999996 73:0.19999999999999996 74:-0.33333333333333337 75:0.6000000000000001 76:-0.5 77:0.19999999999999996 78:-0.19999999999999996 79:0.0 80:0.19999999999999996 81:0.0 82:0.0 83:0.0 84:0.0 85:-0.19999999999999996 86:0.0 87:0.5 88:-0.5555555555555556 89:0.4285714285714286 90:-0.11111111111111116 91:0.5 92:-0.6363636363636364 93:0.33333333333333326 94:-0.5555555555555556 95:0.25 96:0.19999999999999996 97:0.5 98:0.19999999999999996 99:0.5 100:0.0 101:0.19999999999999996 102:-0.7647058823529411 103:0.16666666666666674 104:-1.0 105:0.33333333333333326 106:-0.9047619047619048 107:0.1428571428571428 108:-0.8947368421052632 109:0.5 110:-0.6470588235294117 111:0.5 112:-0.23809523809523814 113:0.5 114:-0.8823529411764706 115:0.6000000000000001 116:-1.0 117:0.19999999999999996 118:-0.6 119:0.6666666666666667 120:-0.4782608695652174 121:0.5555555555555556 122:-1.0 123:0.4285714285714286 124:-1.0 125:0.6000000000000001 126:-1.0 127:0.11111111111111116 128:-0.25 129:0.5 130:0.375 131:0.6363636363636365 132:-0.05882352941176472 
1.0 1:0.0 2:0.0 3:-0.19999999999999996 4:1.0 5:0.25 6:0.2727272727272727 7:0.23076923076923084 8:-1.0 9:0.46666666666666656 10:-1.0 11:-0.1428571428571429 12:-1.0 13:-0.05882352941176472 14:-0.75 15:-0.2857142857142857 16:-1.0 17:-0.5384615384615384 18:-0.6666666666666667 19:-0.16666666666666663 20:-0.6666666666666667 21:-0.2727272727272727 22:-0.7037037037037037 23:-0.2727272727272727 24:-0.5483870967741935 25:0.11111111111111116 26:-0.09090909090909094 27:-0.1428571428571429 28:0.2727272727272727 29:-0.2727272727272727 30:1.0 31:0.09090909090909083 32:0.09090909090909083 33:0.25 34:0.7777777777777777 35:0.11111111111111116 36:1.0 37:0.25 38:0.3999999999999999 39:0.25 40:0.6000000000000001 41:0.0 42:1.0 43:0.11111111111111116 44:0.8 45:0.33333333333333326 46:0.33333333333333326 47:0.33333333333333326 48:-0.19999999999999996 49:0.19999999999999996 50:-0.5 51:0.0 52:0.33333333333333326 53:-0.4285714285714286 54:0.6000000000000001 55:0.19999999999999996 56:0.19999999999999996 57:0.19999999999999996 58:-0.19999999999999996 59:0.33333333333333326 60:0.0 61:-0.19999999999999996 62:0.33333333333333326 63:-0.19999999999999996 64:0.6666666666666667 65:-0.19999999999999996 66:0.0 67:0.19999999999999996 68:0.0 69:-0.6 70:0.5 71:0.33333333333333326 72:-0.19999999999999996 73:0.19999999999999996 74:-0.33333333333333337 75:0.19999999999999996 76:0.0 77:0.19999999999999996 78:-0.19999999999999996 79:0.0 80:0.19999999999999996 81:-0.33333333333333337 82:0.5 83:0.0 84:0.33333333333333326 85:-0.6 86:0.33333333333333326 87:0.25 88:-0.5555555555555556 89:-0.1428571428571429 90:-0.5555555555555556 91:0.5 92:-0.4545454545454546 93:-0.11111111111111116 94:-0.5555555555555556 95:0.0 96:0.19999999999999996 97:0.25 98:0.3999999999999999 99:0.25 100:0.0 101:0.6000000000000001 102:-0.7647058823529411 103:-0.16666666666666663 104:-1.0 105:0.5 106:-1.0 107:-0.1428571428571429 108:-1.0 109:0.5 110:-0.6470588235294117 111:0.5 112:-0.7142857142857143 113:0.25 114:-0.8823529411764706 115:0.3999999999999999 116:-0.875 117:0.3999999999999999 118:-1.0 119:0.5 120:-0.8260869565217391 121:0.33333333333333326 122:-0.9 123:0.4285714285714286 124:-1.0 125:0.3999999999999999 126:-0.8947368421052632 127:0.11111111111111116 128:-0.75 129:0.5 130:-0.125 131:0.4545454545454546 132:-0.5294117647058824 
1.0 1:-0.6666666666666667 2:0.0 3:1.0 4:1.0 5:0.75 6:0.8181818181818181 7:-0.07692307692307687 8:-0.6190476190476191 9:0.8666666666666667 10:-0.5652173913043479 11:0.0 12:-0.16666666666666663 13:0.41176470588235303 14:-0.16666666666666663 15:0.0 16:-0.08333333333333337 17:0.3846153846153846 18:-0.08333333333333337 19:0.0 20:-0.06666666666666665 21:0.2727272727272727 22:-0.11111111111111116 23:0.2727272727272727 24:-0.032258064516129004 25:-0.7777777777777778 26:-0.2727272727272727 27:0.1428571428571428 28:0.2727272727272727 29:-0.09090909090909094 30:0.5 31:1.0 32:-0.2727272727272727 33:0.0 34:0.5555555555555556 35:0.5555555555555556 36:0.7777777777777777 37:-0.5 38:0.19999999999999996 39:0.25 40:0.3999999999999999 41:0.19999999999999996 42:0.75 43:0.5555555555555556 44:0.3999999999999999 45:0.6666666666666667 46:0.33333333333333326 47:-0.6666666666666667 48:0.19999999999999996 49:0.19999999999999996 50:-0.5 51:0.5 52:0.33333333333333326 53:1.0 54:0.6000000000000001 55:-0.6 56:0.6000000000000001 57:-0.19999999999999996 58:-0.6 59:-0.6666666666666667 60:0.0 61:-0.6 62:0.33333333333333326 63:1.0 64:0.6666666666666667 65:1.0 66:0.0 67:1.0 68:0.0 69:1.0 70:0.5 71:-0.33333333333333337 72:-0.19999999999999996 73:-0.19999999999999996 74:0.33333333333333326 75:-0.6 76:0.0 77:-0.19999999999999996 78:-0.19999999999999996 79:1.0 80:0.19999999999999996 81:1.0 82:0.5 83:1.0 84:0.33333333333333326 85:1.0 86:0.33333333333333326 87:0.25 88:0.11111111111111116 89:1.0 90:-0.11111111111111116 91:0.25 92:-0.09090909090909094 93:0.5555555555555556 94:-0.11111111111111116 95:0.25 96:0.8 97:1.0 98:0.8 99:0.5 100:0.6000000000000001 101:0.0 102:-0.4117647058823529 103:1.0 104:-0.7142857142857143 105:-0.33333333333333337 106:-0.6190476190476191 107:1.0 108:-0.5789473684210527 109:0.75 110:-0.2941176470588235 111:0.75 112:0.1428571428571428 113:0.25 114:-0.4117647058823529 115:1.0 116:-0.625 117:0.19999999999999996 118:-0.09999999999999998 119:1.0 120:-0.04347826086956519 121:0.33333333333333326 122:-0.5 123:0.7142857142857142 124:-0.4444444444444444 125:1.0 126:-0.5789473684210527 127:0.11111111111111116 128:0.0 129:0.75 130:0.375 131:1.0 132:-0.05882352941176472 
0.17791165988543853 1:-0.33333333333333337 2:0.5 3:1.0 4:0.33333333333333326 5:-0.5 6:0.09090909090909083 7:-0.6923076923076923 8:-0.7142857142857143 9:1.0 10:-0.4782608695652174 11:0.4285714285714286 12:-0.5833333333333333 13:0.5294117647058822 14:-0.33333333333333337 15:0.4285714285714286 16:-0.5833333333333333 17:0.07692307692307687 18:-0.5 19:-0.16666666666666663 20:-0.5333333333333333 21:0.2727272727272727 22:-0.5555555555555556 23:-0.09090909090909094 24:-0.4838709677419355 25:0.33333333333333326 26:-0.4545454545454546 27:0.1428571428571428 28:1.0 29:-0.6363636363636364 30:1.0 31:-0.2727272727272727 32:-0.2727272727272727 33:0.5 34:0.5555555555555556 35:-0.33333333333333337 36:0.11111111111111116 37:0.5 38:0.0 39:0.5 40:1.0 41:-0.6 42:0.75 43:-0.11111111111111116 44:-0.19999999999999996 45:-0.33333333333333337 46:-0.33333333333333337 47:0.0 48:0.6000000000000001 49:0.19999999999999996 50:-0.5 51:0.0 52:0.0 53:0.1428571428571428 54:0.6000000000000001 55:0.19999999999999996 56:0.19999999999999996 57:0.19999999999999996 58:0.6000000000000001 59:-0.33333333333333337 60:0.5 61:-0.19999999999999996 62:0.33333333333333326 63:0.19999999999999996 64:0.0 65:0.6000000000000001 66:0.5 67:1.0 68:0.0 69:1.0 70:0.5 71:0.33333333333333326 72:0.6000000000000001 73:-0.19999999999999996 74:1.0 75:0.19999999999999996 76:0.5 77:0.19999999999999996 78:-0.19999999999999996 79:1.0 80:0.19999999999999996 81:0.0 82:0.5 83:0.0 84:-0.33333333333333337 85:0.19999999999999996 86:0.0 87:0.0 88:-0.5555555555555556 89:-0.4285714285714286 90:-0.5555555555555556 91:-0.25 92:-0.8181818181818181 93:0.33333333333333326 94:-1.0 95:-1.0 96:0.0 97:0.25 98:-0.19999999999999996 99:-0.25 100:-0.19999999999999996 101:-0.4 102:-0.7647058823529411 103:0.5 104:-0.8571428571428572 105:-0.33333333333333337 106:-0.7142857142857143 107:0.5714285714285714 108:-0.7894736842105263 109:-0.25 110:-0.6470588235294117 111:0.0 112:0.04761904761904767 113:-0.75 114:-0.7647058823529411 115:0.3999999999999999 116:-0.75 117:-0.6 118:-0.30000000000000004 119:0.8333333333333333 120:-0.13043478260869568 121:-0.33333333333333337 122:-0.6 123:-0.4285714285714286 124:-0.7777777777777778 125:0.6000000000000001 126:-0.5789473684210527 127:-0.5555555555555556 128:-0.25 129:0.0 130:0.25 131:0.8181818181818181 132:-0.05882352941176472 
0.2077769375603621 1:-0.33333333333333337 2:0.0 3:0.19999999999999996 4:-0.33333333333333337 5:-0.75 6:-0.4545454545454546 7:-0.5384615384615384 8:-0.8095238095238095 9:0.8666666666666667 10:-0.6521739130434783 11:0.1428571428571428 12:-0.5833333333333333 13:0.2941176470588236 14:-0.6666666666666667 15:0.2857142857142858 16:-0.6666666666666667 17:0.23076923076923084 18:-0.6666666666666667 19:-0.33333333333333337 20:-0.6 21:0.09090909090909083 22:-0.6296296296296297 23:-0.09090909090909094 24:-0.5483870967741935 25:0.5555555555555556 26:-0.2727272727272727 27:0.4285714285714286 28:0.8181818181818181 29:-0.8181818181818181 30:1.0 31:-0.2727272727272727 32:-0.2727272727272727 33:0.5 34:0.5555555555555556 35:-0.5555555555555556 36:0.11111111111111116 37:0.5 38:0.0 39:0.5 40:0.8 41:-0.8 42:0.75 43:-0.33333333333333337 44:-0.19999999999999996 45:-0.33333333333333337 46:-1.0 47:0.0 48:0.19999999999999996 49:-0.19999999999999996 50:-1.0 51:-0.5 52:-0.6666666666666667 53:-0.4285714285714286 54:0.19999999999999996 55:0.19999999999999996 56:-0.19999999999999996 57:-0.6 58:0.19999999999999996 59:0.0 60:0.0 61:-0.19999999999999996 62:-0.33333333333333337 63:-0.6 64:-0.6666666666666667 65:-0.19999999999999996 66:0.0 67:0.19999999999999996 68:-1.0 69:0.19999999999999996 70:0.0 71:0.0 72:0.19999999999999996 73:-0.6 74:0.33333333333333326 75:0.19999999999999996 76:-0.5 77:-0.19999999999999996 78:-0.6 79:0.0 80:-0.19999999999999996 81:-0.33333333333333337 82:0.0 83:-0.5 84:-0.6666666666666667 85:-1.0 86:-0.33333333333333337 87:-0.25 88:-1.0 89:-0.4285714285714286 90:-1.0 91:0.0 92:-0.8181818181818181 93:-0.33333333333333337 94:-1.0 95:-0.75 96:-0.6 97:-0.25 98:-0.6 99:-0.5 100:-0.6 101:-0.4 102:-1.0 103:0.16666666666666674 104:-1.0 105:-0.33333333333333337 106:-1.0 107:0.1428571428571428 108:-0.7894736842105263 109:-0.25 110:-1.0 111:-0.25 112:-0.23809523809523814 113:-0.75 114:-1.0 115:0.3999999999999999 116:-1.0 117:-0.6 118:-0.5 119:0.6666666666666667 120:-0.30434782608695654 121:-0.5555555555555556 122:-0.8 123:-0.4285714285714286 124:-1.0 125:0.6000000000000001 126:-0.7894736842105263 127:-0.7777777777777778 128:-0.625 129:-0.25 130:-0.125 131:0.6363636363636365 132:-0.4117647058823529 
1.0 1:0.0 2:0.0 3:0.6000000000000001 4:-0.33333333333333337 5:-0.75 6:-0.4545454545454546 7:-0.3846153846153846 8:-0.7142857142857143 9:1.0 10:-0.5652173913043479 11:0.5714285714285714 12:-0.5 13:0.17647058823529416 14:-0.41666666666666663 15:0.4285714285714286 16:-0.6666666666666667 17:0.07692307692307687 18:-0.5 19:0.0 20:-0.5333333333333333 21:0.09090909090909083 22:-0.5555555555555556 23:0.09090909090909083 24:-0.4838709677419355 25:0.5555555555555556 26:-0.2727272727272727 27:0.1428571428571428 28:0.8181818181818181 29:-0.6363636363636364 30:1.0 31:-0.09090909090909094 32:-0.2727272727272727 33:0.5 34:0.5555555555555556 35:-0.33333333333333337 36:-0.11111111111111116 37:0.5 38:0.0 39:0.25 40:0.8 41:-0.6 42:0.75 43:-0.11111111111111116 44:-0.4 45:-0.33333333333333337 46:0.0 47:0.6666666666666667 48:0.19999999999999996 49:0.6000000000000001 50:-0.5 51:0.0 52:-0.6666666666666667 53:-0.1428571428571429 54:0.19999999999999996 55:0.6000000000000001 56:-0.19999999999999996 57:0.19999999999999996 58:0.19999999999999996 59:0.0 60:0.0 61:0.19999999999999996 62:0.33333333333333326 63:-0.19999999999999996 64:-0.33333333333333337 65:0.19999999999999996 66:-0.5 67:0.6000000000000001 68:-1.0 69:0.6000000000000001 70:0.0 71:0.33333333333333326 72:0.6000000000000001 73:-0.19999999999999996 74:0.33333333333333326 75:0.6000000000000001 76:0.0 77:0.19999999999999996 78:-0.6 79:0.5 80:-0.19999999999999996 81:0.0 82:0.0 83:0.0 84:-0.6666666666666667 85:-0.19999999999999996 86:-0.33333333333333337 87:0.0 88:-1.0 89:-0.4285714285714286 90:-1.0 91:0.0 92:-1.0 93:-0.11111111111111116 94:-1.0 95:-0.5 96:-0.6 97:-0.25 98:-0.6 99:-0.5 100:-0.4 101:-0.19999999999999996 102:-1.0 103:0.33333333333333326 104:-1.0 105:-0.16666666666666663 106:-1.0 107:0.4285714285714286 108:-0.6842105263157895 109:-0.25 110:-0.8823529411764706 111:-0.25 112:-0.1428571428571429 113:-0.75 114:-0.8823529411764706 115:0.3999999999999999 116:-1.0 117:-0.4 118:-0.5 119:0.6666666666666667 120:-0.30434782608695654 121:-0.5555555555555556 122:-0.8 123:-0.4285714285714286 124:-1.0 125:0.6000000000000001 126:-0.6842105263157895 127:-0.7777777777777778 128:-0.5 129:-0.25 130:0.0 131:0.6363636363636365 132:-0.2941176470588235 
1.0 1:0.0 2:0.0 3:0.19999999999999996 4:1.0 5:-0.25 6:0.4545454545454546 7:-0.3846153846153846 8:0.6190476190476191 9:0.33333333333333326 10:0.6521739130434783 11:-0.5714285714285714 12:0.6666666666666667 13:1.0 14:0.6666666666666667 15:-0.5714285714285714 16:1.0 17:0.6923076923076923 18:0.8333333333333333 19:-0.5 20:1.0 21:0.4545454545454546 22:1.0 23:0.09090909090909083 24:1.0 25:-0.5555555555555556 26:-0.8181818181818181 27:0.7142857142857142 28:-0.09090909090909094 29:-0.8181818181818181 30:0.0 31:1.0 32:0.09090909090909083 33:0.25 34:-0.5555555555555556 35:0.33333333333333326 36:-0.11111111111111116 37:-0.25 38:-0.8 39:0.5 40:-0.19999999999999996 41:-0.4 42:-0.25 43:0.7777777777777777 44:0.19999999999999996 45:-0.33333333333333337 46:0.6666666666666667 47:0.0 48:-0.6 49:0.19999999999999996 50:0.5 51:-0.5 52:0.6666666666666667 53:-0.1428571428571429 54:0.19999999999999996 55:0.19999999999999996 56:0.6000000000000001 57:0.19999999999999996 58:-0.6 59:0.0 60:-0.5 61:0.19999999999999996 62:0.33333333333333326 63:-0.19999999999999996 64:0.6666666666666667 65:-0.19999999999999996 66:0.0 67:-0.19999999999999996 68:0.5 69:0.19999999999999996 70:0.5 71:0.33333333333333326 72:-0.19999999999999996 73:0.19999999999999996 74:0.33333333333333326 75:-0.19999999999999996 76:0.0 77:0.19999999999999996 78:0.19999999999999996 79:-0.5 80:0.19999999999999996 81:0.0 82:0.5 83:0.0 84:0.6666666666666667 85:-0.19999999999999996 86:0.6666666666666667 87:-0.5 88:0.11111111111111116 89:-0.1428571428571429 90:0.33333333333333326 91:-1.0 92:0.6363636363636365 93:0.33333333333333326 94:1.0 95:-0.75 96:0.8 97:0.0 98:0.8 99:-0.25 100:0.8 101:-0.8 102:0.6470588235294117 103:0.33333333333333326 104:0.7142857142857142 105:-0.5 106:0.6190476190476191 107:0.1428571428571428 108:0.6842105263157894 109:-0.25 110:0.8823529411764706 111:-0.25 112:0.5238095238095237 113:-0.5 114:0.7647058823529411 115:0.0 116:0.625 117:-0.19999999999999996 118:0.6000000000000001 119:0.0 120:0.4782608695652173 121:-0.33333333333333337 122:0.7 123:-0.4285714285714286 124:0.6666666666666667 125:0.0 126:0.7894736842105263 127:-0.33333333333333337 128:0.75 129:-0.25 130:0.625 131:-0.09090909090909094 132:0.6470588235294117 
1.0 1:0.0 2:0.0 3:-0.6 4:0.33333333333333326 5:-0.25 6:0.4545454545454546 7:-0.3846153846153846 8:0.5238095238095237 9:0.46666666666666656 10:0.4782608695652173 11:-0.1428571428571429 12:0.5833333333333333 13:0.6470588235294117 14:0.6666666666666667 15:0.0 16:0.8333333333333333 17:0.5384615384615385 18:0.8333333333333333 19:0.16666666666666674 20:0.8666666666666667 21:0.2727272727272727 22:0.8518518518518519 23:0.4545454545454546 24:0.8709677419354838 25:-0.33333333333333337 26:-0.6363636363636364 27:0.1428571428571428 28:-0.09090909090909094 29:-0.8181818181818181 30:0.0 31:0.2727272727272727 32:-0.09090909090909094 33:-0.25 34:-0.5555555555555556 35:-0.11111111111111116 36:-0.11111111111111116 37:-0.25 38:-0.4 39:0.0 40:-0.4 41:-0.6 42:-0.25 43:0.11111111111111116 44:0.0 45:-0.6666666666666667 46:0.6666666666666667 47:-0.33333333333333337 48:-0.6 49:0.19999999999999996 50:0.5 51:-1.0 52:0.6666666666666667 53:-0.4285714285714286 54:-0.19999999999999996 55:-0.19999999999999996 56:1.0 57:0.19999999999999996 58:-0.6 59:-0.33333333333333337 60:-0.5 61:0.19999999999999996 62:1.0 63:-0.6 64:0.6666666666666667 65:-1.0 66:-0.5 67:-0.6 68:0.5 69:-0.19999999999999996 70:0.0 71:0.0 72:-0.6 73:0.19999999999999996 74:0.33333333333333326 75:-0.6 76:0.0 77:0.19999999999999996 78:0.6000000000000001 79:-1.0 80:0.19999999999999996 81:-0.6666666666666667 82:-0.5 83:-0.5 84:0.6666666666666667 85:-0.6 86:0.33333333333333326 87:-1.0 88:0.5555555555555556 89:-0.1428571428571429 90:0.5555555555555556 91:-1.0 92:0.6363636363636365 93:0.5555555555555556 94:0.7777777777777777 95:-0.5 96:0.8 97:0.0 98:0.6000000000000001 99:-0.25 100:0.8 101:-0.6 102:0.41176470588235303 103:0.33333333333333326 104:0.2857142857142858 105:-0.5 106:0.4285714285714286 107:0.2857142857142858 108:0.26315789473684204 109:0.25 110:0.5294117647058822 111:0.25 112:0.1428571428571428 113:-0.25 114:0.5294117647058822 115:0.19999999999999996 116:0.375 117:0.0 118:0.30000000000000004 119:0.33333333333333326 120:0.13043478260869557 121:-0.11111111111111116 122:0.6000000000000001 123:0.1428571428571428 124:0.4444444444444444 125:0.19999999999999996 126:0.4736842105263157 127:-0.11111111111111116 128:0.5 129:0.25 130:0.375 131:0.09090909090909083 132:0.2941176470588236 
1.0 1:1.0 2:-0.5 3:-0.19999999999999996 4:0.33333333333333326 5:-0.25 6:0.6363636363636365 7:0.07692307692307687 8:0.6190476190476191 9:0.06666666666666665 10:0.6521739130434783 11:-0.4285714285714286 12:0.33333333333333326 13:0.6470588235294117 14:0.6666666666666667 15:-0.1428571428571429 16:0.5833333333333333 17:0.5384615384615385 18:0.75 19:0.0 20:0.6000000000000001 21:0.09090909090909083 22:0.7037037037037037 23:0.09090909090909083 24:0.6129032258064515 25:-0.11111111111111116 26:-0.8181818181818181 27:0.7142857142857142 28:-0.09090909090909094 29:-0.4545454545454546 30:0.0 31:0.6363636363636365 32:0.09090909090909083 33:0.25 34:-0.5555555555555556 35:0.11111111111111116 36:-0.11111111111111116 37:0.25 38:-0.6 39:0.5 40:-0.4 41:-0.4 42:0.0 43:0.5555555555555556 44:0.0 45:0.0 46:0.6666666666666667 47:0.0 48:-0.6 49:0.6000000000000001 50:0.5 51:-0.5 52:1.0 53:-0.1428571428571429 54:0.19999999999999996 55:0.6000000000000001 56:0.6000000000000001 57:1.0 58:-0.6 59:0.6666666666666667 60:-0.5 61:1.0 62:0.33333333333333326 63:-0.19999999999999996 64:1.0 65:-0.6 66:0.0 67:-0.19999999999999996 68:0.5 69:0.19999999999999996 70:0.0 71:0.6666666666666667 72:-0.6 73:1.0 74:0.33333333333333326 75:0.19999999999999996 76:0.0 77:0.6000000000000001 78:0.6000000000000001 79:-1.0 80:0.19999999999999996 81:-0.33333333333333337 82:0.0 83:0.0 84:1.0 85:-0.19999999999999996 86:0.33333333333333326 87:-0.25 88:0.33333333333333326 89:0.1428571428571428 90:0.7777777777777777 91:-0.5 92:0.6363636363636365 93:0.5555555555555556 94:1.0 95:-0.25 96:1.0 97:0.25 98:1.0 99:-0.25 100:0.8 101:-0.19999999999999996 102:0.5294117647058822 103:0.33333333333333326 104:0.7142857142857142 105:-0.16666666666666663 106:0.4285714285714286 107:0.0 108:0.5789473684210527 109:0.0 110:0.7647058823529411 111:0.25 112:0.5238095238095237 113:0.25 114:0.6470588235294117 115:0.0 116:0.625 117:0.19999999999999996 118:0.3999999999999999 119:0.16666666666666674 120:0.3913043478260869 121:0.11111111111111116 122:0.7 123:0.1428571428571428 124:0.5555555555555556 125:0.0 126:0.6842105263157894 127:0.11111111111111116 128:0.5 129:0.25 130:0.625 131:-0.09090909090909094 132:0.6470588235294117 
1.0 1:-0.33333333333333337 2:0.0 3:-0.19999999999999996 4:1.0 5:-0.5 6:-0.2727272727272727 7:-0.23076923076923073 8:-0.5238095238095238 9:-0.4666666666666667 10:-0.4782608695652174 11:-0.1428571428571429 12:-0.75 13:-0.4117647058823529 14:-0.5 15:-0.2857142857142857 16:-0.8333333333333334 17:-0.8461538461538461 18:-0.5 19:-0.5 20:-0.7333333333333334 21:-0.6363636363636364 22:-0.6296296296296297 23:-0.8181818181818181 24:-0.7419354838709677 25:0.11111111111111116 26:-0.2727272727272727 27:-0.1428571428571429 28:-0.09090909090909094 29:-0.6363636363636364 30:0.25 31:-0.6363636363636364 32:-0.09090909090909094 33:0.25 34:0.11111111111111116 35:-0.33333333333333337 36:0.33333333333333326 37:0.25 38:0.0 39:0.0 40:0.19999999999999996 41:-0.6 42:0.5 43:-0.5555555555555556 44:0.19999999999999996 45:0.0 46:0.0 47:0.0 48:-0.6 49:-0.19999999999999996 50:-1.0 51:0.0 52:-0.33333333333333337 53:-0.1428571428571429 54:0.6000000000000001 55:-0.6 56:0.19999999999999996 57:-0.6 58:0.19999999999999996 59:0.0 60:-0.5 61:-0.19999999999999996 62:0.33333333333333326 63:-0.6 64:0.0 65:0.19999999999999996 66:0.5 67:0.19999999999999996 68:0.0 69:-0.19999999999999996 70:0.5 71:0.0 72:0.19999999999999996 73:-0.6 74:0.33333333333333326 75:-0.19999999999999996 76:-0.5 77:-0.19999999999999996 78:-0.19999999999999996 79:0.0 80:0.19999999999999996 81:0.0 82:0.5 83:-0.5 84:0.0 85:-0.6 86:0.0 87:-0.25 88:-0.11111111111111116 89:-0.7142857142857143 90:-0.11111111111111116 91:0.0 92:-0.2727272727272727 93:-0.33333333333333337 94:-0.33333333333333337 95:-0.25 96:0.0 97:-0.5 98:0.19999999999999996 99:-0.25 100:-0.4 101:-0.19999999999999996 102:-0.2941176470588235 103:-0.33333333333333337 104:-0.5714285714285714 105:0.16666666666666674 106:-0.5238095238095238 107:-0.5714285714285714 108:-0.5789473684210527 109:-0.75 110:-0.4117647058823529 111:-0.5 112:-0.8095238095238095 113:-0.5 114:-0.4117647058823529 115:-0.8 116:-0.5 117:0.0 118:-0.9 119:-0.6666666666666667 120:-0.7391304347826086 121:-0.33333333333333337 122:-0.5 123:-1.0 124:-0.5555555555555556 125:-0.8 126:-0.4736842105263158 127:-0.33333333333333337 128:-1.0 129:-0.75 130:-0.875 131:-0.8181818181818181 132:-0.8823529411764706 
1.0 1:-0.6666666666666667 2:-0.5 3:0.6000000000000001 4:-1.0 5:0.0 6:-0.09090909090909094 7:0.3846153846153846 8:-0.23809523809523814 9:0.19999999999999996 10:-0.3913043478260869 11:-0.1428571428571429 12:-0.25 13:0.2941176470588236 14:-0.5 15:0.1428571428571428 16:-0.33333333333333337 17:0.07692307692307687 18:-0.5 19:-0.16666666666666663 20:-0.2666666666666667 21:0.4545454545454546 22:-0.40740740740740744 23:-0.09090909090909094 24:-0.29032258064516125 25:0.11111111111111116 26:-0.6363636363636364 27:-1.0 28:-0.4545454545454546 29:-0.09090909090909094 30:-0.75 31:-0.2727272727272727 32:-0.8181818181818181 33:-0.5 34:0.11111111111111116 35:0.11111111111111116 36:-0.11111111111111116 37:0.0 38:-0.19999999999999996 39:-0.75 40:0.0 41:0.19999999999999996 42:-0.25 43:-0.33333333333333337 44:-0.4 45:0.0 46:-0.33333333333333337 47:-0.6666666666666667 48:-0.19999999999999996 49:-0.19999999999999996 50:-1.0 51:0.5 52:-0.6666666666666667 53:0.1428571428571428 54:-0.6 55:-0.6 56:-0.19999999999999996 57:-0.6 58:-0.19999999999999996 59:-0.6666666666666667 60:-0.5 61:-0.6 62:-0.33333333333333337 63:0.19999999999999996 64:-0.6666666666666667 65:0.6000000000000001 66:-0.5 67:0.6000000000000001 68:-1.0 69:0.19999999999999996 70:-0.5 71:-0.33333333333333337 72:-0.19999999999999996 73:-0.6 74:-0.33333333333333337 75:-0.6 76:-0.5 77:-0.6 78:-1.0 79:0.5 80:-0.6 81:0.0 82:-0.5 83:0.5 84:-1.0 85:0.19999999999999996 86:-0.6666666666666667 87:0.25 88:-0.11111111111111116 89:-0.1428571428571429 90:-0.11111111111111116 91:0.25 92:0.09090909090909083 93:-0.11111111111111116 94:-0.33333333333333337 95:0.25 96:0.19999999999999996 97:0.25 98:0.19999999999999996 99:0.25 100:-0.19999999999999996 101:0.0 102:-0.17647058823529416 103:0.0 104:-0.5714285714285714 105:0.16666666666666674 106:-0.4285714285714286 107:0.0 108:-0.6842105263157895 109:0.0 110:-0.17647058823529416 111:0.25 112:-0.04761904761904767 113:0.25 114:-0.17647058823529416 115:0.0 116:-0.375 117:0.3999999999999999 118:-0.30000000000000004 119:0.16666666666666674 120:-0.21739130434782605 121:0.33333333333333326 122:-0.4 123:-0.1428571428571429 124:-0.5555555555555556 125:0.19999999999999996 126:-0.4736842105263158 127:0.11111111111111116 128:-0.125 129:0.0 130:0.25 131:0.09090909090909083 132:-0.17647058823529416 
1.0 1:-0.33333333333333337 2:1.0 3:-0.19999999999999996 4:-1.0 5:0.25 6:-0.2727272727272727 7:0.6923076923076923 8:-0.5238095238095238 9:0.46666666666666656 10:-0.7391304347826086 11:0.7142857142857142 12:-0.41666666666666663 13:0.41176470588235303 14:-1.0 15:1.0 16:-0.5833333333333333 17:0.3846153846153846 18:-1.0 19:1.0 20:-0.6 21:0.8181818181818181 22:-0.8518518518518519 23:1.0 24:-0.7419354838709677 25:0.11111111111111116 26:0.09090909090909083 27:-0.4285714285714286 28:0.09090909090909083 29:-0.6363636363636364 30:-0.25 31:-0.8181818181818181 32:-1.0 33:-0.5 34:0.7777777777777777 35:-0.7777777777777778 36:-0.33333333333333337 37:-0.25 38:0.6000000000000001 39:-0.5 40:0.6000000000000001 41:-0.6 42:-0.25 43:-1.0 44:-0.6 45:-0.33333333333333337 46:-0.33333333333333337 47:0.0 48:0.6000000000000001 49:-0.19999999999999996 50:0.0 51:0.0 52:-1.0 53:-0.4285714285714286 54:-1.0 55:-0.19999999999999996 56:0.6000000000000001 57:-0.19999999999999996 58:1.0 59:-0.33333333333333337 60:1.0 61:-0.19999999999999996 62:1.0 63:-0.6 64:-0.6666666666666667 65:-0.19999999999999996 66:-1.0 67:-0.19999999999999996 68:-1.0 69:-0.19999999999999996 70:-1.0 71:-0.33333333333333337 72:1.0 73:-0.6 74:1.0 75:-0.19999999999999996 76:1.0 77:-0.19999999999999996 78:0.19999999999999996 79:-0.5 80:-0.6 81:-0.6666666666666667 82:-1.0 83:0.0 84:-0.6666666666666667 85:-0.6 86:-1.0 87:0.25 88:-0.11111111111111116 89:0.1428571428571428 90:-0.5555555555555556 91:1.0 92:-0.09090909090909094 93:0.33333333333333326 94:-1.0 95:0.5 96:0.0 97:0.5 98:-0.19999999999999996 99:0.75 100:-0.4 101:0.8 102:-0.17647058823529416 103:0.16666666666666674 104:-0.8571428571428572 105:1.0 106:-0.5238095238095238 107:0.0 108:-1.0 109:0.5 110:-0.5294117647058824 111:1.0 112:-1.0 113:0.75 114:-0.4117647058823529 115:0.3999999999999999 116:-0.75 117:1.0 118:-1.0 119:0.5 120:-1.0 121:1.0 122:-0.5 123:0.7142857142857142 124:-0.6666666666666667 125:0.6000000000000001 126:-0.6842105263157895 127:0.7777777777777777 128:-1.0 129:0.75 130:-1.0 131:0.4545454545454546 132:-1.0 
1.0 1:-0.6666666666666667 2:-1.0 3:0.19999999999999996 4:-0.33333333333333337 5:0.75 6:-0.2727272727272727 7:0.3846153846153846 8:0.04761904761904767 9:-0.19999999999999996 10:0.21739130434782616 11:-1.0 12:-0.16666666666666663 13:-0.5294117647058824 14:0.25 15:-1.0 16:-0.33333333333333337 17:-0.5384615384615384 18:-0.08333333333333337 19:-1.0 20:-0.4 21:-0.4545454545454546 22:-0.40740740740740744 23:-0.4545454545454546 24:-0.4193548387096774 25:-0.33333333333333337 26:-0.4545454545454546 27:-0.4285714285714286 28:-1.0 29:0.09090909090909083 30:-0.75 31:-0.09090909090909094 32:0.2727272727272727 33:-0.25 34:-0.7777777777777778 35:0.5555555555555556 36:0.11111111111111116 37:-0.25 38:-0.6 39:-0.5 40:-0.8 41:0.3999999999999999 42:-0.25 43:0.33333333333333326 44:0.3999999999999999 45:0.33333333333333326 46:0.0 47:-0.6666666666666667 48:-0.6 49:-0.6 50:-1.0 51:0.5 52:-0.33333333333333337 53:-0.4285714285714286 54:0.19999999999999996 55:-0.6 56:-0.19999999999999996 57:-0.6 58:-1.0 59:-0.6666666666666667 60:-1.0 61:-0.6 62:-0.33333333333333337 63:-0.19999999999999996 64:0.0 65:0.6000000000000001 66:-0.5 67:0.6000000000000001 68:-0.5 69:0.19999999999999996 70:0.0 71:-0.33333333333333337 72:-0.6 73:-0.6 74:-1.0 75:-0.6 76:-0.5 77:-0.6 78:-0.6 79:1.0 80:-0.19999999999999996 81:0.0 82:0.0 83:0.0 84:-0.33333333333333337 85:-0.19999999999999996 86:0.0 87:0.5 88:-0.5555555555555556 89:0.4285714285714286 90:-0.33333333333333337 91:0.0 92:0.2727272727272727 93:0.33333333333333326 94:0.11111111111111116 95:0.75 96:0.0 97:0.5 98:0.0 99:0.5 100:-0.19999999999999996 101:0.0 102:0.17647058823529416 103:0.16666666666666674 104:0.0 105:0.16666666666666674 106:0.04761904761904767 107:-0.2857142857142857 108:0.05263157894736836 109:0.75 110:-0.05882352941176472 111:0.5 112:-0.4285714285714286 113:0.5 114:0.05882352941176472 115:0.0 116:0.0 117:0.8 118:-0.5 119:-0.16666666666666663 120:-0.21739130434782605 121:0.5555555555555556 122:0.0 123:0.4285714285714286 124:-0.11111111111111116 125:0.0 126:0.05263157894736836 127:0.5555555555555556 128:-0.375 129:0.5 130:-0.375 131:-0.09090909090909094 132:-0.17647058823529416 
1.0 1:-0.33333333333333337 2:-0.5 3:0.6000000000000001 4:-0.33333333333333337 5:1.0 6:-0.2727272727272727 7:0.6923076923076923 8:0.04761904761904767 9:-0.06666666666666665 10:0.13043478260869557 11:-0.1428571428571429 12:0.0 13:-0.6470588235294117 14:0.08333333333333326 15:0.1428571428571428 16:-0.08333333333333337 17:-0.8461538461538461 18:-0.08333333333333337 19:0.16666666666666674 20:-0.19999999999999996 21:-0.2727272727272727 22:-0.2592592592592593 23:0.2727272727272727 24:-0.29032258064516125 25:0.11111111111111116 26:-0.4545454545454546 27:0.1428571428571428 28:-0.6363636363636364 29:0.4545454545454546 30:-0.25 31:-0.2727272727272727 32:0.2727272727272727 33:0.0 34:-0.7777777777777778 35:0.5555555555555556 36:0.11111111111111116 37:0.0 38:-0.6 39:0.25 40:-0.6 41:0.6000000000000001 42:0.0 43:0.33333333333333326 44:0.3999999999999999 45:1.0 46:0.0 47:0.0 48:-0.6 49:0.19999999999999996 50:-1.0 51:1.0 52:0.0 53:-0.1428571428571429 54:0.6000000000000001 55:0.19999999999999996 56:0.19999999999999996 57:-0.19999999999999996 58:-0.6 59:-0.33333333333333337 60:-0.5 61:-0.19999999999999996 62:-0.33333333333333337 63:0.19999999999999996 64:0.0 65:0.19999999999999996 66:0.0 67:0.6000000000000001 68:-0.5 69:0.6000000000000001 70:0.0 71:0.0 72:-0.6 73:-0.19999999999999996 74:-0.33333333333333337 75:-0.19999999999999996 76:-0.5 77:0.19999999999999996 78:-0.6 79:0.5 80:0.19999999999999996 81:0.0 82:0.0 83:0.5 84:0.0 85:-0.19999999999999996 86:0.0 87:0.25 88:-0.33333333333333337 89:0.7142857142857142 90:-0.33333333333333337 91:0.5 92:0.2727272727272727 93:0.5555555555555556 94:0.11111111111111116 95:1.0 96:0.19999999999999996 97:0.75 98:0.19999999999999996 99:1.0 100:0.0 101:0.19999999999999996 102:0.2941176470588236 103:0.33333333333333326 104:0.0 105:0.6666666666666667 106:0.23809523809523814 107:-0.2857142857142857 108:0.05263157894736836 109:1.0 110:-0.05882352941176472 111:0.75 112:-0.5238095238095238 113:0.75 114:-0.05882352941176472 115:0.3999999999999999 116:-0.125 117:1.0 118:-0.5 119:0.16666666666666674 120:-0.3913043478260869 121:0.7777777777777777 122:-0.09999999999999998 123:1.0 124:-0.2222222222222222 125:0.3999999999999999 126:-0.052631578947368474 127:0.7777777777777777 128:-0.5 129:0.75 130:-0.375 131:0.2727272727272727 132:-0.2941176470588235 
1.0 1:-0.33333333333333337 2:-1.0 3:0.19999999999999996 4:-0.33333333333333337 5:0.5 6:-0.2727272727272727 7:0.3846153846153846 8:-0.23809523809523814 9:0.19999999999999996 10:-0.04347826086956519 11:-0.7142857142857143 12:-0.5833333333333333 13:-0.05882352941176472 14:-0.33333333333333337 15:-0.2857142857142857 16:-0.5833333333333333 17:-0.23076923076923073 18:-0.16666666666666663 19:0.16666666666666674 20:-0.5333333333333333 21:-0.2727272727272727 22:-0.2592592592592593 23:0.09090909090909083 24:-0.4193548387096774 25:-0.33333333333333337 26:-0.4545454545454546 27:-0.4285714285714286 28:-0.6363636363636364 29:0.2727272727272727 30:-0.5 31:-0.2727272727272727 32:-0.09090909090909094 33:-0.5 34:-0.5555555555555556 35:0.5555555555555556 36:-0.33333333333333337 37:-0.5 38:-0.4 39:-0.25 40:-0.4 41:0.3999999999999999 42:-0.5 43:0.11111111111111116 44:0.0 45:0.33333333333333326 46:-0.33333333333333337 47:-0.6666666666666667 48:-0.6 49:-0.19999999999999996 50:-1.0 51:0.0 52:-0.33333333333333337 53:-0.4285714285714286 54:-0.19999999999999996 55:-0.6 56:-0.19999999999999996 57:-0.6 58:-0.6 59:-0.6666666666666667 60:-1.0 61:-0.6 62:-1.0 63:-0.19999999999999996 64:-0.33333333333333337 65:0.19999999999999996 66:-0.5 67:0.6000000000000001 68:-1.0 69:0.19999999999999996 70:0.0 71:-0.33333333333333337 72:-0.6 73:-0.6 74:-1.0 75:-0.6 76:-1.0 77:-0.19999999999999996 78:-1.0 79:0.0 80:-0.19999999999999996 81:-0.33333333333333337 82:0.0 83:0.0 84:-0.6666666666666667 85:-0.19999999999999996 86:-0.33333333333333337 87:0.25 88:-0.5555555555555556 89:1.0 90:-0.33333333333333337 91:0.25 92:-0.09090909090909094 93:0.5555555555555556 94:-0.33333333333333337 95:0.5 96:0.0 97:0.5 98:0.19999999999999996 99:0.75 100:0.0 101:-0.19999999999999996 102:-0.17647058823529416 103:0.5 104:-0.1428571428571429 105:0.0 106:-0.23809523809523814 107:0.2857142857142858 108:-0.1578947368421053 109:0.5 110:-0.2941176470588235 111:0.5 112:-1.0 113:0.5 114:-0.2941176470588235 115:0.3999999999999999 116:-0.25 117:0.6000000000000001 118:-1.0 119:0.16666666666666674 120:-0.7391304347826086 121:0.5555555555555556 122:-0.4 123:0.7142857142857142 124:-0.5555555555555556 125:0.3999999999999999 126:-0.26315789473684215 127:0.5555555555555556 128:-0.875 129:0.5 130:-0.875 131:0.2727272727272727 132:-0.6470588235294117 
1.0 1:0.0 2:-0.5 3:0.19999999999999996 4:-1.0 5:0.5 6:0.09090909090909083 7:0.5384615384615385 8:-0.4285714285714286 9:0.46666666666666656 10:-0.4782608695652174 11:1.0 12:-0.5833333333333333 13:0.17647058823529416 14:-0.6666666666666667 15:1.0 16:-0.75 17:0.23076923076923084 18:-0.8333333333333334 19:0.5 20:-0.6666666666666667 21:0.6363636363636365 22:-0.8518518518518519 23:0.6363636363636365 24:-0.7419354838709677 25:-0.33333333333333337 26:-0.4545454545454546 27:-0.1428571428571429 28:0.09090909090909083 29:-0.2727272727272727 30:-0.25 31:0.2727272727272727 32:-0.4545454545454546 33:-0.25 34:-0.11111111111111116 35:0.11111111111111116 36:-0.33333333333333337 37:-0.25 38:-0.4 39:0.0 40:0.0 41:0.0 42:-0.25 43:0.33333333333333326 44:-0.4 45:0.0 46:0.0 47:0.33333333333333326 48:0.19999999999999996 49:0.19999999999999996 50:-1.0 51:0.0 52:-0.6666666666666667 53:-0.1428571428571429 54:-0.19999999999999996 55:0.6000000000000001 56:-0.19999999999999996 57:0.19999999999999996 58:0.19999999999999996 59:0.33333333333333326 60:0.0 61:-0.19999999999999996 62:-0.33333333333333337 63:-0.19999999999999996 64:-1.0 65:0.19999999999999996 66:0.0 67:0.6000000000000001 68:-1.0 69:-0.19999999999999996 70:-0.5 71:0.33333333333333326 72:0.19999999999999996 73:-0.19999999999999996 74:0.33333333333333326 75:0.6000000000000001 76:0.0 77:0.6000000000000001 78:-0.6 79:0.5 80:-0.19999999999999996 81:-0.33333333333333337 82:-0.5 83:0.0 84:-1.0 85:-0.6 86:-1.0 87:0.25 88:-0.7777777777777778 89:0.7142857142857142 90:-0.5555555555555556 91:0.25 92:-0.09090909090909094 93:0.7777777777777777 94:-0.5555555555555556 95:0.5 96:0.3999999999999999 97:0.75 98:0.3999999999999999 99:0.5 100:0.19999999999999996 101:0.3999999999999999 102:-0.2941176470588235 103:0.5 104:-0.8571428571428572 105:0.5 106:-0.33333333333333337 107:0.5714285714285714 108:-0.7894736842105263 109:0.75 110:0.05882352941176472 111:1.0 112:-0.6190476190476191 113:1.0 114:-0.05882352941176472 115:0.3999999999999999 116:-0.25 117:1.0 118:-0.7 119:0.5 120:-0.5652173913043479 121:1.0 122:-0.19999999999999996 123:1.0 124:-0.33333333333333337 125:0.6000000000000001 126:-0.26315789473684215 127:0.7777777777777777 128:-0.625 129:1.0 130:-0.5 131:0.4545454545454546 132:-0.5294117647058824 
-0.1742408364350298 1:0.0 2:0.0 3:-0.6 4:-0.33333333333333337 5:0.0 6:-0.6363636363636364 7:0.8461538461538463 8:-0.33333333333333337 9:-0.6 10:-0.04347826086956519 11:0.4285714285714286 12:-0.5833333333333333 13:-0.5294117647058824 14:-0.5 15:0.2857142857142858 16:-0.8333333333333334 17:-0.6923076923076923 18:-0.8333333333333334 19:0.16666666666666674 20:-0.8666666666666667 21:-0.4545454545454546 22:-0.9259259259259259 23:0.09090909090909083 24:-0.935483870967742 25:1.0 26:-0.6363636363636364 27:0.7142857142857142 28:-0.2727272727272727 29:-0.6363636363636364 30:-0.75 31:-1.0 32:-1.0 33:0.75 34:-0.33333333333333337 35:-0.5555555555555556 36:-0.7777777777777778 37:1.0 38:-0.6 39:1.0 40:-0.19999999999999996 41:-0.6 42:-0.75 43:-1.0 44:-0.8 45:0.0 46:0.33333333333333326 47:1.0 48:-0.19999999999999996 49:1.0 50:-0.5 51:-0.5 52:0.0 53:-1.0 54:-0.19999999999999996 55:1.0 56:0.6000000000000001 57:1.0 58:0.19999999999999996 59:0.33333333333333326 60:-0.5 61:0.6000000000000001 62:0.33333333333333326 63:-1.0 64:0.0 65:-0.6 66:0.0 67:-0.19999999999999996 68:-0.5 69:-0.6 70:-0.5 71:1.0 72:0.19999999999999996 73:0.6000000000000001 74:0.33333333333333326 75:1.0 76:0.5 77:1.0 78:-0.19999999999999996 79:-0.5 80:-0.19999999999999996 81:-1.0 82:-0.5 83:-1.0 84:0.0 85:-1.0 86:-0.33333333333333337 87:0.75 88:-1.0 89:-0.4285714285714286 90:-1.0 91:0.5 92:-0.4545454545454546 93:0.11111111111111116 94:-0.5555555555555556 95:0.25 96:-0.6 97:-0.25 98:-0.6 99:0.25 100:-1.0 101:0.8 102:-0.17647058823529416 103:-0.5 104:-0.4285714285714286 105:1.0 106:-0.1428571428571429 107:-0.7142857142857143 108:-0.26315789473684215 109:0.25 110:-0.5294117647058824 111:0.25 112:-0.9047619047619048 113:0.5 114:-0.4117647058823529 115:-0.4 116:-0.5 117:1.0 118:-0.8 119:-0.33333333333333337 120:-0.6521739130434783 121:0.7777777777777777 122:-0.5 123:0.1428571428571428 124:-0.7777777777777778 125:-0.6 126:-0.4736842105263158 127:1.0 128:-0.75 129:0.25 130:-0.75 131:-0.6363636363636364 132:-0.6470588235294117 
-0.31730826597732276 1:-0.33333333333333337 2:0.0 3:0.19999999999999996 4:1.0 5:-0.25 6:-0.09090909090909094 7:0.6923076923076923 8:0.33333333333333326 9:-0.8666666666666667 10:0.4782608695652173 11:0.4285714285714286 12:-0.08333333333333337 13:-0.8823529411764706 14:0.5833333333333333 15:0.1428571428571428 16:-0.33333333333333337 17:-1.0 18:0.16666666666666674 19:-0.33333333333333337 20:-0.4 21:-1.0 22:-0.18518518518518523 23:-0.8181818181818181 24:-0.4193548387096774 25:0.11111111111111116 26:-0.4545454545454546 27:-0.1428571428571429 28:0.09090909090909083 29:0.09090909090909083 30:0.0 31:0.09090909090909083 32:0.09090909090909083 33:0.0 34:-0.11111111111111116 35:0.33333333333333326 36:0.33333333333333326 37:0.0 38:-0.4 39:-0.25 40:0.0 41:0.3999999999999999 42:0.25 43:0.11111111111111116 44:0.3999999999999999 45:-0.33333333333333337 46:1.0 47:0.0 48:-0.19999999999999996 49:-0.6 50:0.5 51:0.0 52:1.0 53:-0.1428571428571429 54:1.0 55:-0.6 56:0.6000000000000001 57:-0.19999999999999996 58:-0.19999999999999996 59:0.0 60:-0.5 61:-0.19999999999999996 62:0.33333333333333326 63:-0.19999999999999996 64:1.0 65:-0.19999999999999996 66:0.5 67:0.19999999999999996 68:1.0 69:0.19999999999999996 70:1.0 71:0.0 72:-0.19999999999999996 73:-0.19999999999999996 74:0.33333333333333326 75:-0.19999999999999996 76:0.0 77:-0.19999999999999996 78:0.19999999999999996 79:0.0 80:1.0 81:0.0 82:1.0 83:0.0 84:1.0 85:-0.19999999999999996 86:0.6666666666666667 87:0.0 88:-0.11111111111111116 89:-0.4285714285714286 90:0.11111111111111116 91:0.0 92:0.09090909090909083 93:-0.5555555555555556 94:0.33333333333333326 95:-0.25 96:0.19999999999999996 97:-0.5 98:0.3999999999999999 99:-0.5 100:0.0 101:0.19999999999999996 102:0.2941176470588236 103:-0.6666666666666667 104:0.5714285714285714 105:0.5 106:0.33333333333333326 107:-0.8571428571428572 108:0.4736842105263157 109:-0.5 110:0.2941176470588236 111:-0.25 112:-0.1428571428571429 113:0.25 114:0.17647058823529416 115:-0.8 116:0.25 117:0.3999999999999999 118:-0.09999999999999998 119:-0.5 120:0.04347826086956519 121:0.33333333333333326 122:0.19999999999999996 123:-0.7142857142857143 124:0.11111111111111116 125:-0.8 126:0.26315789473684204 127:0.33333333333333326 128:-0.125 129:-0.25 130:0.125 131:-0.8181818181818181 132:0.17647058823529416 
-1.0 1:-0.6666666666666667 2:-0.5 3:-0.19999999999999996 4:1.0 5:-1.0 6:-0.2727272727272727 7:0.5384615384615385 8:0.33333333333333326 9:-0.8666666666666667 10:0.4782608695652173 11:0.2857142857142858 12:0.08333333333333326 13:-1.0 14:0.41666666666666674 15:-0.1428571428571429 16:-0.25 17:-1.0 18:0.0 19:-0.8333333333333334 20:-0.4 21:-1.0 22:-0.33333333333333337 23:-1.0 24:-0.4838709677419355 25:-0.7777777777777778 26:-0.09090909090909094 27:-1.0 28:-0.2727272727272727 29:-0.09090909090909094 30:-0.5 31:-0.2727272727272727 32:0.2727272727272727 33:-1.0 34:-0.33333333333333337 35:0.33333333333333326 36:0.11111111111111116 37:-1.0 38:-0.19999999999999996 39:-1.0 40:-0.19999999999999996 41:0.19999999999999996 42:0.0 43:0.11111111111111116 44:0.3999999999999999 45:-1.0 46:0.6666666666666667 47:-0.6666666666666667 48:-0.6 49:-1.0 50:0.0 51:-1.0 52:1.0 53:-0.4285714285714286 54:1.0 55:-1.0 56:0.6000000000000001 57:-0.6 58:-0.6 59:-0.33333333333333337 60:-0.5 61:-0.6 62:0.33333333333333326 63:-0.6 64:1.0 65:-0.6 66:0.5 67:0.19999999999999996 68:0.5 69:-0.19999999999999996 70:1.0 71:-0.33333333333333337 72:-0.6 73:-0.6 74:0.33333333333333326 75:-1.0 76:0.0 77:-1.0 78:0.19999999999999996 79:-1.0 80:0.6000000000000001 81:-0.6666666666666667 82:1.0 83:-0.5 84:0.6666666666666667 85:-0.6 86:0.6666666666666667 87:-0.5 88:-0.33333333333333337 89:-1.0 90:0.11111111111111116 91:-0.25 92:0.09090909090909083 93:-1.0 94:0.33333333333333326 95:-0.75 96:0.0 97:-1.0 98:0.19999999999999996 99:-1.0 100:-0.19999999999999996 101:-0.19999999999999996 102:0.2941176470588236 103:-1.0 104:0.4285714285714286 105:-0.16666666666666663 106:0.33333333333333326 107:-1.0 108:0.4736842105263157 109:-1.0 110:0.17647058823529416 111:-1.0 112:-0.1428571428571429 113:-0.25 114:0.17647058823529416 115:-1.0 116:0.125 117:-0.19999999999999996 118:-0.09999999999999998 119:-0.8333333333333334 120:0.04347826086956519 121:-0.11111111111111116 122:0.19999999999999996 123:-1.0 124:0.11111111111111116 125:-1.0 126:0.26315789473684204 127:-0.33333333333333337 128:-0.125 129:-1.0 130:0.0 131:-1.0 132:0.05882352941176472 
-1.0 1:0.0 2:0.0 3:-0.6 4:-0.33333333333333337 5:0.25 6:0.09090909090909083 7:0.5384615384615385 8:0.5238095238095237 9:-0.06666666666666665 10:0.6521739130434783 11:0.0 12:0.33333333333333326 13:0.7647058823529411 14:0.16666666666666674 15:0.1428571428571428 16:0.33333333333333326 17:0.8461538461538463 18:0.16666666666666674 19:0.33333333333333326 20:0.1333333333333333 21:0.4545454545454546 22:-0.03703703703703709 23:0.2727272727272727 24:-0.09677419354838712 25:-0.11111111111111116 26:0.09090909090909083 27:0.1428571428571428 28:0.4545454545454546 29:-0.8181818181818181 30:0.0 31:-0.6363636363636364 32:-0.6363636363636364 33:0.0 34:0.33333333333333326 35:-0.7777777777777778 36:-0.33333333333333337 37:-0.25 38:0.0 39:0.0 40:0.3999999999999999 41:-1.0 42:0.0 43:-0.7777777777777778 44:-0.6 45:-0.33333333333333337 46:0.6666666666666667 47:0.33333333333333326 48:0.6000000000000001 49:0.19999999999999996 50:0.5 51:-1.0 52:0.33333333333333326 53:-0.7142857142857143 54:-0.19999999999999996 55:0.19999999999999996 56:0.6000000000000001 57:0.19999999999999996 58:-0.19999999999999996 59:0.0 60:0.0 61:0.19999999999999996 62:1.0 63:-0.6 64:0.0 65:-1.0 66:-1.0 67:-0.6 68:-0.5 69:-1.0 70:-0.5 71:0.33333333333333326 72:0.19999999999999996 73:0.19999999999999996 74:0.33333333333333326 75:0.19999999999999996 76:0.5 77:0.19999999999999996 78:0.19999999999999996 79:-1.0 80:-0.19999999999999996 81:-0.6666666666666667 82:-1.0 83:-0.5 84:0.0 85:-0.6 86:-0.33333333333333337 87:0.25 88:0.11111111111111116 89:-0.1428571428571429 90:0.11111111111111116 91:0.25 92:0.6363636363636365 93:0.11111111111111116 94:0.5555555555555556 95:0.25 96:0.3999999999999999 97:0.0 98:0.3999999999999999 99:0.0 100:0.6000000000000001 101:0.3999999999999999 102:0.5294117647058822 103:0.0 104:0.5714285714285714 105:0.33333333333333326 106:0.33333333333333326 107:-0.1428571428571429 108:0.368421052631579 109:0.25 110:-0.05882352941176472 111:0.25 112:0.1428571428571428 113:0.25 114:0.17647058823529416 115:0.19999999999999996 116:0.125 117:0.6000000000000001 118:0.19999999999999996 119:0.16666666666666674 120:0.21739130434782616 121:0.5555555555555556 122:0.3999999999999999 123:0.1428571428571428 124:0.11111111111111116 125:0.19999999999999996 126:0.4736842105263157 127:0.5555555555555556 128:0.0 129:0.25 130:0.0 131:-0.09090909090909094 132:0.17647058823529416 
-0.8998889393445849 1:0.6666666666666667 2:0.5 3:-0.6 4:-0.33333333333333337 5:0.25 6:0.2727272727272727 7:0.8461538461538463 8:0.6190476190476191 9:-0.19999999999999996 10:0.6521739130434783 11:-0.1428571428571429 12:0.08333333333333326 13:0.6470588235294117 14:0.25 15:-0.2857142857142857 16:0.08333333333333326 17:0.8461538461538463 18:0.16666666666666674 19:-0.16666666666666663 20:0.06666666666666665 21:0.4545454545454546 22:0.11111111111111116 23:0.4545454545454546 24:-0.032258064516129004 25:0.33333333333333326 26:-0.09090909090909094 27:0.4285714285714286 28:0.6363636363636365 29:-0.8181818181818181 30:0.25 31:-0.6363636363636364 32:-0.6363636363636364 33:0.25 34:0.33333333333333326 35:-1.0 36:-0.33333333333333337 37:0.25 38:0.0 39:0.5 40:0.6000000000000001 41:-0.8 42:0.0 43:-0.7777777777777778 44:-0.6 45:0.0 46:0.6666666666666667 47:1.0 48:1.0 49:0.6000000000000001 50:0.5 51:-0.5 52:0.33333333333333326 53:-0.7142857142857143 54:-0.19999999999999996 55:1.0 56:1.0 57:0.6000000000000001 58:0.19999999999999996 59:1.0 60:0.5 61:0.6000000000000001 62:1.0 63:-0.6 64:0.33333333333333326 65:-0.6 66:-0.5 67:-0.19999999999999996 68:0.0 69:-0.6 70:-0.5 71:0.6666666666666667 72:0.19999999999999996 73:0.6000000000000001 74:0.33333333333333326 75:1.0 76:0.5 77:1.0 78:0.6000000000000001 79:-0.5 80:-0.19999999999999996 81:-0.6666666666666667 82:-0.5 83:-0.5 84:0.33333333333333326 85:-0.6 86:0.0 87:1.0 88:0.33333333333333326 89:-0.1428571428571429 90:0.33333333333333326 91:1.0 92:0.8181818181818181 93:0.33333333333333326 94:0.5555555555555556 95:0.75 96:0.6000000000000001 97:0.25 98:0.3999999999999999 99:0.5 100:0.6000000000000001 101:0.8 102:0.6470588235294117 103:0.0 104:0.5714285714285714 105:0.5 106:0.5238095238095237 107:0.0 108:0.4736842105263157 109:0.25 110:0.05882352941176472 111:0.25 112:0.23809523809523814 113:0.5 114:0.2941176470588236 115:0.19999999999999996 116:0.25 117:0.8 118:0.30000000000000004 119:0.0 120:0.3913043478260869 121:0.7777777777777777 122:0.5 123:0.4285714285714286 124:0.22222222222222232 125:0.19999999999999996 126:0.5789473684210527 127:0.7777777777777777 128:0.125 129:0.25 130:0.125 131:0.09090909090909083 132:0.2941176470588236 
-1.0 1:0.33333333333333326 2:0.5 3:-0.19999999999999996 4:-0.33333333333333337 5:0.5 6:0.6363636363636365 7:0.6923076923076923 8:0.7142857142857142 9:-0.06666666666666665 10:0.7391304347826086 11:-0.5714285714285714 12:0.0 13:0.8823529411764706 14:0.33333333333333326 15:-0.4285714285714286 16:0.08333333333333326 17:1.0 18:0.16666666666666674 19:-0.33333333333333337 20:0.06666666666666665 21:1.0 22:0.11111111111111116 23:0.6363636363636365 24:0.032258064516129004 25:0.11111111111111116 26:0.09090909090909083 27:0.4285714285714286 28:0.6363636363636365 29:-0.4545454545454546 30:0.5 31:-0.2727272727272727 32:-0.09090909090909094 33:0.25 34:0.33333333333333326 35:-0.33333333333333337 36:-0.11111111111111116 37:0.25 38:0.0 39:0.25 40:0.6000000000000001 41:-0.4 42:0.25 43:-0.33333333333333337 44:-0.19999999999999996 45:0.33333333333333326 46:1.0 47:1.0 48:0.6000000000000001 49:0.6000000000000001 50:0.5 51:0.0 52:0.6666666666666667 53:-0.4285714285714286 54:-0.19999999999999996 55:0.6000000000000001 56:1.0 57:0.6000000000000001 58:-0.19999999999999996 59:0.6666666666666667 60:0.0 61:0.6000000000000001 62:1.0 63:-0.19999999999999996 64:0.33333333333333326 65:-0.19999999999999996 66:-0.5 67:-0.19999999999999996 68:0.0 69:-0.6 70:0.0 71:0.6666666666666667 72:0.19999999999999996 73:0.19999999999999996 74:0.33333333333333326 75:0.6000000000000001 76:1.0 77:0.6000000000000001 78:0.6000000000000001 79:-0.5 80:-0.19999999999999996 81:-0.33333333333333337 82:-0.5 83:0.0 84:0.33333333333333326 85:-0.19999999999999996 86:0.0 87:0.75 88:1.0 89:0.1428571428571428 90:1.0 91:1.0 92:1.0 93:0.5555555555555556 94:0.7777777777777777 95:0.5 96:0.8 97:0.5 98:0.8 99:0.5 100:1.0 101:0.3999999999999999 102:0.6470588235294117 103:0.16666666666666674 104:0.8571428571428572 105:0.5 106:0.6190476190476191 107:-0.1428571428571429 108:0.5789473684210527 109:0.5 110:0.2941176470588236 111:0.75 112:0.33333333333333326 113:0.75 114:0.41176470588235303 115:0.3999999999999999 116:0.5 117:1.0 118:0.30000000000000004 119:0.16666666666666674 120:0.3913043478260869 121:0.7777777777777777 122:0.6000000000000001 123:0.4285714285714286 124:0.4444444444444444 125:0.19999999999999996 126:0.6842105263157894 127:0.7777777777777777 128:0.25 129:0.75 130:0.25 131:0.2727272727272727 132:0.41176470588235303 
-1.0 1:-0.6666666666666667 2:0.0 3:1.0 4:1.0 5:0.5 6:0.2727272727272727 7:0.5384615384615385 8:0.33333333333333326 9:0.06666666666666665 10:0.30434782608695654 11:-0.2857142857142857 12:0.08333333333333326 13:0.2941176470588236 14:0.25 15:-0.1428571428571429 16:0.25 17:0.5384615384615385 18:0.16666666666666674 19:0.16666666666666674 20:0.19999999999999996 21:0.4545454545454546 22:0.11111111111111116 23:0.4545454545454546 24:0.09677419354838701 25:-0.7777777777777778 26:0.09090909090909083 27:0.1428571428571428 28:0.4545454545454546 29:0.09090909090909083 30:0.5 31:1.0 32:-0.09090909090909094 33:-0.25 34:0.7777777777777777 35:1.0 36:0.33333333333333326 37:-0.5 38:0.3999999999999999 39:0.0 40:0.6000000000000001 41:0.3999999999999999 42:0.5 43:1.0 44:0.3999999999999999 45:0.33333333333333326 46:0.33333333333333326 47:-0.6666666666666667 48:0.6000000000000001 49:-0.19999999999999996 50:0.0 51:1.0 52:0.6666666666666667 53:0.7142857142857142 54:1.0 55:-0.6 56:1.0 57:-0.19999999999999996 58:0.19999999999999996 59:-0.6666666666666667 60:0.0 61:-0.6 62:0.33333333333333326 63:0.6000000000000001 64:1.0 65:1.0 66:0.0 67:1.0 68:0.5 69:1.0 70:0.5 71:-0.33333333333333337 72:0.19999999999999996 73:-0.19999999999999996 74:0.33333333333333326 75:-0.6 76:1.0 77:-0.19999999999999996 78:0.6000000000000001 79:1.0 80:0.6000000000000001 81:1.0 82:0.5 83:1.0 84:0.6666666666666667 85:1.0 86:0.6666666666666667 87:0.25 88:0.33333333333333326 89:0.1428571428571428 90:0.11111111111111116 91:1.0 92:0.4545454545454546 93:0.11111111111111116 94:0.5555555555555556 95:0.75 96:0.6000000000000001 97:0.5 98:0.6000000000000001 99:0.75 100:0.3999999999999999 101:0.3999999999999999 102:0.41176470588235303 103:0.16666666666666674 104:0.4285714285714286 105:0.5 106:0.33333333333333326 107:0.0 108:0.368421052631579 109:0.5 110:0.2941176470588236 111:0.75 112:-0.04761904761904767 113:0.5 114:0.17647058823529416 115:0.19999999999999996 116:0.25 117:0.8 118:-0.09999999999999998 119:0.16666666666666674 120:0.04347826086956519 121:0.5555555555555556 122:0.19999999999999996 123:0.4285714285714286 124:0.11111111111111116 125:0.19999999999999996 126:0.26315789473684204 127:0.7777777777777777 128:-0.125 129:0.5 130:-0.125 131:0.09090909090909083 132:-0.05882352941176472 
-1.0 1:-1.0 2:-0.5 3:0.6000000000000001 4:-0.33333333333333337 5:0.25 6:0.2727272727272727 7:0.5384615384615385 8:0.1428571428571428 9:-0.06666666666666665 10:0.13043478260869557 11:-0.4285714285714286 12:-0.25 13:0.2941176470588236 14:-0.08333333333333337 15:-0.4285714285714286 16:-0.16666666666666663 17:0.5384615384615385 18:-0.16666666666666663 19:-0.5 20:-0.06666666666666665 21:0.4545454545454546 22:-0.11111111111111116 23:0.09090909090909083 24:-0.032258064516129004 25:-1.0 26:-0.09090909090909094 27:-0.7142857142857143 28:-0.09090909090909094 29:-0.2727272727272727 30:0.25 31:0.6363636363636365 32:-0.2727272727272727 33:-1.0 34:0.33333333333333326 35:0.33333333333333326 36:0.11111111111111116 37:-1.0 38:0.19999999999999996 39:-0.75 40:0.19999999999999996 41:-0.19999999999999996 42:0.25 43:0.5555555555555556 44:0.0 45:0.0 46:0.33333333333333326 47:-1.0 48:0.6000000000000001 49:-0.6 50:-0.5 51:0.5 52:0.33333333333333326 53:0.4285714285714286 54:0.6000000000000001 55:-1.0 56:1.0 57:-1.0 58:-0.6 59:-1.0 60:0.0 61:-1.0 62:-0.33333333333333337 63:0.19999999999999996 64:0.6666666666666667 65:0.6000000000000001 66:-0.5 67:1.0 68:0.0 69:0.6000000000000001 70:0.0 71:-1.0 72:-0.19999999999999996 73:-1.0 74:-0.33333333333333337 75:-1.0 76:0.5 77:-0.6 78:0.19999999999999996 79:0.5 80:-0.19999999999999996 81:0.6666666666666667 82:0.0 83:0.5 84:0.33333333333333326 85:0.19999999999999996 86:0.33333333333333326 87:0.0 88:0.11111111111111116 89:-0.1428571428571429 90:0.11111111111111116 91:0.25 92:0.2727272727272727 93:-0.11111111111111116 94:0.33333333333333326 95:0.5 96:0.3999999999999999 97:0.0 98:0.3999999999999999 99:0.25 100:0.3999999999999999 101:-0.19999999999999996 102:0.05882352941176472 103:0.33333333333333326 104:0.0 105:0.0 106:0.1428571428571428 107:0.0 108:0.05263157894736836 109:0.0 110:0.05882352941176472 111:0.25 112:-0.1428571428571429 113:0.25 114:0.05882352941176472 115:-0.19999999999999996 116:0.0 117:0.6000000000000001 118:-0.19999999999999996 119:0.0 120:-0.04347826086956519 121:0.5555555555555556 122:0.10000000000000009 123:0.1428571428571428 124:0.0 125:0.0 126:0.1578947368421053 127:0.5555555555555556 128:-0.25 129:0.25 130:-0.25 131:-0.09090909090909094 132:-0.17647058823529416 
-1.0 1:-0.33333333333333337 2:0.0 3:0.6000000000000001 4:-0.33333333333333337 5:0.5 6:0.09090909090909083 7:0.8461538461538463 8:-0.04761904761904767 9:0.06666666666666665 10:-0.04347826086956519 11:0.1428571428571428 12:-0.25 13:0.2941176470588236 14:-0.25 15:0.2857142857142858 16:-0.25 17:0.23076923076923084 18:-0.25 19:0.5 20:-0.19999999999999996 21:0.4545454545454546 22:-0.33333333333333337 23:0.6363636363636365 24:-0.29032258064516125 25:-0.5555555555555556 26:0.09090909090909083 27:-0.1428571428571429 28:0.4545454545454546 29:-0.09090909090909094 30:0.25 31:0.8181818181818181 32:-0.09090909090909094 33:-0.25 34:0.7777777777777777 35:0.7777777777777777 36:0.33333333333333326 37:-0.25 38:0.3999999999999999 39:-0.25 40:0.6000000000000001 41:0.19999999999999996 42:0.5 43:0.7777777777777777 44:0.19999999999999996 45:0.0 46:0.0 47:-0.33333333333333337 48:0.6000000000000001 49:-0.19999999999999996 50:0.0 51:0.5 52:0.0 53:0.1428571428571428 54:0.19999999999999996 55:-0.19999999999999996 56:1.0 57:-0.19999999999999996 58:-0.19999999999999996 59:-0.33333333333333337 60:0.0 61:-0.6 62:0.33333333333333326 63:0.6000000000000001 64:0.33333333333333326 65:0.6000000000000001 66:-0.5 67:1.0 68:-0.5 69:0.6000000000000001 70:0.0 71:-0.33333333333333337 72:0.19999999999999996 73:-0.19999999999999996 74:0.33333333333333326 75:-0.19999999999999996 76:0.5 77:-0.19999999999999996 78:0.19999999999999996 79:0.5 80:-0.19999999999999996 81:0.33333333333333326 82:-0.5 83:1.0 84:0.0 85:0.19999999999999996 86:0.0 87:0.5 88:0.11111111111111116 89:0.1428571428571428 90:-0.11111111111111116 91:1.0 92:-0.09090909090909094 93:-0.11111111111111116 94:0.11111111111111116 95:0.75 96:0.3999999999999999 97:0.5 98:0.19999999999999996 99:0.5 100:0.0 101:0.6000000000000001 102:-0.05882352941176472 103:0.0 104:-0.2857142857142857 105:0.6666666666666667 106:-0.1428571428571429 107:0.0 108:-0.1578947368421053 109:0.5 110:-0.05882352941176472 111:0.75 112:-0.4285714285714286 113:0.5 114:-0.17647058823529416 115:0.19999999999999996 116:-0.25 117:1.0 118:-0.5 119:0.16666666666666674 120:-0.30434782608695654 121:0.7777777777777777 122:-0.09999999999999998 123:0.4285714285714286 124:-0.2222222222222222 125:0.19999999999999996 126:-0.1578947368421053 127:0.7777777777777777 128:-0.625 129:0.75 130:-0.375 131:0.09090909090909083 132:-0.4117647058823529 
-1.0 1:0.33333333333333326 2:0.0 3:0.19999999999999996 4:-0.33333333333333337 5:-0.25 6:-1.0 7:0.3846153846153846 8:-0.4285714285714286 9:-0.19999999999999996 10:-0.21739130434782605 11:0.2857142857142858 12:-0.9166666666666666 13:-0.17647058823529416 14:-0.5833333333333333 15:0.0 16:-1.0 17:-0.23076923076923073 18:-0.8333333333333334 19:-0.16666666666666663 20:-0.9333333333333333 21:-0.2727272727272727 22:-0.9259259259259259 23:-0.2727272727272727 24:-1.0 25:0.7777777777777777 26:-0.2727272727272727 27:0.7142857142857142 28:0.8181818181818181 29:-0.4545454545454546 30:0.75 31:-0.6363636363636364 32:-0.2727272727272727 33:1.0 34:0.33333333333333326 35:-0.5555555555555556 36:0.11111111111111116 37:1.0 38:-0.19999999999999996 39:0.75 40:0.6000000000000001 41:-0.6 42:0.5 43:-0.5555555555555556 44:-0.19999999999999996 45:0.0 46:-0.33333333333333337 47:1.0 48:0.19999999999999996 49:0.6000000000000001 50:-0.5 51:-0.5 52:0.0 53:-0.4285714285714286 54:0.6000000000000001 55:0.6000000000000001 56:0.6000000000000001 57:0.6000000000000001 58:-0.19999999999999996 59:0.6666666666666667 60:0.0 61:0.19999999999999996 62:-0.33333333333333337 63:-0.6 64:0.0 65:-0.19999999999999996 66:-0.5 67:0.19999999999999996 68:-0.5 69:-0.19999999999999996 70:0.0 71:0.6666666666666667 72:-0.19999999999999996 73:0.6000000000000001 74:-0.33333333333333337 75:0.6000000000000001 76:0.0 77:0.6000000000000001 78:-0.19999999999999996 79:-0.5 80:-0.19999999999999996 81:-0.33333333333333337 82:0.0 83:-0.5 84:0.0 85:-0.6 86:0.0 87:0.25 88:-1.0 89:-1.0 90:-1.0 91:0.75 92:-0.8181818181818181 93:-0.5555555555555556 94:-1.0 95:-0.25 96:-1.0 97:-0.5 98:-1.0 99:-0.25 100:-0.8 101:0.3999999999999999 102:-0.2941176470588235 103:-0.33333333333333337 104:-0.4285714285714286 105:0.5 106:-0.33333333333333337 107:-0.2857142857142857 108:-0.368421052631579 109:-0.25 110:-0.5294117647058824 111:0.25 112:-0.9047619047619048 113:0.25 114:-0.5294117647058824 115:-0.4 116:-0.5 117:0.6000000000000001 118:-0.9 119:-0.33333333333333337 120:-0.6521739130434783 121:0.11111111111111116 122:-0.30000000000000004 123:-0.1428571428571429 124:-0.5555555555555556 125:-0.4 126:-0.26315789473684215 127:0.33333333333333326 128:-0.875 129:0.0 130:-0.875 131:-0.2727272727272727 132:-0.6470588235294117 
-1.0 1:0.0 2:-0.5 3:0.19999999999999996 4:-0.33333333333333337 5:-0.5 6:-0.8181818181818181 7:0.3846153846153846 8:-0.33333333333333337 9:-0.33333333333333337 10:-0.30434782608695654 11:0.2857142857142858 12:-0.8333333333333334 13:-0.05882352941176472 14:-0.6666666666666667 15:0.2857142857142858 16:-1.0 17:-0.07692307692307687 18:-0.8333333333333334 19:-0.33333333333333337 20:-1.0 21:-0.2727272727272727 22:-1.0 23:-0.4545454545454546 24:-0.935483870967742 25:0.7777777777777777 26:-0.4545454545454546 27:0.1428571428571428 28:0.6363636363636365 29:-0.6363636363636364 30:0.5 31:-0.6363636363636364 32:-0.4545454545454546 33:0.75 34:0.33333333333333326 35:-0.7777777777777778 36:-0.11111111111111116 37:0.75 38:-0.19999999999999996 39:0.5 40:0.6000000000000001 41:-0.8 42:0.25 43:-0.5555555555555556 44:-0.4 45:-0.33333333333333337 46:-0.33333333333333337 47:0.6666666666666667 48:-0.19999999999999996 49:0.6000000000000001 50:-0.5 51:-1.0 52:-0.33333333333333337 53:-0.4285714285714286 54:0.19999999999999996 55:0.19999999999999996 56:0.19999999999999996 57:0.19999999999999996 58:-0.6 59:0.33333333333333326 60:-0.5 61:0.19999999999999996 62:-0.33333333333333337 63:-1.0 64:0.0 65:-0.6 66:-0.5 67:0.19999999999999996 68:-1.0 69:-0.19999999999999996 70:0.0 71:0.33333333333333326 72:-0.19999999999999996 73:0.19999999999999996 74:-0.33333333333333337 75:0.6000000000000001 76:0.0 77:0.6000000000000001 78:-0.19999999999999996 79:-1.0 80:-0.19999999999999996 81:-0.33333333333333337 82:0.0 83:-1.0 84:-0.33333333333333337 85:-1.0 86:0.0 87:0.0 88:-1.0 89:-0.7142857142857143 90:-1.0 91:0.5 92:-0.6363636363636364 93:-0.5555555555555556 94:-0.7777777777777778 95:-0.25 96:-0.8 97:-0.5 98:-0.8 99:-0.5 100:-0.6 101:0.3999999999999999 102:-0.5294117647058824 103:-0.5 104:-0.4285714285714286 105:0.5 106:-0.5238095238095238 107:-0.5714285714285714 108:-0.4736842105263158 109:-0.5 110:-0.5294117647058824 111:-0.25 112:-0.7142857142857143 113:0.0 114:-0.5294117647058824 115:-0.6 116:-0.625 117:0.6000000000000001 118:-0.8 119:-0.5 120:-0.5652173913043479 121:0.11111111111111116 122:-0.4 123:-0.7142857142857143 124:-0.5555555555555556 125:-0.6 126:-0.368421052631579 127:0.33333333333333326 128:-1.0 129:-0.25 130:-0.75 131:-0.4545454545454546 132:-0.6470588235294117 
-1.0 1:0.0 2:0.0 3:0.19999999999999996 4:-0.33333333333333337 5:-0.5 6:-0.6363636363636364 7:0.3846153846153846 8:-0.23809523809523814 9:-0.06666666666666665 10:-0.13043478260869568 11:0.2857142857142858 12:-0.6666666666666667 13:-0.17647058823529416 14:-0.33333333333333337 15:0.2857142857142858 16:-0.8333333333333334 17:-0.3846153846153846 18:-0.5833333333333333 19:0.16666666666666674 20:-0.8 21:-0.4545454545454546 22:-0.7777777777777778 23:-0.09090909090909094 24:-0.8064516129032258 25:0.5555555555555556 26:-0.4545454545454546 27:0.4285714285714286 28:0.6363636363636365 29:-0.4545454545454546 30:0.5 31:-0.4545454545454546 32:-0.2727272727272727 33:0.5 34:0.33333333333333326 35:-0.33333333333333337 36:-0.11111111111111116 37:0.5 38:-0.19999999999999996 39:0.5 40:0.6000000000000001 41:-0.4 42:0.25 43:-0.33333333333333337 44:-0.19999999999999996 45:-0.33333333333333337 46:0.33333333333333326 47:0.6666666666666667 48:0.19999999999999996 49:1.0 50:-0.5 51:-0.5 52:0.0 53:-0.1428571428571429 54:0.19999999999999996 55:0.6000000000000001 56:0.6000000000000001 57:0.6000000000000001 58:-0.6 59:0.0 60:0.0 61:0.19999999999999996 62:0.33333333333333326 63:-0.19999999999999996 64:0.33333333333333326 65:-0.19999999999999996 66:-0.5 67:0.6000000000000001 68:-0.5 69:0.19999999999999996 70:0.0 71:0.6666666666666667 72:-0.19999999999999996 73:0.6000000000000001 74:0.33333333333333326 75:0.6000000000000001 76:0.5 77:1.0 78:-0.19999999999999996 79:-0.5 80:-0.19999999999999996 81:0.0 82:0.0 83:-0.5 84:0.0 85:-0.19999999999999996 86:0.0 87:-0.25 88:-0.7777777777777778 89:-0.7142857142857143 90:-0.7777777777777778 91:0.25 92:-0.6363636363636364 93:-0.5555555555555556 94:-0.7777777777777778 95:-0.25 96:-0.6 97:-0.5 98:-0.6 99:-0.25 100:-0.4 101:0.19999999999999996 102:-0.17647058823529416 103:-0.16666666666666663 104:-0.2857142857142857 105:0.6666666666666667 106:-0.1428571428571429 107:-0.2857142857142857 108:-0.052631578947368474 109:-0.25 110:-0.4117647058823529 111:0.0 112:-0.6190476190476191 113:0.0 114:-0.4117647058823529 115:-0.19999999999999996 116:-0.5 117:0.6000000000000001 118:-0.7 119:-0.16666666666666663 120:-0.4782608695652174 121:0.33333333333333326 122:-0.30000000000000004 123:-0.4285714285714286 124:-0.5555555555555556 125:-0.19999999999999996 126:-0.26315789473684215 127:0.33333333333333326 128:-0.75 129:0.0 130:-0.75 131:-0.2727272727272727 132:-0.5294117647058824 
-0.24134037621217674 1:0.33333333333333326 2:0.0 3:0.19999999999999996 4:-0.33333333333333337 5:0.25 6:0.4545454545454546 7:0.8461538461538463 8:1.0 9:-0.33333333333333337 10:0.9130434782608696 11:0.0 12:0.75 13:0.6470588235294117 14:0.75 15:0.1428571428571428 16:0.9166666666666667 17:0.6923076923076923 18:0.8333333333333333 19:0.33333333333333326 20:0.8666666666666667 21:0.6363636363636365 22:0.8518518518518519 23:0.4545454545454546 24:0.7419354838709677 25:-0.5555555555555556 26:-0.4545454545454546 27:1.0 28:-0.09090909090909094 29:-0.8181818181818181 30:-0.25 31:0.8181818181818181 32:-0.09090909090909094 33:0.25 34:-0.5555555555555556 35:0.33333333333333326 36:-0.33333333333333337 37:-0.25 38:-0.4 39:0.75 40:-0.19999999999999996 41:-0.4 42:-0.25 43:0.7777777777777777 44:0.0 45:0.33333333333333326 46:0.33333333333333326 47:-0.33333333333333337 48:-0.19999999999999996 49:1.0 50:1.0 51:-0.5 52:0.6666666666666667 53:0.1428571428571428 54:-0.19999999999999996 55:0.19999999999999996 56:1.0 57:0.6000000000000001 58:-0.19999999999999996 59:0.33333333333333326 60:0.0 61:0.6000000000000001 62:1.0 63:0.19999999999999996 64:0.6666666666666667 65:-0.19999999999999996 66:-0.5 67:0.19999999999999996 68:0.0 69:0.19999999999999996 70:0.0 71:0.33333333333333326 72:-0.19999999999999996 73:0.6000000000000001 74:1.0 75:-0.19999999999999996 76:0.5 77:0.6000000000000001 78:0.6000000000000001 79:-0.5 80:0.19999999999999996 81:0.0 82:-0.5 83:0.0 84:0.6666666666666667 85:0.19999999999999996 86:0.0 87:0.25 88:0.5555555555555556 89:0.4285714285714286 90:0.33333333333333326 91:0.0 92:1.0 93:0.5555555555555556 94:1.0 95:0.25 96:0.8 97:0.5 98:0.6000000000000001 99:0.25 100:0.8 101:0.3999999999999999 102:1.0 103:0.16666666666666674 104:1.0 105:0.5 106:1.0 107:0.0 108:1.0 109:0.25 110:1.0 111:0.25 112:1.0 113:0.5 114:1.0 115:0.0 116:1.0 117:0.6000000000000001 118:1.0 119:0.0 120:1.0 121:0.7777777777777777 122:1.0 123:0.4285714285714286 124:1.0 125:-0.19999999999999996 126:1.0 127:0.7777777777777777 128:0.875 129:0.25 130:1.0 131:-0.2727272727272727 132:1.0 
-1.0 1:0.33333333333333326 2:0.0 3:0.19999999999999996 4:0.33333333333333326 5:0.0 6:0.4545454545454546 7:0.5384615384615385 8:1.0 9:-0.19999999999999996 10:0.9130434782608696 11:0.1428571428571428 12:0.75 13:0.5294117647058822 14:1.0 15:0.2857142857142858 16:0.9166666666666667 17:0.23076923076923084 18:1.0 19:0.5 20:0.8666666666666667 21:0.09090909090909083 22:1.0 23:0.4545454545454546 24:0.7419354838709677 25:-0.33333333333333337 26:-0.6363636363636364 27:1.0 28:-0.2727272727272727 29:-1.0 30:-0.5 31:0.6363636363636365 32:-0.09090909090909094 33:0.0 34:-0.5555555555555556 35:0.33333333333333326 36:-0.33333333333333337 37:-0.25 38:-0.4 39:0.5 40:-0.4 41:-0.4 42:-0.5 43:0.7777777777777777 44:0.0 45:0.0 46:0.0 47:0.0 48:-0.19999999999999996 49:0.19999999999999996 50:0.5 51:0.0 52:0.6666666666666667 53:0.1428571428571428 54:0.19999999999999996 55:-0.19999999999999996 56:1.0 57:0.6000000000000001 58:-0.6 59:0.33333333333333326 60:-0.5 61:0.6000000000000001 62:1.0 63:0.19999999999999996 64:0.6666666666666667 65:-0.19999999999999996 66:-0.5 67:-0.19999999999999996 68:0.0 69:0.19999999999999996 70:0.0 71:0.33333333333333326 72:-0.6 73:0.6000000000000001 74:0.33333333333333326 75:-0.19999999999999996 76:0.5 77:0.19999999999999996 78:1.0 79:-0.5 80:0.19999999999999996 81:0.0 82:-0.5 83:0.5 84:0.6666666666666667 85:0.19999999999999996 86:0.33333333333333326 87:0.0 88:0.11111111111111116 89:-0.1428571428571429 90:0.33333333333333326 91:-0.25 92:0.8181818181818181 93:0.5555555555555556 94:0.7777777777777777 95:0.0 96:0.8 97:0.25 98:0.6000000000000001 99:0.0 100:0.8 101:0.19999999999999996 102:0.7647058823529411 103:0.0 104:0.8571428571428572 105:0.16666666666666674 106:0.8095238095238095 107:-0.1428571428571429 108:0.894736842105263 109:0.0 110:1.0 111:0.0 112:0.9047619047619047 113:0.25 114:1.0 115:-0.19999999999999996 116:1.0 117:0.6000000000000001 118:0.8999999999999999 119:0.0 120:0.826086956521739 121:0.5555555555555556 122:1.0 123:-0.1428571428571429 124:0.8888888888888888 125:-0.19999999999999996 126:1.0 127:0.5555555555555556 128:1.0 129:0.0 130:1.0 131:-0.4545454545454546 132:0.8823529411764706 
-1.0 1:-0.33333333333333337 2:0.0 3:0.19999999999999996 4:-0.33333333333333337 5:-0.25 6:-0.2727272727272727 7:1.0 8:0.1428571428571428 9:-0.33333333333333337 10:0.04347826086956519 11:0.2857142857142858 12:-0.33333333333333337 13:-0.2941176470588235 14:-0.5 15:0.5714285714285714 16:-0.33333333333333337 17:-0.3846153846153846 18:-0.5 19:0.6666666666666667 20:-0.4 21:-0.09090909090909094 22:-0.6296296296296297 23:0.2727272727272727 24:-0.6129032258064516 25:0.11111111111111116 26:-0.6363636363636364 27:-0.7142857142857143 28:-0.4545454545454546 29:-0.6363636363636364 30:-0.5 31:-0.4545454545454546 32:-0.8181818181818181 33:0.0 34:0.11111111111111116 35:-0.5555555555555556 36:-0.33333333333333337 37:0.25 38:-0.19999999999999996 39:-0.25 40:0.0 41:-0.4 42:-0.25 43:-0.5555555555555556 44:-0.4 45:-0.33333333333333337 46:0.0 47:-0.6666666666666667 48:-0.19999999999999996 49:-0.19999999999999996 50:-0.5 51:0.0 52:-0.33333333333333337 53:0.1428571428571428 54:-0.6 55:-0.6 56:0.6000000000000001 57:-0.19999999999999996 58:-0.6 59:-0.6666666666666667 60:-0.5 61:-0.19999999999999996 62:0.33333333333333326 63:0.6000000000000001 64:0.0 65:0.6000000000000001 66:-0.5 67:0.19999999999999996 68:-0.5 69:0.19999999999999996 70:-0.5 71:-0.33333333333333337 72:-0.19999999999999996 73:-0.19999999999999996 74:-0.33333333333333337 75:-0.6 76:0.0 77:-0.19999999999999996 78:0.19999999999999996 79:0.5 80:-0.6 81:0.33333333333333326 82:-0.5 83:0.5 84:0.0 85:0.19999999999999996 86:-0.33333333333333337 87:0.0 88:-0.33333333333333337 89:-0.1428571428571429 90:-0.33333333333333337 91:-0.25 92:-0.09090909090909094 93:0.11111111111111116 94:-0.33333333333333337 95:0.25 96:0.0 97:0.25 98:0.0 99:0.25 100:-0.19999999999999996 101:0.3999999999999999 102:0.05882352941176472 103:0.0 104:-0.4285714285714286 105:0.8333333333333333 106:0.04761904761904767 107:-0.2857142857142857 108:-0.1578947368421053 109:0.0 110:-0.4117647058823529 111:0.25 112:-0.5238095238095238 113:0.75 114:-0.2941176470588235 115:-0.19999999999999996 116:-0.5 117:1.0 118:-0.4 119:-0.16666666666666663 120:-0.30434782608695654 121:1.0 122:-0.19999999999999996 123:0.1428571428571428 124:-0.33333333333333337 125:-0.19999999999999996 126:-0.26315789473684215 127:1.0 128:-0.75 129:0.25 130:-0.75 131:-0.2727272727272727 132:-0.6470588235294117 
-1.0 1:-0.6666666666666667 2:0.0 3:0.19999999999999996 4:-1.0 5:-0.25 6:-0.4545454545454546 7:0.8461538461538463 8:-0.1428571428571429 9:-0.4666666666666667 10:-0.21739130434782605 11:-0.2857142857142857 12:-0.75 13:0.05882352941176472 14:-0.6666666666666667 15:-0.1428571428571429 16:-0.6666666666666667 17:0.07692307692307687 18:-0.75 19:0.16666666666666674 20:-0.6 21:0.2727272727272727 22:-0.7037037037037037 23:0.09090909090909083 24:-0.6774193548387097 25:0.11111111111111116 26:-0.6363636363636364 27:-0.1428571428571429 28:-0.2727272727272727 29:-0.6363636363636364 30:-0.5 31:-0.4545454545454546 32:-0.8181818181818181 33:0.0 34:-0.11111111111111116 35:-0.5555555555555556 36:-0.5555555555555556 37:0.25 38:-0.4 39:0.0 40:0.0 41:-0.6 42:-0.5 43:-0.33333333333333337 44:-0.4 45:-0.33333333333333337 46:-0.33333333333333337 47:-0.6666666666666667 48:-0.6 49:-0.6 50:-1.0 51:0.5 52:-0.6666666666666667 53:0.1428571428571428 54:-0.6 55:-0.6 56:0.6000000000000001 57:-0.6 58:-0.6 59:-0.33333333333333337 60:-0.5 61:-0.6 62:0.33333333333333326 63:0.19999999999999996 64:0.0 65:0.6000000000000001 66:-1.0 67:0.19999999999999996 68:-1.0 69:0.19999999999999996 70:-0.5 71:-0.33333333333333337 72:-0.19999999999999996 73:-0.6 74:-1.0 75:-1.0 76:0.0 77:-0.6 78:-0.19999999999999996 79:0.5 80:-1.0 81:0.33333333333333326 82:-0.5 83:0.5 84:0.0 85:0.19999999999999996 86:-0.33333333333333337 87:0.25 88:-0.5555555555555556 89:-0.4285714285714286 90:-0.5555555555555556 91:0.0 92:0.09090909090909083 93:0.11111111111111116 94:-0.5555555555555556 95:0.25 96:0.0 97:0.0 98:0.0 99:0.0 100:-0.4 101:0.6000000000000001 102:-0.17647058823529416 103:0.0 104:-0.5714285714285714 105:0.6666666666666667 106:-0.33333333333333337 107:-0.1428571428571429 108:-0.368421052631579 109:0.0 110:-0.4117647058823529 111:0.25 112:-0.6190476190476191 113:0.5 114:-0.2941176470588235 115:-0.4 116:-0.5 117:0.8 118:-0.6 119:-0.33333333333333337 120:-0.5652173913043479 121:0.5555555555555556 122:-0.19999999999999996 123:-0.1428571428571429 124:-0.5555555555555556 125:-0.4 126:-0.368421052631579 127:0.7777777777777777 128:-0.75 129:0.0 130:-0.75 131:-0.4545454545454546 132:-0.6470588235294117 
-0.049864681071097774 1:-0.33333333333333337 2:-0.5 3:0.6000000000000001 4:0.33333333333333326 5:0.25 6:-0.4545454545454546 7:1.0 8:0.33333333333333326 9:-0.7333333333333334 10:0.3913043478260869 11:-0.7142857142857143 12:-0.16666666666666663 13:-0.5294117647058824 14:0.25 15:-0.5714285714285714 16:-0.33333333333333337 17:-0.6923076923076923 18:0.0 19:-0.6666666666666667 20:-0.33333333333333337 21:-0.6363636363636364 22:-0.03703703703703709 23:-0.6363636363636364 24:-0.16129032258064513 25:0.33333333333333326 26:-0.6363636363636364 27:0.1428571428571428 28:-0.6363636363636364 29:0.09090909090909083 30:-0.25 31:-0.4545454545454546 32:0.2727272727272727 33:0.25 34:-0.7777777777777778 35:0.11111111111111116 36:-0.11111111111111116 37:0.25 38:-0.6 39:0.25 40:-0.6 41:0.19999999999999996 42:0.0 43:-0.33333333333333337 44:0.19999999999999996 45:0.6666666666666667 46:0.33333333333333326 47:0.33333333333333326 48:-0.6 49:-0.19999999999999996 50:-1.0 51:0.5 52:0.0 53:0.1428571428571428 54:1.0 55:-0.19999999999999996 56:0.19999999999999996 57:-0.19999999999999996 58:-1.0 59:-0.33333333333333337 60:-0.5 61:-0.19999999999999996 62:-0.33333333333333337 63:0.19999999999999996 64:0.33333333333333326 65:0.6000000000000001 66:0.0 67:0.6000000000000001 68:0.0 69:0.6000000000000001 70:0.5 71:0.33333333333333326 72:-0.6 73:-0.19999999999999996 74:-1.0 75:0.19999999999999996 76:-0.5 77:-0.19999999999999996 78:-0.19999999999999996 79:0.5 80:0.19999999999999996 81:0.33333333333333326 82:0.5 83:0.5 84:0.33333333333333326 85:0.19999999999999996 86:0.33333333333333326 87:0.75 88:-0.33333333333333337 89:0.1428571428571428 90:-0.33333333333333337 91:0.0 92:0.2727272727272727 93:0.5555555555555556 94:0.5555555555555556 95:0.75 96:0.0 97:0.25 98:0.0 99:0.25 100:-0.19999999999999996 101:0.0 102:0.2941176470588236 103:0.0 104:0.5714285714285714 105:0.33333333333333326 106:0.33333333333333326 107:-0.2857142857142857 108:0.5789473684210527 109:0.25 110:0.05882352941176472 111:0.0 112:-0.5238095238095238 113:0.75 114:0.17647058823529416 115:-0.4 116:0.125 117:1.0 118:-0.6 119:-0.5 120:-0.21739130434782605 121:1.0 122:0.10000000000000009 123:0.1428571428571428 124:-0.2222222222222222 125:-0.4 126:0.1578947368421053 127:0.7777777777777777 128:-0.375 129:0.25 130:-0.375 131:-0.4545454545454546 132:-0.17647058823529416 
-1.0 1:-0.33333333333333337 2:-0.5 3:0.19999999999999996 4:-0.33333333333333337 5:0.5 6:-0.8181818181818181 7:0.8461538461538463 8:0.1428571428571428 9:-0.4666666666666667 10:0.21739130434782616 11:-0.4285714285714286 12:-0.16666666666666663 13:-0.5294117647058824 14:0.25 15:-0.2857142857142857 16:-0.25 17:-0.5384615384615384 18:0.0 19:-0.16666666666666663 20:-0.33333333333333337 21:-0.6363636363636364 22:-0.2592592592592593 23:-0.2727272727272727 24:-0.4193548387096774 25:0.11111111111111116 26:-0.4545454545454546 27:0.4285714285714286 28:-0.6363636363636364 29:0.2727272727272727 30:-0.5 31:-0.4545454545454546 32:0.2727272727272727 33:0.0 34:-0.5555555555555556 35:0.5555555555555556 36:-0.11111111111111116 37:0.0 38:-0.4 39:0.0 40:-0.6 41:0.6000000000000001 42:-0.5 43:0.11111111111111116 44:0.19999999999999996 45:0.33333333333333326 46:-0.6666666666666667 47:0.0 48:-0.6 49:0.19999999999999996 50:-1.0 51:0.5 52:-0.33333333333333337 53:-0.4285714285714286 54:0.19999999999999996 55:0.19999999999999996 56:0.19999999999999996 57:-0.19999999999999996 58:-0.6 59:-0.33333333333333337 60:-1.0 61:-0.19999999999999996 62:-1.0 63:-0.19999999999999996 64:0.0 65:0.19999999999999996 66:-0.5 67:0.6000000000000001 68:-0.5 69:0.19999999999999996 70:0.0 71:0.0 72:-0.6 73:-0.19999999999999996 74:-0.33333333333333337 75:-0.19999999999999996 76:-0.5 77:0.19999999999999996 78:-0.6 79:0.5 80:-0.19999999999999996 81:-0.33333333333333337 82:0.0 83:0.0 84:0.0 85:-0.19999999999999996 86:-0.33333333333333337 87:0.25 88:-0.7777777777777778 89:0.4285714285714286 90:-0.7777777777777778 91:0.25 92:0.09090909090909083 93:0.5555555555555556 94:-0.11111111111111116 95:1.0 96:-0.19999999999999996 97:0.25 98:-0.4 99:0.5 100:-0.4 101:0.3999999999999999 102:0.17647058823529416 103:0.0 104:0.1428571428571428 105:0.8333333333333333 106:0.1428571428571428 107:-0.4285714285714286 108:0.1578947368421053 109:0.75 110:-0.17647058823529416 111:0.5 112:-0.6190476190476191 113:0.75 114:-0.05882352941176472 115:0.0 116:-0.25 117:1.0 118:-0.6 119:-0.33333333333333337 120:-0.3913043478260869 121:1.0 122:-0.09999999999999998 123:0.4285714285714286 124:-0.33333333333333337 125:0.0 126:-0.1578947368421053 127:1.0 128:-0.5 129:0.5 130:-0.625 131:-0.2727272727272727 132:-0.4117647058823529 
-1.0 1:-0.33333333333333337 2:-1.0 3:0.19999999999999996 4:0.33333333333333326 5:0.75 6:-0.4545454545454546 7:0.8461538461538463 8:0.23809523809523814 9:-0.6 10:0.30434782608695654 11:-0.7142857142857143 12:0.08333333333333326 13:-0.7647058823529411 14:0.33333333333333326 15:-0.1428571428571429 16:-0.08333333333333337 17:-1.0 18:0.08333333333333326 19:-0.16666666666666663 20:-0.2666666666666667 21:-0.8181818181818181 22:-0.18518518518518523 23:-0.2727272727272727 24:-0.4193548387096774 25:0.11111111111111116 26:-0.6363636363636364 27:0.1428571428571428 28:-1.0 29:1.0 30:-0.5 31:-0.4545454545454546 32:0.2727272727272727 33:-0.25 34:-1.0 35:0.7777777777777777 36:-0.11111111111111116 37:-0.25 38:-0.8 39:-0.25 40:-1.0 41:1.0 42:-0.25 43:0.11111111111111116 44:0.19999999999999996 45:0.6666666666666667 46:-0.33333333333333337 47:0.0 48:-1.0 49:0.19999999999999996 50:-1.0 51:1.0 52:0.0 53:-0.1428571428571429 54:1.0 55:-0.19999999999999996 56:0.19999999999999996 57:-0.19999999999999996 58:-1.0 59:-0.33333333333333337 60:-1.0 61:-0.19999999999999996 62:-1.0 63:0.19999999999999996 64:0.33333333333333326 65:0.6000000000000001 66:0.0 67:0.6000000000000001 68:0.0 69:0.6000000000000001 70:1.0 71:0.0 72:-1.0 73:-0.19999999999999996 74:-1.0 75:-0.19999999999999996 76:-0.5 77:0.19999999999999996 78:-0.6 79:0.5 80:-0.19999999999999996 81:0.33333333333333326 82:0.5 83:0.5 84:0.33333333333333326 85:-0.19999999999999996 86:0.33333333333333326 87:0.5 88:-0.5555555555555556 89:0.4285714285714286 90:-0.33333333333333337 91:0.25 92:0.2727272727272727 93:0.7777777777777777 94:0.11111111111111116 95:1.0 96:-0.19999999999999996 97:0.5 98:0.0 99:0.75 100:-0.19999999999999996 101:0.19999999999999996 102:0.17647058823529416 103:0.16666666666666674 104:0.2857142857142858 105:0.5 106:0.23809523809523814 107:-0.4285714285714286 108:0.368421052631579 109:0.5 110:-0.17647058823529416 111:0.5 112:-0.5238095238095238 113:0.75 114:0.05882352941176472 115:-0.19999999999999996 116:0.0 117:1.0 118:-0.5 119:-0.33333333333333337 120:-0.30434782608695654 121:0.7777777777777777 122:0.0 123:0.4285714285714286 124:-0.33333333333333337 125:-0.19999999999999996 126:0.05263157894736836 127:0.7777777777777777 128:-0.375 129:0.5 130:-0.375 131:-0.2727272727272727 132:-0.17647058823529416 
-0.6953423663102847 1:0.0 2:0.0 3:1.0 4:-0.33333333333333337 5:0.5 6:0.2727272727272727 7:0.6923076923076923 8:0.4285714285714286 9:0.06666666666666665 10:0.3913043478260869 11:0.8571428571428572 12:0.25 13:-0.4117647058823529 14:0.33333333333333326 15:0.5714285714285714 16:0.33333333333333326 17:-0.6923076923076923 18:0.33333333333333326 19:0.16666666666666674 20:0.2666666666666666 21:-0.4545454545454546 22:0.33333333333333326 23:-0.2727272727272727 24:0.16129032258064524 25:-0.7777777777777778 26:-1.0 27:-0.4285714285714286 28:-0.6363636363636364 29:0.2727272727272727 30:-1.0 31:0.6363636363636365 32:-1.0 33:-1.0 34:-1.0 35:0.7777777777777777 36:-1.0 37:-1.0 38:-1.0 39:-0.5 40:-0.8 41:0.6000000000000001 42:-1.0 43:0.7777777777777777 44:-1.0 45:0.33333333333333326 46:0.0 47:-0.33333333333333337 48:-0.19999999999999996 49:0.19999999999999996 50:-0.5 51:0.5 52:0.0 53:1.0 54:0.19999999999999996 55:-0.19999999999999996 56:0.19999999999999996 57:-0.19999999999999996 58:-0.6 59:0.0 60:-0.5 61:-0.19999999999999996 62:0.33333333333333326 63:1.0 64:0.33333333333333326 65:1.0 66:-0.5 67:1.0 68:-0.5 69:1.0 70:0.0 71:0.0 72:-0.19999999999999996 73:-0.19999999999999996 74:-0.33333333333333337 75:-0.6 76:0.5 77:0.19999999999999996 78:-0.19999999999999996 79:1.0 80:-0.19999999999999996 81:1.0 82:0.0 83:1.0 84:0.0 85:1.0 86:0.0 87:0.5 88:0.11111111111111116 89:0.1428571428571428 90:0.11111111111111116 91:0.25 92:0.2727272727272727 93:0.5555555555555556 94:0.33333333333333326 95:0.5 96:0.8 97:0.25 98:0.6000000000000001 99:0.25 100:0.6000000000000001 101:0.19999999999999996 102:0.2941176470588236 103:0.5 104:0.4285714285714286 105:0.5 106:0.33333333333333326 107:0.4285714285714286 108:0.4736842105263157 109:0.5 110:0.05882352941176472 111:0.25 112:-0.04761904761904767 113:0.5 114:0.17647058823529416 115:0.19999999999999996 116:0.25 117:0.8 118:-0.09999999999999998 119:0.16666666666666674 120:0.13043478260869557 121:0.7777777777777777 122:0.19999999999999996 123:0.4285714285714286 124:0.22222222222222232 125:0.19999999999999996 126:0.26315789473684204 127:0.7777777777777777 128:0.0 129:0.5 130:0.0 131:-0.09090909090909094 132:0.17647058823529416 
-0.6335709751970006 1:0.0 2:-0.5 3:0.19999999999999996 4:-0.33333333333333337 5:0.25 6:-0.2727272727272727 7:0.8461538461538463 8:0.04761904761904767 9:-0.33333333333333337 10:0.13043478260869557 11:1.0 12:-0.16666666666666663 13:-0.6470588235294117 14:0.0 15:0.7142857142857142 16:-0.41666666666666663 17:-0.8461538461538461 18:-0.41666666666666663 19:0.5 20:-0.6 21:-0.4545454545454546 22:-0.6296296296296297 23:0.09090909090909083 24:-0.7419354838709677 25:-0.11111111111111116 26:-0.8181818181818181 27:0.1428571428571428 28:-0.2727272727272727 29:-0.09090909090909094 30:-0.75 31:0.09090909090909083 32:-0.4545454545454546 33:-0.25 34:-0.7777777777777778 35:0.33333333333333326 36:-0.7777777777777778 37:-0.25 38:-0.8 39:0.0 40:-0.6 41:0.0 42:-0.75 43:0.33333333333333326 44:-0.6 45:0.0 46:0.33333333333333326 47:0.0 48:-0.19999999999999996 49:0.19999999999999996 50:-1.0 51:-0.5 52:-0.33333333333333337 53:0.1428571428571428 54:0.19999999999999996 55:0.19999999999999996 56:0.19999999999999996 57:0.19999999999999996 58:-0.19999999999999996 59:0.33333333333333326 60:-0.5 61:0.19999999999999996 62:-0.33333333333333337 63:-0.19999999999999996 64:0.0 65:0.19999999999999996 66:-0.5 67:0.19999999999999996 68:-0.5 69:-0.19999999999999996 70:0.0 71:0.33333333333333326 72:-0.19999999999999996 73:-0.19999999999999996 74:-0.33333333333333337 75:-0.19999999999999996 76:0.0 77:0.19999999999999996 78:-0.19999999999999996 79:0.0 80:-0.19999999999999996 81:0.0 82:0.0 83:0.0 84:0.0 85:0.19999999999999996 86:0.0 87:0.25 88:-0.5555555555555556 89:-0.1428571428571429 90:-0.5555555555555556 91:0.5 92:-0.09090909090909094 93:0.11111111111111116 94:-0.33333333333333337 95:0.5 96:0.19999999999999996 97:0.0 98:0.0 99:0.25 100:0.0 101:0.6000000000000001 102:-0.05882352941176472 103:-0.16666666666666663 104:0.0 105:0.5 106:-0.04761904761904767 107:-0.4285714285714286 108:0.05263157894736836 109:0.25 110:-0.17647058823529416 111:0.5 112:-0.4285714285714286 113:0.75 114:-0.05882352941176472 115:-0.19999999999999996 116:-0.125 117:1.0 118:-0.5 119:-0.33333333333333337 120:-0.30434782608695654 121:0.7777777777777777 122:-0.09999999999999998 123:0.1428571428571428 124:-0.2222222222222222 125:-0.19999999999999996 126:-0.052631578947368474 127:0.7777777777777777 128:-0.5 129:0.5 130:-0.375 131:-0.2727272727272727 132:-0.2941176470588235 
