svm_type c_svc
kernel_type rbf
gamma 0.3333333333333333
nr_class 2
total_sv 33
rho -0.4990478042090712
label 1 -1
nr_sv 20 13
SV
0.3080866287300089 1:11.995970562810836 2:7.042308371904073 3:8.294505873845338 
0.16903189044584402 1:11.0 2:8.06225774829855 3:9.055385138137417 
0.39134289135435796 1:8.046005669728649 2:9.251615722644038 3:9.039104819986354 
0.49644425030107286 1:13.077414710492441 2:5.004079968039141 3:5.130938570305134 
1.0 1:1.000730193598576 2:9.088719438801789 3:10.03023187655417 
0.4979914629859379 1:13.997839940474355 2:10.174640612994487 3:10.218219781860334 
0.38342910118264584 1:10.000000000000007 2:9.072249070330294 3:11.147036767548322 
0.42812685591787625 1:9.013134624922165 2:11.277283435205463 3:11.114858141763087 
0.12216689671052908 1:11.062267733077437 2:7.039624921049278 3:9.182206663040628 
1.0 1:1.0 2:11.061974200917872 3:11.147591100894896 
1.0 1:1.0007713074806495 2:12.229290885229428 3:12.297244497131146 
1.0 1:1.9995306563843558 2:11.159676640434707 3:12.393134699793654 
0.15160378263284233 1:9.0 2:8.046521218688705 3:8.078026009780134 
0.3328086598289104 1:0.0 2:7.032146049686849 3:9.025767312884879 
1.0 1:0.0 2:10.177472436088577 3:10.053583385707507 
1.0 1:1.4354628637544014 2:10.008646780690327 3:9.169586407188316 
1.0 1:1.0007377103267159 2:9.11573869328551 3:9.026352888153749 
0.47814795365241647 1:1.001229833571235 2:7.008608834998598 3:6.051577743293937 
0.2829106891127501 1:10.014988872894131 2:6.13307612777602 3:7.0104922110259 
0.23939263276110506 1:8.99037065351231 2:6.992510508287355 3:6.992510508287355 
-1.0 1:3.0 2:9.038263310347649 3:9.072540193914756 
-0.3085802553630156 1:2.221475856482763 2:10.230248093799313 3:11.14812728018804 
-0.6692033111350292 1:0.0 2:10.299163849425101 3:12.017936071637957 
-1.0 1:0.0 2:12.078447287995626 3:12.023125864580956 
-1.0 1:0.0 2:10.022125102467623 3:10.120047082408133 
-1.0 1:1.4368204915715812 2:10.028475083481037 3:10.090605160246833 
-0.8835857643746434 1:1.4342589603806253 2:11.081418659457501 3:12.119772641798562 
-1.0 1:1.402380638873751 2:11.147036767548322 3:12.418763462067613 
-1.0 1:2.0 2:12.36931687685298 3:12.36931687685298 
-0.6206373012052457 1:0.9999683528082094 2:11.029931277663191 3:10.06456301443354 
-1.0 1:0.0 2:10.00917852419015 3:10.02883812428183 
-0.799477063538363 1:2.00559586166618 2:11.138054515928813 3:10.015750433591219 
-1.0 1:1.393280476675471 2:9.093635954668136 3:10.028838124281828 
