svm_type c_svc
kernel_type rbf
gamma 0.007575757575757576
nr_class 2
total_sv 40
rho -0.007628918474263243
label 1 -1
nr_sv 19 21
SV
0.01287585904502093 1:-0.1351980922571161 2:0.16458053839868048 3:0.32028933605506693 4:0.16457313399736906 5:-0.6 6:-0.24996589205031183 7:-0.9236700455866274 8:-0.4852303620767454 9:0.26745188270923115 10:-0.27792980340613205 11:-0.036242058737804395 12:-0.47035555197008405 13:0.3389387730358975 14:-0.5780008329444386 15:0.008053180446744745 16:-0.45785492403211403 17:0.25478781553883123 18:-0.518096918218904 19:0.10257612723728893 20:-0.39860410900896537 21:0.3357099952663043 22:-0.3514590407600582 23:-0.06494241682112312 24:-0.3803480017682298 25:-0.24080166517275725 26:0.2085250272201815 27:-0.7136997760304887 28:-0.0765527860847014 29:0.4596669634448718 30:-0.3069931177741243 31:-0.0012887536106779285 32:0.4633311989349327 33:-0.44835120867381995 34:0.12058806368956887 35:0.742091058555173 36:0.17780669312387087 37:-0.434843348349206 38:0.07413009904995294 39:-0.7134223661101606 40:-0.18241436917883636 41:0.5614618088672128 42:-0.16791750831069485 43:0.55405459364567 44:0.35518576343544384 45:0.0 46:0.0 47:0.13716757348578046 48:-0.046432299938428456 49:-0.6187303902126053 50:0.49988521578826006 51:0.0238526846691014 52:0.4990176968607283 53:0.016653477840856468 54:0.18750977952406234 55:-0.32460822576759085 56:-0.3595952063154755 57:-0.38719265063496366 58:0.07091773173206173 59:-0.1409965874020218 60:-0.03538689788500349 61:0.005488149477762105 62:0.27177302546438886 63:-0.16645411319122738 64:0.10013459543762604 65:0.1765791219352013 66:0.0035337668332962036 67:0.3153462388842143 68:0.323826164570274 69:-0.013255946069076985 70:0.1633479682558936 71:-0.3515009689847428 72:0.2879228530706821 73:-0.3555736371033359 74:0.18050659635970878 75:-0.016366871027577834 76:-0.3157504120754342 77:-0.6035167022366017 78:-0.07332435598001907 79:-0.18159037810271972 80:0.1621096856618185 81:0.17307144982005385 82:0.2483723619109992 83:0.4669628572665252 84:0.16225639594184393 85:0.1820316004755682 86:0.0019994938020073683 87:-0.04752471577063677 88:-0.08733946274597049 89:-0.12508462283839772 90:-0.48944630693166424 91:-0.26746503697204294 92:-0.3743865381882613 93:0.330875865761725 94:-0.5845774856235171 95:-0.20972966986633523 96:-0.2262121772223341 97:0.03553929917593579 98:-0.25966876065782984 99:-0.6197199023845756 100:-0.20207284741608467 101:-0.508115240669561 102:-0.45573972083259917 103:0.5479721770066506 104:-0.5355293249836295 105:-0.618000257233161 106:-0.5532866537083583 107:0.4126549062467342 108:-0.5471337361695339 109:0.14026153487026738 110:-0.6450764754549978 111:0.09014349841615399 112:0.19725280131600242 113:-0.5272591994580805 114:-0.5481443979349172 115:0.4204658965644896 116:-0.5048526996572387 117:-0.7825675993294013 118:-0.11416515052001075 119:0.43975723991755933 120:-0.13700705441482308 121:-0.7852948726928628 122:-0.4425907324430871 123:0.21333858533641714 124:-0.6641374162008993 125:0.277574112481896 126:-0.47935862382787464 127:-0.8224875619522867 128:-0.0948785915335092 129:0.12335755759885725 130:0.2531602717515735 131:0.29032116422401577 132:0.06352043887685621 
1.0 1:0.152662904041454 2:-1.0 3:0.3216735281265175 4:-1.0 5:-0.6 6:-0.7470468965834199 7:-0.9243337953240469 8:-0.43804969854652853 9:0.17014606581202307 10:-0.23472167257532284 11:0.1502536669254022 12:-0.3146781782977168 13:0.15147642433970532 14:-0.3006389500204515 15:0.09878114377395031 16:-0.40442586844360706 17:0.056206989427562526 18:-0.4858980974785383 19:0.10227269646527226 20:-0.44477206355873977 21:7.167299966848173E-4 22:-0.37977209579801874 23:0.050167800573797994 24:-0.38261874157521913 25:0.17135399710954768 26:-0.2899409214222489 27:-0.714390551892268 28:-0.9860898410964738 29:0.8773030449698509 30:-1.0 31:0.16659280498846818 32:-0.41437851994321573 33:-0.2081269733853337 34:-0.7568516073013364 35:0.982087146714995 36:-0.9163142406995505 37:0.041991838958167715 38:-0.5305853191772789 39:-0.7144583621709328 40:-1.0 41:1.0 42:-1.0 43:0.7777187488387562 44:-0.4638666313133649 45:0.0 46:0.0 47:0.1354704002246554 48:-0.7652997750223491 49:-0.30131343141441036 50:-0.3527496696105392 51:0.5107010164092092 52:-0.6481426642756067 53:0.6834427140970238 54:-0.6299923185732652 55:-0.011323989478808527 56:-1.0 57:0.2729170964545804 58:-0.5967741077113495 59:0.14197989691468682 60:-0.7611728073214384 61:0.33514214566815137 62:-0.900884081906662 63:0.22344197021804613 64:-1.0 65:0.5864803076381209 66:-0.7125947821769101 67:0.31644341592290615 68:-0.8134434808181843 69:-0.011662440433204968 70:-0.9836645953419199 71:0.3225243882972413 72:-0.723188079078181 73:-0.024622348779465897 74:-0.6372821060124207 75:-0.0180301601776387 76:-0.9918525818423612 77:-0.29107095815656137 78:-1.0 79:0.6037729808878427 80:-0.6799164758207964 81:0.5668270394093711 82:-0.5073487200203162 83:0.46852865415080514 84:-0.8455598776069984 85:0.5631605833716649 86:-1.0 87:-0.3810549204126874 88:-0.308988870790719 89:0.6875412128834917 90:-0.5489907868329731 91:-0.2681628556212716 92:-0.3067846756221798 93:0.013204922369990602 94:-0.9124194667558178 95:0.16893651755613348 96:-0.18600309737559595 97:-0.41399809047141023 98:-0.2978385809657771 99:-0.6197924396070703 100:-0.39913352864642726 101:-0.5090735172680328 102:-0.2675820626335824 103:0.5487369342905961 104:-0.4697256732617605 105:-0.6188471182548936 106:-0.39001331929898675 107:0.28238664051447615 108:-0.4103655456426859 109:-0.27023261768302886 110:-0.5185321311892288 111:-0.15361529626075 112:-0.0025764859524751715 113:-0.833449986079469 114:-0.5169039961803019 115:0.05568868295334983 116:-0.5333215816912233 117:-1.0 118:-0.386475493779036 119:0.18489639755667553 120:-0.2573407668918919 121:-0.7858432608801216 122:-0.3211889972499853 123:-0.411255873251299 124:-0.5515032365390227 125:-0.04039350029597277 126:-0.4049897548441893 127:-0.8230080015332282 128:-0.4259302223098115 129:-0.15175041569065872 130:0.004213695668764839 131:0.14771975424516404 132:-0.23272503619432972 
1.0 1:0.45066548688455854 2:-0.1675068094964446 3:-1.0 4:-0.16749938391539398 5:-0.19999999999999996 6:0.49901365706827305 7:-0.2345739830305984 8:-0.20464805595205426 9:-0.18935992281588176 10:-0.020904110073524218 11:-0.2107110571575872 12:-0.38185546994722597 13:0.5346715797452204 14:-0.2250610811146313 15:-0.2039102770151705 16:-0.19789331653914566 17:0.5211546629865258 18:-0.24739308570119445 19:-0.1720799753960347 20:-0.2515596038047424 21:0.14840369195651704 22:-0.2736637141900369 23:-0.04939116107888886 24:-0.23917106767075036 25:0.4522587243831979 26:-0.10897188490618737 27:0.5368378983701383 28:0.4009265160353568 29:-0.7013036715730573 30:0.17063678578998975 31:-0.2760360783578427 32:-0.07469911862960388 33:0.6476983546469086 34:0.31811176831233046 35:-0.5482501058456389 36:-0.059081606208582715 37:0.6380575337497494 38:0.07291166852587216 39:0.5600672303230669 40:0.5340744596091413 41:-0.8519543966703953 42:0.015302770238335262 43:-0.22064697361461993 44:-0.07700470925342406 45:0.0 46:0.0 47:0.6909684572938035 48:-0.0463162604298184 49:0.30143058741009754 50:5.009260820973971E-4 51:-1.0 52:-7.775386037622845E-5 53:-0.6390985834899663 54:-0.703059205172375 55:0.5852881351769539 56:-0.3589611761680739 57:0.6496637139706589 58:-0.1957792702965906 59:0.42770724965280804 60:-0.03538689788500349 61:0.3272702362643769 62:-0.17795913120696494 63:-0.984878286392584 64:-0.3349843501200468 65:-0.573627974014657 66:-0.5681068370225202 67:-1.0 68:-0.14791894488743684 69:-0.9926577633066709 70:-0.47572961693047056 71:0.6986518109696171 72:-0.31134259992096003 73:0.6583027290919885 74:-0.1315090756460504 75:0.5927191237647482 76:-0.3152060347642931 77:0.30308797511540386 78:-0.4305765562458904 79:-0.9339016842544192 80:-0.5418710669233584 81:-0.557401707593524 82:-0.61110976525986 83:-0.9818436019181458 84:-0.2553326766062415 85:-0.5967469960641747 86:-0.7569776618256554 87:0.3393636967161262 88:0.7789695908520262 89:-0.048281688150348834 90:0.6310680321889066 91:0.213787343578977 92:0.21743242846509636 93:-0.3233074917378971 94:0.16889705342455774 95:0.1284540277254742 96:0.5131868253638889 97:-0.4631998380069592 98:0.5202194075581963 99:-0.22576926856143298 100:0.6027475163053824 101:0.1472553019406706 102:0.05086711423978696 103:-0.052460633166955706 104:0.13586406499974224 105:0.12613820569869572 106:-0.048241651663969876 107:-0.31280576644730607 108:0.050888430855888345 109:-0.07053275968412787 110:-0.3894000624337476 111:-0.16020337179255817 112:-0.3994986724951525 113:-0.08134479311954257 114:-0.3074896009204643 115:-0.2259397596870566 116:-0.2709274783046701 117:-0.12020823552177118 118:-0.4153653397605025 119:-0.31885452355981925 120:-0.3203903261155202 121:-0.19928605420214196 122:-0.15186010420234097 123:-0.014538678203453448 124:-0.2182785292346353 125:-0.3159906673563213 126:0.01606580345820241 127:-0.3113749390823263 128:-0.4569506081655602 129:-0.08483226002564126 130:-0.4907250055228308 131:-0.3895520080440392 132:-0.3234084266418219 
1.0 1:0.4527630704193226 2:-0.33902833602097493 3:-0.9946213444057412 4:-0.33896033596876396 5:-0.6 6:0.9914848623071892 7:-0.705703722643526 8:-0.07097573059192563 9:-0.18674286075700142 10:0.18654276359685973 11:-0.20748565382566042 12:-0.20728663527789803 13:0.3543280822865218 14:-0.14492210507877124 15:-0.2877609781691539 16:-0.09473074653149116 17:0.3301252590760899 18:-0.09532253540822688 19:-0.16776862803939474 20:0.001973475616880993 21:-0.06916255675043514 22:-0.022124823394637616 23:-0.15937261341454068 24:0.03437971751130453 25:0.244919692841975 26:-0.25400927093438563 27:-0.031283488484390554 28:0.19818110826522184 29:-0.4983004440335047 30:0.21292967410386798 31:-0.44824077478064395 32:0.09051977896560337 33:0.16689434940579195 34:-0.0012673050612995729 35:-0.5579190927216942 36:0.08426334136653724 37:0.1692476084758101 38:-0.44333053945096135 39:-0.0010693090117378512 40:0.09833178882857574 41:-0.6407413178341376 42:0.09458929315293019 43:-0.22375151243004177 44:-0.1192015511718546 45:0.0 46:0.0 47:0.7021553539919374 48:-0.608107369362575 49:-0.013368530990114924 50:-0.15315914518712437 51:-0.5014875189613548 52:-0.3587670154746112 53:-0.652245766377979 54:-0.1836106178743384 55:0.2753147202131714 56:-0.6008017334440359 57:0.6502202582897305 58:-0.332312448385097 59:0.43796505306681377 60:-0.5245575607870723 61:0.33009894065032364 62:-0.3711177749581147 63:-0.9860726544554829 64:-0.11108106221436154 65:-0.5699873461088136 66:-0.7091232873629476 67:-0.6750588209837177 68:0.03694869293862513 69:-0.9963599466541286 70:-0.28724067242982754 71:0.7004976139214074 72:-0.5079450426380374 73:0.32757891863263233 74:-0.25335121830083596 75:0.5975496511506566 76:-0.6448108321958778 77:-0.00641871050172238 78:-0.5852054521365659 79:-0.9378798923530808 80:-0.41527802353352794 81:-0.5643377935060702 82:-0.4257628592190925 83:-0.9823042764603654 84:-0.09270254861463267 85:-0.6094806148374918 86:-0.13435427636043062 87:0.02203393327818781 88:0.708859357992466 89:-0.4385992638790047 90:0.6779410743035921 91:-0.025018666385677735 92:0.33978133268974275 93:-0.6261912767508833 94:0.23992993283116903 95:-0.23764408491685773 96:0.7049386476840154 97:-0.9003094806552497 98:0.8101976120661456 99:-0.19056875037304843 100:0.5973594925465264 101:-0.31098334681615425 102:-0.017690005690706 103:-0.04202268703093537 104:0.19914624379963564 105:-0.18670766284093365 106:-0.2151941442711396 107:-0.4313128949792848 108:0.006510378609048795 109:-0.8700066362189841 110:-0.26967618431627793 111:-0.6659808968061864 112:0.29235963642464924 113:-0.6746974960156454 114:-0.22469280970348982 115:-0.39945157891774696 116:-0.13259177210358108 117:-0.7758437065518589 118:0.05490665294700592 119:-0.3230134094406336 120:0.16406908559927125 121:-0.6925352592933898 122:-0.08554467546513111 123:-0.6112381267032511 124:-0.22503027854126467 125:-0.30250814180321883 126:0.03646278416962634 127:-0.7862894061097937 128:0.35402240652079175 129:-0.39856853561588634 130:0.6233967196412504 131:-0.26000494256414397 132:0.6151754627892996 
1.0 1:-0.13648495861975418 2:0.007062343917693115 3:-0.675327405716819 4:0.007014296758930394 5:-0.6 6:0.24711511248279638 7:-0.2868741473004355 8:-0.9997055408885888 9:0.07245954893783346 10:-1.0 11:-0.0369273510682816 12:-1.0 13:-0.13067994854869402 14:-1.0 15:-0.08366431294237275 16:-1.0 17:-0.3420192234100715 18:-0.9282782703667372 19:0.10225177771884231 20:-0.7327563583783038 21:-0.22285070041572586 22:-0.828672992265732 23:-0.1800217093136559 24:-0.5880927808017029 25:-0.03557559443255065 26:0.03406722861751543 27:-0.4287805230258315 28:-0.030608311645631714 29:-0.37397920074851365 30:0.29052752389230063 31:-0.16667019562103158 32:-0.23472279786867511 33:0.033219067525294355 34:0.6365959253425071 35:-0.21156140897825804 36:0.7433808565431046 37:0.04189215553479286 38:0.40090546720215947 39:-0.14330696482445382 40:0.2524150177964859 41:-0.31300605558858585 42:0.3075690716766082 43:-0.11111295050295067 44:0.4062617416256895 45:0.0 46:0.0 47:0.13535339581913242 48:-0.12180153274486061 49:-0.3013664845986559 50:-0.347745046674112 51:-0.4607049343280347 52:-0.13637319831394645 53:-0.6460765427500987 54:-0.3206365019346632 55:-0.011417254124558074 56:-0.12413203636510084 57:-0.057943735918648875 58:-0.05539957848224142 59:0.1418850734421233 60:0.14841423522919084 61:-0.32646733506802483 62:0.020164507584740754 63:-0.553008173830913 64:0.31428764603230586 65:-0.6381811198123002 66:-0.4174883246246003 67:-0.33683397513292646 68:-0.3320855087472707 69:-1.0 70:-0.33485061944072736 71:-0.015518313383518278 72:-0.11295906734737449 73:-0.024693077093914884 74:-0.3215074155084887 75:-0.018144828586971973 76:0.012773101775569451 77:-0.29114355756844323 78:-0.27947788228444015 79:-0.5724574486124642 80:-0.31492210320880387 81:-0.608309222576521 82:-0.21267611526639552 83:-0.4637727588512468 84:-7.94105680345325E-4 85:-0.5742924462148775 86:-0.22967071331871447 87:-0.04814629592132946 88:-0.3116264754898068 89:-0.530459927815959 90:-0.5368028508049307 91:0.22648057911438713 92:-0.5074899545500645 93:-0.6237985162048738 94:-0.9065850602674944 95:-0.21032872656892843 96:0.06475999121402554 97:-0.41396056803601067 98:0.21821076896853664 99:-0.0798616264047135 100:-0.0017273728467371852 101:0.4419268041327362 102:-0.7785187419788221 103:-0.36935930087856783 104:-0.9959670434685006 105:0.21052454719870606 106:-1.0 107:-0.3723453216504041 108:-1.0 109:0.14032049273808367 110:-0.9003102914339277 111:0.09017850865614441 112:-0.8035873467896384 113:-0.22233961347706477 114:-0.9962342849963767 115:0.05571405082476222 116:-0.8815606010740594 117:-0.1323986533287076 118:-1.0 119:0.057314640306159736 120:-1.0 121:-0.2756354097086603 122:-0.9006303879181725 123:0.21338343650361935 124:-0.9984677221595861 125:-0.04037138772640092 126:-0.8989317331034764 127:-0.3672876595300679 128:-0.793864436589973 129:0.12339707041389625 130:-0.24684290017189126 131:0.004793850480135475 132:-0.7517694070095384 
0.7325078364676406 1:-1.0 2:0.008817003634032483 3:-0.006815186366649795 4:0.00877600665583289 5:-0.6 6:0.9998087911632618 7:-0.9998394273866826 8:-0.6213340650134551 9:0.12867561183401066 10:-0.5688855289979462 11:-0.2091457284687026 12:-0.1355736064732993 13:-0.015561926201543619 14:-0.3780085727903484 15:-0.19734479771196445 16:-0.05407078448432345 17:-0.06231921539673457 18:-0.2973958339733995 19:-0.1645790066723225 20:-0.07663328238108225 21:-0.2850484869257657 22:-0.21982317025427367 23:-0.27154282569459653 24:-0.027738427847044278 25:-1.0 26:-0.12539479797464204 27:-0.30605748474219674 28:-0.03721546711495172 29:-0.28185030293174707 30:-0.02845276488978532 31:0.5677581542537291 32:-0.5946815965507299 33:-0.3291661757364719 34:0.4302427125266153 35:0.14680240449902726 36:0.5104053285569281 37:-0.8088216240995478 38:0.21245937530916148 39:-0.2852115800709253 40:0.06590191877387963 41:-0.20427409256441198 42:0.12506633402292033 43:0.21760501448400582 44:-0.019520953732085622 45:0.0 46:0.0 47:-1.0 48:0.19752771040796446 49:-0.6463803697816433 50:-0.34999023574621724 51:-0.50759631602435 52:-0.12366004738879433 53:0.6808565172914283 54:-0.32258160116929024 55:-1.0 56:0.3146128386116207 57:-0.672714227692056 58:-0.32587328002363214 59:-1.0 60:0.15309043616295037 61:-1.0 62:0.01946160752665449 63:0.16851058673053276 64:0.3206957236128125 65:0.23534355085318337 66:-0.417587291095444 67:-0.015563685722585485 68:-0.3247484137412233 69:-0.007054368115782084 70:-0.3360654093415737 71:-1.0 72:-0.11552285507991211 73:-0.6748573626427408 74:-0.01004171128820508 75:-1.0 76:0.012451387386240853 77:-0.9536122376236863 78:-0.2783555746929318 79:-0.1569645844054054 80:-0.31156555521151585 81:0.6029094459147841 82:-0.2136134178313932 83:-0.05311737866872057 84:0.007599344845871103 85:0.529999180086089 86:-0.22790861574459864 87:-0.6390797123582809 88:0.5607975865645407 89:0.39798207162718846 90:0.021308811860231147 91:-0.504931159733045 92:-0.10532602984830619 93:-0.28675337487262054 94:-0.3984509513841902 95:-0.6204672536972238 96:0.8086083856827879 97:0.0032530661234122515 98:0.7427882842231763 99:-0.7308002681925543 100:0.609956493322583 101:-0.7679980845903951 102:-0.390556182506693 103:0.5415279627231475 104:-0.7301381802730558 105:-1.0 106:-0.586818223190233 107:0.37501586720962243 108:-0.6035621744899888 109:-0.43872853786427335 110:-0.5126418891840292 111:-0.4100085433373569 112:0.10481334131785247 113:-0.9607622344747204 114:-0.5127919147653806 115:0.16916387506439512 116:-0.6443290598053604 117:-0.9849093931475448 118:-0.07863702606494116 119:0.07122974413414318 120:-0.15685060850442367 121:-0.9183109161252349 122:-0.5097786167114572 123:-0.2831968826425677 124:-0.4364675533077925 125:0.04218910788597996 126:-0.5977442094390657 127:-0.9940250858433151 128:-0.055073129699435786 129:-0.3775980718401373 130:0.26120609011317986 131:0.0496620277486457 132:-0.22339675566371142 
0.5538449610267758 1:0.1646455646599223 2:0.671032960914131 3:1.0 4:0.6710447885225432 5:-0.6 6:0.5029618787962475 7:-0.6764767325940353 8:-0.6172052364747243 9:0.8160267505860928 10:-0.22448398044467732 11:0.6947914758635907 12:-0.5249140284706688 13:0.7079553859796788 14:-0.2308511274792654 15:0.7582267920222485 16:-0.49412273104405124 17:0.480495596523314 18:-0.45082992572998704 19:0.5732158570393733 20:-0.4852915909817108 21:0.6275072618193311 22:-0.46177055488334917 23:0.48905355673940365 24:-0.3682303795515631 25:0.5079586988410063 26:-0.23660247159565895 27:0.3415864761283778 28:0.8424121573196117 29:-0.4459976501962658 30:0.6856246424740602 31:-0.22162014916953787 32:0.07414274652200814 33:0.636820331468201 34:0.6119304800868102 35:-0.3372284284799717 36:0.5377859368202413 37:0.6453466013646267 38:0.13189600808132473 39:0.5951054318772282 40:0.8279629483189332 41:-0.6302811460642823 42:0.6369212890224889 43:0.0011603746505024493 44:0.07693156769927545 45:0.0 46:0.0 47:0.4413661797524775 48:0.6862090061596602 49:0.37602462805601466 50:0.3757613633012975 51:0.5800481054651843 52:0.6450769437062529 53:0.7168406276642014 54:0.7024384499044853 55:0.6651128452602895 56:0.3047581473570784 57:0.5907033030423907 58:0.7465177176337026 59:0.1607402224194474 60:0.6969393931646928 61:0.35863184968349127 62:0.5517010790144212 63:0.6801032753714644 64:0.7676514594444339 65:0.9781561486640649 66:0.7190653557922815 67:1.0 68:1.0 69:1.0 70:0.6816512151273979 71:0.6551839019243701 72:0.7106671958042969 73:0.3133031825208983 74:0.6954388415586805 75:0.6634353191408722 76:0.8864371679097491 77:0.3838423047384689 78:0.1562855651322672 79:1.0 80:0.6536981051572062 81:0.5626635755676959 82:0.7118265596394389 83:0.5364594890358025 84:0.3309923651557938 85:1.0 86:0.6253087529966068 87:0.5442309101734963 88:0.15568606222649306 89:0.18477698221039107 90:0.1276992765444398 91:0.21117106225632143 92:-0.6247302579097174 93:0.9545091021724565 94:-0.7404031564364426 95:-0.5606705407792458 96:0.22560668346826396 97:0.9630435276665468 98:0.05657774890397138 99:0.5770873035468087 100:0.20965389083113495 101:-0.010631002514699506 102:-0.6336666265431256 103:0.943368018960784 104:-0.4605859668198504 105:-0.06084325970956084 106:-0.6045684583673014 107:0.7270802558260601 108:-0.47778385281072167 109:0.32919958058814314 110:-0.6367118241493746 111:0.6242092304760134 112:0.2087475093083937 113:-0.38934531674422546 114:-0.6896460577117618 115:0.6937314777121604 116:-0.4657809084208425 117:-0.34487189956692177 118:-0.1338447223159278 119:0.8275907329031278 120:-0.004551152051871732 121:-0.11845011884746426 122:-0.4584565032977248 123:0.41618199226446717 124:-0.5450455270495863 125:0.6965236624905906 126:-0.3452749722176862 127:-0.17769083676902697 128:-0.11569021591790474 129:0.6591527722154744 130:0.39058233164461753 131:0.8405881329616154 132:0.11566886006334065 
1.0 1:0.19297915257163867 2:1.0 3:0.36802853581651274 4:1.0 5:-0.6 6:0.26908115483301676 7:-0.2464457641117762 8:-0.5125919103021989 9:0.8845982661270515 10:-0.213466119045442 11:0.6975904840352447 12:-0.34409360324294913 13:0.6998378454160217 14:-0.3938144177447298 15:0.886792894962618 16:-0.3957965111804381 17:0.818234853473244 18:-0.4314261696723688 19:0.7567144997552182 20:-0.3999532034733102 21:0.829851425897056 22:-0.37112582582467624 23:0.8375753993456034 24:-0.28318635829421857 25:0.6675905187680078 26:0.23389908146292382 27:0.5516574317712937 28:1.0 29:-0.7074630330003597 30:1.0 31:-0.2606476801534535 32:0.4337573187841277 33:0.5357327731671215 34:1.0 35:-0.6819472386058147 36:1.0 37:0.5508606247516084 38:0.4927951010521945 39:0.4855150160711388 40:1.0 41:-0.9286892199575454 42:1.0 43:-0.31216567484239033 44:0.5022723539950966 45:0.0 46:0.0 47:0.4829937583595103 48:1.0 49:0.11815740577464418 50:0.8702445695911414 51:0.16753994184379328 52:0.647220789845957 53:0.10588798201385563 54:1.0 55:0.7319158986528376 56:0.7386335680623144 57:-0.06719584251025268 58:1.0 59:0.48055191450215107 60:1.0 61:0.40147603925340203 62:1.0 63:-0.024320391152679477 64:0.7669235965012904 65:0.1666876865492708 66:1.0 67:0.3783833301666586 68:0.9945996067410348 69:0.38389307199269984 70:1.0 71:0.32960932423854294 72:1.0 73:0.005341334413490051 74:1.0 75:0.7120843190398851 76:0.8826014696899638 77:0.13765411446941056 78:0.5094054355953419 79:0.24169498631565256 80:1.0 81:0.18864179777355128 82:1.0 83:0.1680695328283126 84:0.7540238123167815 85:-0.05592322647842751 86:1.0 87:0.48485454001847983 88:0.16692668367810115 89:0.511737990785839 90:0.14618664512657964 91:0.7311318626218992 92:-0.21494118241485982 93:0.35525101646418 94:-0.22942626501540286 95:0.22874162533531672 96:0.0028389022283734633 97:0.5658919898998558 98:0.07128800646633837 99:0.7307728761880681 100:0.2256950898527823 101:0.2644735412562924 102:-0.6246107336711101 103:0.8091975627438894 104:-0.3162809445483019 105:0.16868828479045783 106:-0.6965159278427961 107:0.5417885600068071 108:-0.27028926287636645 109:0.9397089617627883 110:-0.7490258342772245 111:0.9308904002917913 112:0.12426668401741403 113:0.07965379003242745 114:-0.6769132413457246 115:0.9821568466568773 116:-0.451030285677838 117:0.11795542276673698 118:-0.11856561889094108 119:0.974585503090154 120:0.009952435422537986 121:0.061612507142688955 122:-0.4484647295761578 123:0.9604388658568093 124:-0.5305466090373996 125:0.9707503560225976 126:-0.33159512541291525 127:0.022438963626324915 128:-0.22309445528588523 129:0.9345328344297483 130:0.28293363987565234 131:0.9686556235879491 132:0.003495341355093551 
1.0 1:0.4333907434646762 2:0.006135066506088638 3:0.6444501164670009 4:0.006179466185726845 5:-0.6 6:-0.47528520008216024 7:-0.05906532520174734 8:-0.6949317330118239 9:1.0 10:-0.3804563685747834 11:1.0 12:-0.5103947196783911 13:0.6384589164924133 14:-0.3924814820063235 15:1.0 16:-0.6493487281496588 17:0.7546941540688588 18:-0.5191016848491725 19:1.0 20:-0.5393536392895306 21:0.8713914314475306 22:-0.5185003692429282 23:1.0 24:-0.417728930395486 25:0.6186415406323 26:-0.24382427252326444 27:0.19896682609600114 28:0.5165017833626717 29:-0.5480260947531532 30:0.5214413522838799 31:-0.13268818280354877 32:-0.10336666445512888 33:0.4716066914319965 34:0.3992721812132052 35:-0.5219719327105364 36:0.05838259771098486 37:0.48834445201391263 38:-0.06678313289910132 39:0.1268873968291726 40:0.4556003749572799 41:-0.7656510368712075 42:0.4459721927150264 43:-0.16192862908204608 44:-0.36048418527275905 45:0.0 46:0.0 47:1.0 48:0.05411268460749197 49:0.7258502282778174 50:-0.11603687887551484 51:0.5783324985243601 52:-0.8485574440073211 53:0.3860735236501667 54:0.1116595942622951 55:1.0 56:-0.5601278897706007 57:0.5339441603022228 58:0.2070100423347332 59:0.433723719860301 60:0.09345584524878969 61:0.6984736707122474 62:0.10491264545931611 63:0.3300207947927951 64:-0.09944830343497557 65:0.47523010356403494 66:-0.14177031292446307 67:0.6515639579037786 68:-0.41806634428280454 69:0.6597481345266589 70:0.043676928961300154 71:0.6275099488144817 72:0.4038589306100191 73:0.27999240167701234 74:0.0664190540568681 75:1.0 76:-0.1056443561612247 77:0.4049244373183145 78:-0.5610532466893106 79:0.5655571493193385 80:-0.053421058683014166 81:0.510722802278532 82:0.14254632707953663 83:0.5649679135661443 84:-0.497267238400524 85:0.6468810013341935 86:-0.12959282398333716 87:0.8060372088606658 88:-0.6908878175815931 89:0.4957399849957498 90:-0.6914931384505487 91:0.717029227627672 92:-1.0 93:0.6762348410162788 94:-0.9738117405037653 95:0.6137876209626834 96:-0.7272938354541485 97:0.5731360790746669 98:-0.7030428623518963 99:0.7881624009862458 100:-0.17238653141459237 101:0.507957472107798 102:-1.0 103:1.0 104:-0.7143977556625996 105:0.3460214469497833 106:-0.9955232197027797 107:0.8235910151040566 108:-0.4639839517742549 109:1.0 110:-1.0 111:1.0 112:-0.07265277070525122 113:0.12566954915454454 114:-0.9130589838673282 115:1.0 116:-0.7966916289080056 117:0.37759687702388445 118:-0.41844636629570464 119:1.0 120:-0.26663613681975573 121:0.09229888956473187 122:-0.7354461577644751 123:1.0 124:-0.8611633528280589 125:1.0 126:-0.5268641794797475 127:0.07172541344106098 128:-0.4636005722513602 129:1.0 130:0.03709707476991597 131:1.0 132:-0.2534866439939495 
1.0 1:0.44168992069691493 2:-0.3388791361648229 3:0.3217200491298444 4:-0.3389101587778016 5:-0.6 6:0.24711511248279638 7:-0.6056049124313955 8:0.48791117907820114 9:0.17015930154718517 10:0.5298826162300085 11:-0.13047353261910455 12:0.6403700074900915 13:0.9040299947040047 14:0.3877821491240483 15:-0.08364699591434965 16:0.9714225491676605 17:0.6536149516876433 18:0.5758165596673317 19:0.1022624985279732 20:1.0 21:0.44790870764570223 22:0.8160467161007061 23:0.28035938915757797 24:1.0 25:-0.24235255956070123 26:-0.7575277262407025 27:0.9995240053373258 28:-0.5229564285819545 29:-0.5825468612664528 30:-0.5037404102309081 31:1.0 32:-0.43199416376692257 33:0.5161099612011133 34:-0.7648438815083205 35:0.5046377304376635 36:-0.6760487678477801 37:0.04194324305856556 38:-0.8990465575503945 39:0.7135570900304988 40:-0.654826884827591 41:-0.31303202505335137 42:-0.7985363073585197 43:1.0 44:-0.4703405244577956 45:0.0 46:0.0 47:0.4161459414636923 48:-0.7666880861016945 49:0.33512209660060743 50:0.13315289551664522 51:0.024999334637785253 52:-0.14244472498543226 53:0.35109811351407294 54:-0.9255968831206185 55:0.6179920556892338 56:-0.14252862686030332 57:0.6036396493687035 58:-0.599028621827738 59:0.42632507935957364 60:-0.4620431978894042 61:0.6658727108120213 62:-0.4555356052527183 63:0.22349807106554165 64:-0.13230057828263853 65:0.1782798410039721 66:-0.7102548867167146 67:-0.0101946743152449 68:-0.33688446226638047 69:0.31787202375622003 70:-0.6726532664989886 71:0.6603885749854821 72:-0.4256550054715986 73:0.639389814993828 74:-0.33392839039330213 75:0.2993690318797386 76:-0.49791280833451845 77:0.33597835374688056 78:-0.29393309339281914 79:-0.18039253208819261 80:-0.6704960733352943 81:0.5668960245217283 82:-0.510400918925626 83:0.4685812786698771 84:-0.012017769512568832 85:0.5632273563303294 86:-0.2447924581775902 87:-0.3810759669619753 88:0.2674803113716795 89:0.28155029652938124 90:0.2927636910419078 91:-0.762875503207966 92:0.4862516752405657 93:0.6502887159315611 94:0.5777779954926654 95:-0.5895372463575228 96:0.5585704280168224 97:0.03616436918851007 98:0.47322869616410324 99:-0.0798616264047135 100:0.599309050861305 101:-0.7468711916076107 102:0.6184089953600953 103:0.5487626368479828 104:0.4658757876810604 105:-0.4529903578821737 106:0.6153304393702488 107:0.1514541205353297 108:0.4841905930727972 109:-0.27023261768302886 110:0.6203669672026928 111:-0.15361529626075 112:0.3970820885844799 113:-0.5278956843130698 114:0.553424019925032 115:0.05570104984937485 116:0.3922670060459805 117:-0.3492920591132269 118:0.5205751106105432 119:-0.0702980809035001 120:0.3027779890159321 121:-0.5307400737806306 122:0.5431829404915562 123:-0.09893766469970189 124:0.5548524348544628 125:-0.04038272036712909 126:0.5808449657119517 127:-0.3672714346835131 128:0.5438048106363811 129:-0.15175041569065872 130:0.3776335597929781 131:-0.13816473844788102 132:0.42102931951146005 
1.0 1:0.7479370066712601 2:-0.49960781092812356 3:0.006433707794055721 4:-0.4995855547549862 5:-0.6 6:0.2505663982742512 7:-0.7466106406243144 8:0.35264652055422996 9:0.18332164171094845 10:0.4045358465502984 11:0.03912236771325328 12:0.4818501332073457 13:0.5087574599536184 14:0.4766711478407373 15:0.12711146614644475 16:0.7459401046282916 17:0.3875228102265713 18:0.6461074880625992 19:0.29076641978234385 20:0.832258610135874 21:0.09973090704626797 22:0.7029193863819236 23:0.23554240246493485 24:0.869379414185697 25:0.2704545764956472 26:-0.7427487750951599 27:0.8730592758495934 28:-0.5560770914596368 29:-0.25858185983752546 30:-0.4677443899727708 31:0.5680988032765482 32:-0.4330053236478004 33:0.4501629670775311 34:-0.8762918927671721 35:0.42380690466963866 36:-0.5293700205795553 37:0.42871977797207617 38:-0.668925599420425 39:0.6271719851519553 40:-0.9017468737337072 41:-0.16791614936000454 42:-0.7233308335086798 43:0.6836719747312101 44:-0.5079513479688121 45:0.0 46:0.0 47:0.4334552609416711 48:-1.0 49:0.6186615786569696 50:5.420648306160292E-4 51:-0.030111060819155933 52:-3.6638906107167024E-5 53:0.3674858211555967 54:-1.0 55:0.575603360826298 56:0.07531483935671512 57:1.0 58:-0.7284339120928935 59:0.4435045784598872 60:-0.6379920028867796 61:0.9884629037896517 62:-0.17794987924262218 63:0.16785234217271694 64:0.10097501096230355 65:-0.15224939683693894 66:-0.8537597246794547 67:-0.020356408586421404 68:-0.1479092400689871 69:0.33448116378851345 70:-0.7953398808228588 71:0.7184372981281777 72:-0.9104263268667956 73:1.0 74:-0.44343012952553473 75:0.28341019526692324 76:-0.8122927946143852 77:0.6069370505207621 78:-0.0726343370819823 79:-0.14891958194355015 80:-0.5418927707153346 81:0.2383552827289961 82:-0.8975694337107661 83:0.40222150582952887 84:0.16306295319035735 85:0.5295786276594214 86:-0.37718841136813686 87:-1.0 88:0.779152990720652 89:0.34853347440457005 90:0.6312403825849153 91:-0.789564455995757 92:0.41400656634868893 93:0.9324567603045066 94:0.4191654906937645 95:-0.26239295610748425 96:0.513393601715564 97:-0.01446977420012674 98:0.2616659260871015 99:-0.24481832184300478 100:0.6029411579606079 101:-0.5873593912466148 102:0.30332786876348505 103:0.49187113161164153 104:0.13599340656945258 105:-0.5627128613928419 106:0.35441970541199663 107:0.20170116592133946 108:0.1503689666063892 109:0.2656903037059968 110:0.24371144849884185 111:0.04274595500675615 112:4.681648250184356E-4 113:-0.4423886591570211 114:0.28831982334734696 115:0.11110678584359479 116:0.19241841557935468 117:-0.38495659480181244 118:0.19274549533400465 119:0.046371064084024916 120:-0.04140605613372661 121:-0.5089514984830228 122:0.4255233666625051 123:0.23936160617276037 124:0.33616734412521954 125:-0.018610889373768313 126:0.3121814569094503 127:-0.36046775125223207 128:0.27341261723287835 129:0.13864133389271927 130:0.1320478826443774 131:-0.12258160832766929 132:0.06693040282487339 
1.0 1:1.0 2:-0.6707358750812074 3:-0.3654166687779674 4:-0.6707588923411139 5:-1.0 6:0.49457595488487516 7:0.012210398303289294 8:0.4839328589771803 9:0.05793894924182452 10:0.5279057112359795 11:0.06388035008377324 12:0.29643296245119366 13:0.7261264452168441 14:0.38378226237709856 15:0.3319723671051724 16:0.5387938442619218 17:0.7080294332672727 18:0.47987305307000705 19:0.6136126947415128 20:0.5612309736222569 21:0.44349450898124076 22:0.512396378851748 23:0.5319957167466307 24:0.5805182470554258 25:-0.13103373729738532 26:-0.7485506170581236 27:0.5612453430547248 28:-0.5159399763192312 29:-0.4881180619739368 30:-0.5073100148665275 31:0.4325562966339316 32:-0.4335828801515932 33:0.10890379690682228 34:-0.7504390776404222 35:-0.13161533704123562 36:-0.6748166822470401 37:0.13737052973703734 38:-0.7045816296051723 39:0.2380903625587969 40:-0.8236767328251633 41:-0.6702767909810683 42:-0.6135735308627999 43:0.4245356535853777 44:-0.6879972630947583 45:0.0 46:0.0 47:0.12608027894585994 48:-0.744131843620659 49:0.3718611669787715 50:0.14139752757466262 51:-0.3987209440400866 52:0.35477427601342204 53:0.002949231844555422 54:-0.9358859388632691 55:0.656356025141763 56:-0.1282000382386449 57:0.8761357973206028 58:-0.593550515739913 59:0.6998169328931212 60:-0.454615714392941 61:1.0 62:-0.45135266883823244 63:-0.10740658405642656 64:0.29320626317803655 65:-0.7096883441343858 66:-0.7091446749595458 67:-0.3315148498316486 68:-0.34211220754660876 69:-0.03488868727635419 70:-1.0 71:0.6113903685817097 72:-0.7109157890476208 73:0.9475717172984175 74:-0.3312044814177584 75:0.3220923772493418 76:-0.4762211791932801 77:0.38166005404976566 78:0.07248114465284128 79:-1.0 80:-0.6664393266368605 81:-0.27622915857953645 82:-0.7988205566654683 83:0.07277662390613338 84:0.3998016479095039 85:0.20810871178251622 86:-0.6358015543324309 87:-0.10908815237988578 88:0.5547414531826842 89:0.6193174459270114 90:0.8423392904544886 91:-0.24574160079184393 92:0.48336641003853575 93:1.0 94:0.5654347037454082 95:0.22189429486663537 96:0.7967307319539219 97:0.5448238019207967 98:0.7223308485987319 99:0.06599888123566977 100:0.5972370413102499 101:0.04657751402970378 102:0.48869238565500495 103:0.6106219791936602 104:0.45935465803238906 105:-0.015468155028679376 106:0.41311247811561524 107:0.103226299457297 108:0.3804387065806363 109:0.4284910942148641 110:0.4890406950817041 111:0.6366983793537915 112:0.39032444165012636 113:0.6051572165659165 114:0.427692942732226 115:0.1826888411134302 116:0.38790944668408356 117:0.3320353145445303 118:0.3133049243554491 119:0.19763443660776447 120:0.20376327416807238 121:0.20847076383137986 122:0.5391309815076462 123:0.8038397601836176 124:0.4374042519563244 125:0.09610834155693326 126:0.4781535469216138 127:0.29915463387581065 128:0.29529998269114 129:0.6584409912694658 130:0.37003618355685 131:-0.007858355764547409 132:0.4155116165712509 
1.0 1:-0.12766568369149822 2:0.3360802764388584 3:-0.33291634145616555 4:0.33601907778952644 5:0.19999999999999996 6:-0.2436493638396391 7:-0.048492767650017865 8:-0.4416433184221722 9:-0.1829863592338763 10:-0.39670466298838836 11:0.4186591270468385 12:-0.6587061869772165 13:0.04729710720405267 14:-0.6465731536661957 15:0.4344687959594027 16:-0.7467205937620544 17:0.03486825294684848 18:-0.6597000298329652 19:0.5569582630942804 20:-0.7335548289786169 21:0.28070880026813505 22:-0.6784510653845056 23:0.2596174395692561 24:-0.7258773254170697 25:0.023830891078809424 26:0.02950258969448516 27:-0.4407880510235419 28:-0.1928050491501606 29:-0.7937550954963735 30:-0.024538466528516878 31:-0.802224971692428 32:-0.22250990254727965 33:-0.015215069941255766 34:0.23430387513303264 35:-0.7389006159770152 36:0.2807469298736247 37:0.03842942665721649 38:0.21083265614503732 39:-0.4719624099678431 40:0.07256484964620524 41:-1.0 42:0.13129087156916497 43:-0.8000581131172286 44:-0.013578346571592403 45:0.0 46:0.0 47:0.14778649071957384 48:-0.12589820899276516 49:-0.2396256046952251 50:-0.3506732987071134 51:0.10254664999623064 52:-0.6425863929523308 53:0.04342828807748633 54:-0.03027615067453182 55:-0.22341682162881005 56:0.3126900544743796 57:-0.43660910995955193 58:0.4792804661112682 59:0.15196118320813912 60:0.1453079713782477 61:0.05131455553420361 62:0.4590028013184162 63:-0.45038392792686 64:-0.11822993011143101 65:0.09430912777865741 66:0.14650033899612502 67:0.02052109124953705 68:0.13485716315525376 69:-0.33302219002359634 70:-0.023072527207473992 71:-0.0422644697162502 72:0.4826631445450771 73:-0.36838714373579184 74:0.3052826690330537 75:0.05000665702743823 76:0.006873934362942258 77:-0.1913009984847216 78:0.07531800600890892 79:-0.21188374474187022 80:0.03321121027241869 81:0.11451407456085327 82:0.06718683157799687 83:-0.33734169352642385 84:0.0014746528268014814 85:-0.11976907796470004 86:-0.23243551427908093 87:0.21047319303059342 88:0.5531395213853398 89:-0.24813789610399584 90:0.3048573934066543 91:0.5218144085382106 92:-0.11429608126012636 93:0.06346050065358577 94:-0.40757787124629863 95:0.6629190679892345 96:0.061760400272764304 97:-0.2592289629843587 98:0.2250903905264634 99:0.7451098444081901 100:-0.2007397404012774 101:0.35020336174091904 102:-0.14383426853168946 103:0.089960114895828 104:-0.46103259909771444 105:0.5571060449240504 106:-0.3969070121381535 107:-0.23807604676819383 108:-0.5003239312025733 109:-0.17372695774069435 110:-0.513825888564505 111:0.37647253716312035 112:-0.8002150377435945 113:0.17693523517234966 114:-0.3988551684433218 115:-0.25816711304224815 116:-0.40989518505606626 117:0.5208927091113336 118:-0.7977753388246147 119:-0.20727384711263075 120:-0.8058802542465644 121:0.11768362658857212 122:-0.41829051069746004 123:0.10295356777744313 124:-0.4385621525054193 125:-0.27655991636772814 126:-0.39854816107765845 127:0.2252981169759245 128:-0.9157407128703106 129:0.02611097397725759 130:-0.8626729566130157 131:-0.35027621226970995 132:-1.0 
1.0 1:-0.42538918517064683 2:-0.004058416899968997 3:0.32158704336578725 4:-0.00401647504446101 5:-0.6 6:0.24711511248279638 7:0.03194890375600434 8:-0.15076348222578817 9:-0.025302423595254253 10:-0.15509886475617551 11:0.05672452710461684 12:-0.19357604490084102 13:0.24550142985190826 14:-0.41796517839800496 15:0.28122037177273396 16:-0.2495961077796809 17:0.15573818190023014 18:-0.46139147842685635 19:0.2049538359555465 20:-0.2060287686822051 21:0.3360760932422744 22:-0.320469304138715 23:0.05016586837606418 24:-0.17040458836113503 25:0.17144427446955346 26:-0.39732928541277435 27:-1.0 28:-0.44350425266480353 29:0.04306580561301754 30:-0.4234630836650777 31:-0.3334971699929419 32:-0.4632151401873047 33:-0.44947629517071386 34:0.2026907882095106 35:0.027034243293261095 36:0.3121095524574813 37:0.0420821810498917 38:-0.058294194368388674 39:-1.0 40:-0.08275739808085059 41:0.12457925027969918 42:-0.08880687417855826 43:-0.3335187307570676 44:-0.1404379322307283 45:0.0 46:0.0 47:-0.42588147417237576 48:0.034242391383867865 49:-0.3012653498430221 50:-0.14313750638409084 51:0.5106276256315718 52:-0.35780806716277536 53:0.3509050117212835 54:-0.19408948342568588 55:-0.32591615837464893 56:-0.15292247879483412 57:-0.3885257848157935 58:0.2018933879534479 59:-0.4267096412757755 60:0.08410862105117345 61:-0.3263154970237181 62:0.08607808906430692 63:0.22333767607077082 64:-0.11425686342758856 65:0.5863740744873449 66:0.1440392966739592 67:0.31637486395267955 68:0.039201142062777805 69:-0.011762003171990942 70:0.026450767375368667 71:-0.3532034328939796 72:0.09779474318060988 73:-0.3565772842968363 74:0.06171526671762484 75:-0.3353772324650157 76:-0.13437282288877517 77:-0.6045434666363744 78:-0.5787708269349316 79:0.21159505031455872 80:-0.0612377425784586 81:0.1749464531534659 82:0.13477515384374428 83:0.4684308226636278 84:-0.5081701865786307 85:0.5630364492614715 86:-0.14259078986186657 87:0.28487604255211685 88:0.7209091036165947 89:-0.12452210572843492 90:0.6767915281735524 91:0.2265635530873833 92:0.35175580635172254 93:-0.3053699997603513 94:-0.013204983325393327 95:0.5481917747042027 96:0.4744760822200136 97:0.03610625976316317 98:0.5574108394447799 99:0.46006465464891844 100:0.20179858921093907 101:-0.033488846834355046 102:-0.007312739827013304 103:-0.002190496543897802 104:-0.2084078949701721 105:0.04473811754070778 106:-0.3057915263214822 107:-0.11051502470232422 108:-0.3926199932401193 109:-0.27023261768302886 110:-0.1388990983919216 111:0.090174204317224 112:0.09892430418526033 113:0.08330835169060657 114:-0.0963690916073805 115:-0.1269298960028038 116:-0.13185178155654886 117:0.08456484156109845 118:-0.13667637274428945 119:-0.07032443656144383 120:-0.11340711430159622 121:-0.02045402429207488 122:-0.27009296482891276 123:-0.09893766469970189 124:-0.33168563864034595 125:-0.040413540697083694 126:-0.25862596642478064 127:-0.1393532220625685 128:-2.628594277774843E-4 129:-0.15175041569065872 130:0.3776335597929781 131:-0.13819241828201 132:-0.03552699200014697 
1.0 1:0.11809128313194717 2:0.49309585800113287 3:-0.008857944445573196 4:0.49601479442081287 5:0.19999999999999996 6:-0.020301474944279807 7:-0.02942611129904027 8:-0.5612627071672711 9:-0.04948844337193237 10:-0.386358873599835 11:0.3449451668597836 12:-0.5802885620017113 13:0.09225848048013185 14:-0.7343405205390915 15:0.492344213291231 16:-0.6654870967951585 17:0.009779052885651618 18:-0.8398800858651274 19:0.4721765058454104 20:-0.6463158274070104 21:0.0792043701977081 22:-0.6985372190527721 23:0.19749712896182192 24:-0.6572556818596997 25:0.5142869293830026 26:-0.16010252107085754 27:0.12549256150623433 28:-0.07132720758602307 29:-0.1652401378817605 30:0.028578149368750472 31:-0.5194530688389869 32:-0.1773027727105756 33:0.04092704069045894 34:0.4609198171181077 35:-0.40304231907227517 36:0.488708294878327 37:0.25149028137214313 38:0.27706705758903816 39:-0.1391211354185835 40:0.24358587338860027 41:-0.27876191588482657 42:0.14940478867314955 43:-0.5277136754816989 44:0.12148301858682853 45:0.0 46:0.0 47:0.3733641561694505 48:-0.02933393448622368 49:-0.08271044427141161 50:0.4174292382348326 51:0.440263547421756 52:-0.4088806876077584 53:0.012455061901868625 54:0.16622712711893173 55:0.1944577135989065 56:0.030778512612603448 57:0.289963425708903 58:0.6053363355268995 59:0.09467568135210835 60:0.4420356339857159 61:0.273305637275987 62:0.44369630795361714 63:-0.27411140846252624 64:0.5511656542607117 65:0.2736288217518985 66:0.2954153679090672 67:-0.042333403156045946 68:0.6013298791546096 69:-0.013243425341090354 70:0.29017040797300875 71:-0.012033256760058508 72:0.4088218855821355 73:-0.030443955387976063 74:0.32594066866504967 75:0.19338318430474177 76:0.3970453564725547 77:-0.08980404675977693 78:0.0569930214037786 79:-0.15051550617594633 80:0.3285439980857199 81:-0.15219427375612427 82:0.38617142886946354 83:0.3421298994263591 84:0.42846389310113664 85:0.11595221936529265 86:0.19633157262318712 87:0.03530111221173304 88:0.512337140692593 89:0.029969331288462575 90:0.26382705997654554 91:0.6719958790288316 92:-0.026645437829023177 93:0.0028083900159170394 94:-0.5380906164245391 95:0.445861937521586 96:0.09173889054121376 97:-0.07430166842546204 98:0.14498657135252668 99:0.7209432544043577 100:-0.00108646156704173 101:0.5407644633493311 102:-0.17852099242312425 103:-0.08430494505656905 104:-0.3024210815045022 105:0.5464467597528713 106:-0.570973755366707 107:-0.3536632032592766 108:-0.5373296831106045 109:-0.32878176623068267 110:-0.5348354103483315 111:0.08975744981600475 112:-0.910348861922049 113:0.011657736864215895 114:-0.42955431318895354 115:-0.15734040992754583 116:-0.4121307833951009 117:0.11450289451940532 118:-0.9315367821541224 119:-0.16480214652434466 120:-0.8920018391568093 121:0.1161949670347544 122:-0.43890013941429107 123:0.04359110702613833 124:-0.454047182553197 125:-0.1035119536160013 126:-0.39616397564970285 127:-0.02990662668810573 128:-0.9505879116840563 129:-0.026185946665541637 130:-0.8800662094295005 131:-0.20301567181170344 132:-0.8676278256876174 
1.0 1:-0.6895098857153379 2:-0.3244068053803473 3:-0.31437010278739885 4:-0.32443566388280787 5:-0.6 6:-0.22731956612132032 7:-0.7413273762075465 8:0.13272101880525367 9:-0.7936275826735029 10:0.30464968808296233 11:-1.0 12:-0.022817638828737663 13:-0.9240014392319489 14:0.1727509224612056 15:-1.0 16:-0.19738949199813938 17:-0.8487754202369328 18:-0.1832792131597668 19:-1.0 20:-0.34159239628935956 21:-0.9710430957576185 22:-0.42439770772415253 23:-1.0 24:-0.35306804525687396 25:-0.289394218931882 26:-0.1336257122035216 27:-0.33241164151828184 28:-1.0 29:0.3043136911452624 30:-0.6821063204887625 31:-0.21728216695160307 32:0.12637227436411025 33:-0.10262456013456711 34:-0.574196787260628 35:0.569401863737313 36:0.019111622010747453 37:-0.1512525755235733 38:-0.3550698054931206 39:-0.5872172993181841 40:-0.8349831119834058 41:0.4136908278169198 42:-0.44791343268031447 43:0.3431307941889259 44:0.18151273392465161 45:0.0 46:0.0 47:-0.7194624319291156 48:-0.11726207390218568 49:-1.0 50:-0.33296034756956583 51:-0.053031215445309754 52:-0.6327514699336214 53:-0.6525794570157096 54:-0.3100606066050128 55:-0.7249094057486276 56:-0.1143529227255119 57:-0.6128481562947163 58:-0.32507977615102823 59:-0.7049310792488319 60:-0.1474984538204951 61:-0.6850704791151765 62:0.020170558102409863 63:-0.6564117680413974 64:-0.10359428888173672 65:0.3099918029419326 66:-0.42582755941529515 67:-0.022052511238595862 68:-0.3297422201915192 69:-0.33024011977865453 70:-0.33716297066339607 71:-0.6247494198726256 72:-0.11651082822733272 73:-0.6378655627933187 74:-0.3202728141964143 75:-0.7213161676683808 76:0.019513112533822152 77:-1.0 78:-0.26950963204873724 79:0.2663696675218128 80:-0.3232402738112512 81:-0.1337824874836655 82:-0.2125785647756231 83:-0.5635331951745173 84:-0.4055899006827708 85:-0.2712683810257188 86:-0.21988905161799632 87:-0.26783913189812014 88:-0.002190765878398948 89:-0.3832250826071363 90:0.04341900938035126 91:-0.8556081312216444 92:0.506256416819324 93:-0.7125024767477175 94:0.12385515808467362 95:0.053708760640468256 96:0.08553405403029246 97:-0.9932557432078156 98:-0.006232277782632578 99:-0.9382094859794192 100:0.02704815162335472 101:-0.9497969899692033 102:0.38219644242935624 103:-0.505444265928076 104:0.09575053455906168 105:-0.6931762756492732 106:0.22909196388341635 107:-0.9465861203731215 108:0.11761405439624872 109:-0.8503795733467909 110:-0.11633733301845217 111:-0.9861610079932462 112:-0.37663398725678443 113:-1.0 114:0.09831326924875161 115:-0.952331164408345 116:0.07480139165719524 117:-0.6207556250546757 118:-0.3702216980867249 119:-1.0 120:-0.22483885868484765 121:-1.0 122:0.08122001870420714 123:-1.0 124:0.025538133863881596 125:-0.9659180598155538 126:0.1149125801587314 127:-0.799835958168697 128:-0.2834172655765781 129:-0.9455649720115817 130:-0.3413815165500522 131:-0.9778075050133404 132:-0.1926850355266143 
1.0 1:-0.9937754237286595 2:-0.16752914053568324 3:-0.6668897853610563 4:-0.16752171395739823 5:-0.6 6:-0.24631167476510973 7:-0.43154905238255115 8:0.07434021229790466 9:-0.7009239083639803 10:0.23466137468210602 11:-0.4269752717376085 12:0.05035692748507903 13:-0.9944068628900249 14:0.038471492590308465 15:-0.227977263293336 16:-0.025810693865311207 17:-0.9954587153067196 18:-0.1575380391961254 19:-0.1993334329954196 20:-0.17883054707373813 21:-0.7722227827079529 22:-0.2731637018280134 23:-0.4237190345919609 24:-0.23867729176655617 25:-0.3624488872485174 26:-0.26755141567618845 27:-0.5372895049685268 28:-0.7157264115993522 29:0.15914729450033938 30:-0.3083037739078952 31:-0.7806226550029511 32:0.28341935456527323 33:-0.5122490561153122 34:-0.677470582841819 35:-0.0653209494632766 36:0.17567263532662003 37:-0.5262794440773417 38:-0.4836652468522098 39:-0.5118432642148474 40:-0.7224781379198381 41:0.04017109166364241 42:-0.16959358744956865 43:-0.2236496928675673 44:0.3536026632112892 45:0.0 46:0.0 47:-0.7049132224414864 48:-0.3642064836759423 49:-0.964992176459302 50:-0.4996955550469988 51:-0.5189591081833707 52:5.673725164689891E-5 53:-1.0 54:0.1877664888973054 55:-0.685515440952577 56:0.07541620487185297 57:-1.0 58:-0.19586880905813508 59:-0.9940523429842667 60:-0.03538689788500349 61:-0.9964003576658581 62:-0.17792886710975342 63:-1.0 64:0.10107676939158683 65:-1.0 66:0.0030399159454252977 67:-0.6741493229767691 68:-0.1478871994593195 69:-0.6721262594834577 70:-0.15613249304790522 71:-0.987501424977563 72:-0.3114231650933389 73:-1.0 74:-0.13155102299388188 75:-0.9966067590839921 76:-0.31510575162719634 77:-0.9538977292725883 78:-0.43048028759504 79:-0.9541586166901518 80:0.16195755692786484 81:-0.9674755133538336 82:-0.03831886652643979 83:-1.0 84:0.1631606120225968 85:-1.0 86:0.0026561462932963575 87:-0.9972801962186486 88:0.20395240216931843 89:-0.4594032797157872 90:0.07266322616764143 91:-0.5584182735796853 92:0.4143733655855446 93:-0.6714120260111103 94:0.1695528517844278 95:0.1025326391400061 96:0.26851472518066677 97:-0.944050196955173 98:0.2621491703005938 99:-0.2545216568687867 100:0.20251671654509806 101:-0.8507296563997655 102:0.4297872241104925 103:-0.44024623759847537 104:0.13628715416159287 105:-0.24724948512749456 106:0.35470160622908287 107:-0.9891391166863125 108:0.15063802566714757 109:-0.559993195955944 110:-0.13572522928469455 111:-0.6841491434987177 112:-0.498952435377935 113:-0.751916512019708 114:-0.06875392127311708 115:-0.626641604525521 116:-0.03886770887939006 117:-0.37432528452032576 118:-0.41487476573949733 119:-0.7197625851943217 120:-0.4128935524842392 121:-0.755284732507179 122:-0.05523822545093782 123:-0.38366012796792803 124:-0.10693625661958861 125:-0.6585681234095808 126:0.016490400874396682 127:-0.5745381711978659 128:-0.4564186812386255 129:-0.6857835403114843 130:-0.3656536333658452 131:-0.6975627316434208 132:-0.3228399820426171 
1.0 1:-0.42153858182642345 2:0.006571578115277532 3:-0.338534583079216 4:0.006526588666148303 5:-0.6 6:0.006202471740029081 7:-0.4164103979661742 8:-0.06642737827450795 9:-0.30051442166192444 10:0.11686910010655072 11:-0.5954435929523347 12:-0.38450541995221443 13:-0.3168262295211799 14:-0.3758267979617411 15:-0.3017295717164835 16:-0.39195795024170943 17:-0.3888011479934288 18:-0.20468647892513325 19:0.024914602369021654 20:-0.4377770300093704 21:-0.5413350945987025 22:-0.21707721595546925 23:-0.29517039806944656 24:-0.3035870285241703 25:-0.37760296356992296 26:0.03201514427996077 27:-0.5534920903450484 28:-0.5120238957108678 29:0.3666734665926674 30:-0.3582139048390385 31:-0.43894195682893 32:-0.04760868939396656 33:-0.5365500051302061 34:-0.15938909854359573 35:0.4201297483889337 36:-0.206904543018114 37:-0.5510084898994354 38:0.030100319353990157 39:-0.5384623333903986 40:-0.28760282775740065 41:0.2650204960033462 42:-0.4397660561065565 43:0.007824476248287082 44:-0.024478289342026005 45:0.0 46:0.0 47:-0.721062675161571 48:0.20441741075766107 49:-0.6587621350826595 50:0.15846702373518107 51:-0.5126740501306737 52:-0.12941272457336683 53:-0.6491654713868173 54:-0.3135814726715457 55:-0.6906715512736855 56:0.31969931349663483 57:-0.6866759030855509 58:0.21371346813737246 59:-0.7163878609762586 60:0.15745995870774987 61:-0.6707923891299066 62:0.021911418486866063 63:-0.6031520150910976 64:-0.11155609101786645 65:-0.17780356758504634 66:-0.13393738363703278 67:-0.015894047454010907 68:-0.3334034032374189 69:-0.3451561371650155 70:-0.019801863690065535 71:-0.6687517168901924 72:0.18884324951525544 73:-0.6735740934511323 74:-0.004149546455540998 75:-0.6862597008844256 76:0.02074983380182882 77:-0.644282022457822 78:-0.2764530218783523 79:-0.5574669910832684 80:0.04034620945782619 81:-0.5794345076218463 82:0.07837584748397042 83:-0.5121524264552902 84:-0.41160738718359224 85:-0.23200781664147963 86:-0.22656323982440907 87:-0.326135545078031 88:0.27297425409090637 89:0.7596494110080765 90:0.29533730577574957 91:-0.2988779551304729 92:0.2894119977212528 93:-0.01127417532402597 94:-0.15392854065301298 95:0.11295883170298948 96:0.3137129553690352 97:-0.4893030305666297 98:0.4881532150123671 99:0.2905501404782529 100:0.4047892982641599 101:-0.825052815389252 102:0.11867635086783723 103:0.12098846204260671 104:0.07612252444350442 105:-0.5554161293873897 106:0.016740538802013205 107:-0.19068151788666454 108:-0.002264046728699065 109:-0.528413110321049 110:-0.25781262031239105 111:-0.39752108479832504 112:-0.8940350245649455 113:-0.42520522582387876 114:-0.1561666824641631 115:-0.25097864681530613 116:-0.061135825830483825 117:-0.3385021461920096 118:-0.7906282200827704 119:-0.4450405625497159 120:-0.7088628678605713 121:-0.4741754752920586 122:-0.22169361323966252 123:-0.03644475230441968 124:-0.32592762157625255 125:-0.3259069849124947 126:-0.10078786102558157 127:-0.32326119698920786 128:-0.6668644266757602 129:-0.3719695130064079 130:-0.7341148875393106 131:-0.3945949679119384 132:-0.6074958903196311 
1.0 1:0.17669031242223898 2:-0.33323723153827933 3:0.0170275410900107 4:-0.3331762754323092 5:0.19999999999999996 6:0.25262249756367994 7:-0.33594907163196164 8:-0.43125579325875907 9:-0.1471148363703053 10:-0.32198393661702784 11:0.46088841463732244 12:-0.618892095981002 13:-0.19231014474716945 14:-0.6805981804360206 15:0.4259605178753616 16:-0.7601225968704002 17:-0.1794711470932634 18:-0.9057458774810012 19:0.08725710167314626 20:-0.7100132553215055 21:-0.11954704593332532 22:-0.8453654479919188 23:-0.1225273075619292 24:-0.721792549972606 25:-0.07130249107879583 26:-0.40841562669548226 27:0.13066378350357888 28:-0.118219698291958 29:0.05140738366650055 30:-0.26352125553373307 31:0.2969198764054748 32:-0.2670257051104806 33:0.09467636682500391 34:-0.19639642341135544 35:0.3239768174053326 36:-0.14954115662771927 37:0.07844987765942935 38:-0.43755418912404453 39:0.19623564134354088 40:-0.255983016737532 41:0.1677764562161601 42:-0.2712601317067972 43:0.5826724049689593 44:-0.33614343654063816 45:0.0 46:0.0 47:0.39640896073476317 48:0.03815022199873397 49:-0.0310934312009723 50:-0.6424847417899657 51:-0.03656083079863259 52:-0.8591760296656431 53:0.005154221426989736 54:-0.1884997541212985 55:0.5568607339969454 56:-0.5771331414024706 57:0.33712867070759 58:0.2042937741016102 59:0.4197480347456237 60:0.0900440770024531 61:-0.006369471452208897 62:-0.3656877376647196 63:-0.21901988104205394 64:-0.9823003383002913 65:0.2575898300909718 66:0.14661738790066048 67:0.30892536551645344 68:-0.42341012181588566 69:-0.33346997557658686 70:-0.289182155485864 71:0.37185743778407643 72:0.09851221163506763 73:8.361735249129421E-4 74:0.0611050771483741 75:0.55720952383653 76:-0.12582639568341447 77:0.273037844574914 78:-0.5686666395419112 79:0.24689563971139106 80:-0.054637030280004883 81:-0.14305100643929558 82:-0.1473782702574271 83:-0.05972401487597667 84:-0.925351528187458 85:-0.22918818791328277 86:-0.9029365482569205 87:-0.21044283113831386 88:-0.43496038583267205 89:0.4798627730139662 90:-0.1472492731272056 91:-0.2908385888788553 92:-0.04618335359801862 93:0.32586726780381103 94:-0.49572881739092733 95:0.06718376761034706 96:0.47370227135735554 97:-0.09292415244849661 98:0.5647818630521773 99:-0.37954705716681914 100:0.4027814561222911 101:-0.13299198649530963 102:-0.25986075955192767 103:0.12561773424547562 104:-0.6019226867495168 105:-0.1158489763160454 106:-0.3068221025013699 107:0.0452121916464463 108:-0.5834495751213687 109:-0.384169110283773 110:-0.008344925196846487 111:-0.167146803071905 112:-0.597667347546148 113:0.0021280970366273078 114:-0.09381670311325685 115:-0.3522305304718524 116:-0.12879846690006314 117:-0.10529468517144491 118:-0.6413697553773219 119:-0.3059081080899445 120:-0.5756921742953158 121:-0.144871576989562 122:-0.17197834727655248 123:0.03974264703802577 124:-0.21568215993251316 125:-0.27228549005456715 126:-0.15744527714889356 127:-0.26292441396059274 128:-0.6062060462692775 129:-0.04484810705752451 130:-0.4878927551721306 131:-0.35437153093153195 132:-0.5522164891997519 
-0.4017539102537348 1:0.15253927533246614 2:-0.3391177238116223 3:-0.6752809280909559 4:-0.33905329951152285 5:-0.6 6:-0.995587398849974 7:0.509990100761395 8:-0.4276188999905707 9:-0.6115253837246504 10:0.009429602893773481 11:0.430897536943855 12:-0.7114804191980084 13:-0.4128596133556943 14:-0.5976401597714787 15:0.37235313603980624 16:-0.9383928892580506 17:-0.3420018194874406 18:-1.0 19:0.4102340167782601 20:-1.0 21:-0.22283897538143738 22:-1.0 23:0.16526747794760688 24:-1.0 25:0.9985247212044004 26:-0.7144241340186606 27:0.7138315364932117 28:-0.5905870948495096 29:-0.5825184202660598 30:-0.7470443341509865 31:-1.0 32:-1.0 33:0.7574600989201341 34:-0.5861392617820107 35:-0.6890168629031748 36:-0.8634683163565618 37:0.9985428010798063 38:-0.7984098960799633 39:0.9991087198759752 40:-0.6061806764326267 41:-0.7506705471612843 42:-0.8329887003151984 43:-1.0 44:-1.0 45:0.0 46:0.0 47:0.9774962506335154 48:-0.5943530232732315 49:0.6533062944005299 50:-0.6297036057488021 51:-0.46066611956162573 52:-0.3627299533839209 53:-0.9784236959785864 54:-0.4930984582352612 55:0.9325839183513929 56:-0.1425910250056721 57:0.9343167907904428 58:-0.05761699926168162 59:0.42622812099063734 60:-0.5183506859554792 61:0.6657986053845157 62:-0.35655714200108024 63:-0.9412345487129556 64:-0.11771073991136294 65:-0.6381240292382575 66:-0.14412205772321718 67:-0.33679645055824925 68:-0.4328412222595608 69:-0.6704615800764742 70:-0.6077839318392271 71:0.9981922406497703 72:-0.19736203100839944 73:0.6393218964026501 74:-0.24418689213057565 75:0.9341678950495262 76:-0.12730717900881217 77:0.6494535135630899 78:-0.5668269875830105 79:-0.5724163248673975 80:-0.4140917229485275 81:-1.0 82:-0.43778213745652306 83:-0.9299262154513839 84:-0.09729239136071788 85:-0.5742242693479793 86:-0.5215892157604447 87:0.9506924657287377 88:-1.0 89:-0.5304396503398445 90:-1.0 91:0.4738041150480743 92:-0.6316699215483603 93:0.013291200821587301 94:-0.7526496225556512 95:0.5481144689836517 96:-1.0 97:-0.8640888869713649 98:-1.0 99:0.4600768841413909 100:-1.0 101:0.9174314978257503 102:-0.25569177304651436 103:-0.5529661651873264 104:-0.34402066484743377 105:0.874044560355917 106:-0.20120262228598207 107:-0.7651925319426489 108:-0.19777330526999026 109:0.14032254314177206 110:-0.7694386964193775 111:0.09017972622265225 112:-1.0 113:0.38879772870243934 114:-0.5727869626914176 115:-0.4920714424785777 116:-0.4808992298454021 117:0.7352289475173142 118:-0.8423919361707036 119:-0.45308919595843367 120:-0.7665700388820509 121:0.4897190608808255 122:-0.5570058116834656 123:0.21338499631237906 124:-0.7730437490253688 125:-0.6770307933498545 126:-0.4606513096069915 127:0.7720915134256026 128:-0.8457754555074117 129:0.12339844456843596 130:-0.8649529104925717 131:-0.7099403516440452 132:-0.8218538953155479 
-1.0 1:0.4840753384208418 2:-0.6651101913116755 3:-0.2940858190651934 4:-0.6650311739976745 5:-0.6 6:-0.2439349664605538 7:-0.282535777165717 8:0.3115107044014733 9:-0.5218303235325672 10:0.6102215434187324 11:-0.16957942294891437 12:0.14684343771732755 13:0.30698953527961836 14:0.03221940776771404 15:-0.11214433392901857 16:0.17410894858494697 17:0.23370577797688719 18:-0.003144896809731401 19:-0.004064594027571866 20:0.011299256008548308 21:-0.21207845137864356 22:-0.16860581636979477 23:-0.3288190760631904 24:-0.16885997095606442 25:0.34010218697275807 26:-0.24956933298861184 27:0.7175940167521451 28:-0.11421633492321037 29:-0.3403665964139462 30:-0.42705634902221334 31:-0.3322876417004189 32:-0.8107559918242098 33:0.5950406236307246 34:-0.19369794521707595 35:-0.346254191433902 36:-0.62674345560429 37:0.3338416451369992 38:-0.4392979261811122 39:0.5016735977533815 40:-0.2555062830705269 41:-0.6786088247182998 42:-0.4657809047232532 43:-0.2517888468938607 44:-0.9910686772114103 45:0.0 46:0.0 47:0.6924944407168672 48:-0.2820832283410971 49:0.2654286285802361 50:-0.13877220179085847 51:-0.5541734339321802 52:-0.363221732517678 53:-0.28900388485667616 54:-0.7795697244936223 55:0.5534967213417168 56:-0.5846031236840098 57:0.729889178662364 58:-0.5941097079764159 59:0.4530251409290449 60:-0.5182056513852596 61:0.6540691858713343 62:-0.3566387048448676 63:-0.24531218861934112 64:-0.5389004680861009 65:-0.4577774719292145 66:-1.0 67:-0.3252121190994647 68:-0.9046731036191331 69:-0.623726244208925 70:-0.9270327494038367 71:0.7523660211070233 72:-0.5015220907419934 73:0.7049198482381969 74:-0.5556600180874471 75:0.572645098208 76:-0.6331544619738592 77:0.26951399382502306 78:-0.5733836784091209 79:-0.4885918565660009 80:-0.76550498757929 81:-0.07001365556923989 82:-1.0 83:-0.09103700875377096 84:-0.5014982660343211 85:0.14729031626644495 86:-0.8883125837764051 87:0.05404576314111598 88:0.14328633571881055 89:-0.39139778439357453 90:0.12472178791133515 91:-0.10308829582231616 92:0.347694142368139 93:-0.40463998546473223 94:0.2485929704350811 95:0.06129890413552719 96:-0.01766391453893268 97:-1.0 98:0.040564797446212664 99:-1.0 100:0.39964921945471166 101:0.0010498869542496791 102:0.37090387353069976 103:-0.3525910149478807 104:0.466136075864505 105:-0.1933792587903732 106:0.19421753889968385 107:-0.5690898381866001 108:0.30564134959842426 109:-0.8010009917584557 110:-0.3897533313307706 111:-0.7983012219767377 112:-0.0015024774307144106 113:-0.6669526230376547 114:-0.09853781479161139 115:-0.39771900142718297 116:-0.011944086813227894 117:-0.46052844606383114 118:0.06511488694355694 119:-0.5147578377037161 120:0.07392713005563722 121:-0.5119079894330185 122:0.21044601140580776 123:-0.6862434993890864 124:0.002390045323696244 125:-0.5104448046753459 126:0.3348504071403793 127:-0.3504504397771431 128:-0.2420485697098248 129:-0.6853217617250125 130:-0.24294624628891415 131:-0.7031332504551002 132:-0.03548379542594038 
-1.0 1:0.7432299270148672 2:-0.49848029126273685 3:-0.6517491607275585 4:-0.4980350720152684 5:-1.0 6:-0.006746552244126347 7:0.19781815532316727 8:0.35972841439679826 9:-0.5122142806338907 10:0.6386824268467812 11:-0.1359532430527728 12:-0.20300781046537109 13:0.326287392373114 14:0.19711598977364053 15:-0.21978558254267677 16:-0.16071058975375996 17:0.40107488163197424 18:0.05895930003534566 19:-0.09298499524553971 20:-0.10364336081761416 21:0.008965438938135506 22:0.006022635460083636 23:0.04018868109725293 24:-0.10320016792910436 25:0.4663214388890231 26:-0.5511536943260011 27:0.5608137468349939 28:0.007402946184359438 29:-0.6793575730071553 30:-0.22805989543607297 31:-0.585402775368763 32:-0.6444600654857169 33:0.43063741710977776 34:-0.3126233460685459 35:-1.0 36:-0.49269178077551445 37:0.4232021867474378 38:-0.5815712878872366 39:0.5944919641970043 40:-0.14437967195438628 41:-0.828336395318818 42:-0.38525608800336664 43:-0.6304138212148009 44:-0.8211202067789429 45:0.0 46:0.0 47:0.9677238119578437 48:-0.20588226260295484 49:0.3014259930008176 50:-0.2889883429280903 51:-0.5064063371677234 52:-0.21774843990015658 53:-0.6344353341482714 54:-0.5540149626481488 55:0.8924988531857034 56:-0.378191036543026 57:0.6558676790051601 58:-0.46856657405552116 59:1.0 60:-0.3900037387170814 61:0.66039281809486 62:-0.5480477172403273 63:-0.603487285476213 64:0.12795289473649585 65:-0.5625852019417366 66:-0.564505236627451 67:-0.3407862357071709 68:-0.23274753846225926 69:-0.6481836838214289 70:-0.7254555931651634 71:0.7055056571337621 72:-0.7042127988178646 73:0.671468691699389 74:-0.6751522140003507 75:0.9130402720014348 76:-0.9564515069731363 77:0.6083479947576576 78:-0.3570715402872937 79:-0.5320002636848735 80:-0.6274020786317871 81:-0.5486044132498302 82:-0.526345143895881 83:-0.5226655942676879 84:0.08450790086821258 85:-0.22413292754650482 86:-0.25734170672579115 87:1.0 88:0.38157361052956884 89:-0.46302939838251167 90:0.4450705968614199 91:0.6810041315632049 92:0.4821045241428148 93:-0.02630676484623684 94:0.32780934870072076 95:0.874810253246757 96:0.18702244659830836 97:-0.46750986049787824 98:0.0748391650867164 99:0.29018532115903484 100:0.3982277217453263 101:0.580973763861163 102:0.4349538151345518 103:-0.2617507837672701 104:0.524197023613816 105:0.09023930351831577 106:0.3278255424389034 107:-0.3372223155320403 108:0.4611116500684198 109:-0.5281588278171422 110:-0.2726936481625548 111:-0.46689959439999273 112:0.08786534569568616 113:-0.13282724007001634 114:-0.015345898375543676 115:-0.2585885784178512 116:0.124559575619265 117:0.0365552807115872 118:0.13344578888990788 119:-0.48312112329459234 120:0.2725496432252097 121:-0.004197215687945177 122:0.27837944243803925 123:-0.07218136627286498 124:0.10738054445412915 125:-0.3507034070513052 126:0.4500994360875583 127:0.10304159973562488 128:-0.15611652904868667 129:-0.41103872645056305 130:-0.12962444854050026 131:-0.416864711707855 132:0.11867723635239669 
-1.0 1:0.17302792972922676 2:-0.8414291737151344 3:-0.6431321533803394 4:-0.8409972854462211 5:-0.19999999999999996 6:0.24200093476478846 7:-0.11212347900717068 8:0.35649777428200946 9:-0.5068225531384516 10:0.636673107855511 11:-0.4995208238328942 12:-0.3813419482574061 13:0.4259244951572616 14:0.19487925866215328 15:-0.3932806280483916 16:-0.24736251468192372 17:0.41087113542563114 18:-0.034333796218986024 19:-0.2870993349683171 20:-0.17810750205657544 21:0.2446426233233021 22:-0.06538274712069025 23:0.05005329292171434 24:-0.102858414775439 25:0.050372042916952076 26:-0.5523725188330524 27:0.2795314887877318 28:-0.15479741618227272 29:-0.47399817197777894 30:-0.22542228692932365 31:-0.4302855180053532 32:-0.29204567780968793 33:0.19166727878600165 34:-0.5102904994885795 35:-0.5273355866670486 36:-0.48605039042260645 37:0.1867937733497833 38:-0.7634069294217265 39:0.02683330031239639 40:-0.33116691803400555 41:-0.613499484090128 42:-0.38432031556216917 43:-0.41851098973823997 44:-0.6103214966613988 45:0.0 46:0.0 47:0.7029379622136511 48:-0.8349485627104427 49:-0.006898934839307147 50:-0.7955344465986436 51:-0.5051011168143322 52:-0.22741725981352023 53:-0.6254636650945423 54:-0.8657543136428136 55:0.27326101729890095 56:-0.8258245020484074 57:0.3421368664807585 58:-1.0 59:0.4471130541071551 60:-1.0 61:0.3390910777084519 62:-1.0 63:-0.5912510241980253 64:-0.3230142610103387 65:-0.5532950456725483 66:-0.8596002541401988 67:-0.6580823828039435 68:-0.7335330354378589 69:-0.978066421675076 70:-0.7499018741458885 71:0.3758222045427324 72:-1.0 73:0.016049387221193756 74:-1.0 75:0.2789830397535835 76:-0.9685646837494932 77:-0.008607274828723366 78:-0.7290994056302881 79:-0.9141054115259887 80:-1.0 81:-0.5393186630829021 82:-0.8250637159585508 83:-0.5080367304931703 84:-0.3446953053562086 85:-0.21273291794887395 86:-0.6535630811281037 87:0.32380590613580207 88:0.9403059818928479 89:-0.4761546102266532 90:1.0 91:0.44174614987350047 92:0.48002458411767734 93:-0.01633634180485566 94:0.32266862051438894 95:0.12870764921427202 96:0.17323960235420688 97:-0.4660043096491624 98:0.3309730754271103 99:-0.24475841734634518 100:0.5918179818125981 101:-0.11604966092261071 102:0.30035419736176383 103:-0.25961716400122425 104:0.653882116580714 105:-0.0676438199402376 106:0.32894315671459107 107:-0.59268382939831 108:0.45060929999453414 109:-0.520999055720808 110:-0.14575839365618537 111:-0.20776424581010222 112:0.0920045160331755 113:-0.11836421380087958 114:-0.012857834939565826 115:-0.25492057576451355 116:0.2387201595578763 117:0.05593885460050596 118:0.03461602340965575 119:-0.47165168848803407 120:0.17881006460322912 121:-0.2454929782294245 122:0.2770363261437918 123:-0.376415750051736 124:0.2146999595533483 125:-0.5011640468469472 126:0.4455725708998346 127:-0.1124860454107588 128:-0.15781549702742947 129:-0.12119396379725322 130:-0.12462107714867887 131:-0.40911790183887886 132:0.11718871331617131 
-1.0 1:-0.7105234068031259 2:0.003603599914830946 3:0.32602058563404057 4:0.003562832083917611 5:-0.6 6:0.25445302848154117 7:-0.2665050922244122 8:0.3014989681485851 9:-0.39884874624550326 10:0.2897541745239731 11:-0.3249206144763147 12:0.12584549978653214 13:-0.042553157232575245 14:0.06162717069296075 15:-0.22457079272021552 16:0.2903158056366444 17:0.11041544772626866 18:-0.031009447861739092 19:0.007172277196756838 20:0.21124424850406442 21:-0.09450659574234099 22:0.004280648242775076 23:-0.07447367074930433 24:0.10970044925572875 25:-0.7987885511504446 26:0.1890126510693022 27:-0.017997535209357984 28:0.11959069834812386 29:0.14311578286809268 30:-0.03378551018659093 31:0.7355330475141091 32:-0.41855127290174876 33:-0.3258479472338738 34:0.6289901278825214 35:0.8865971917678883 36:0.02821400825830156 37:-0.5673795908253336 38:0.3947661267652822 39:-0.2811810859667142 40:0.24509182799425022 41:0.24875244499590954 42:-0.06595290482363192 43:0.8934755056304102 44:-0.030129085207495687 45:0.0 46:0.0 47:-0.7280116120447839 48:0.5107981252728917 49:-0.6574674450652669 50:0.1509564891652384 51:0.4468977107785763 52:0.36138395795215295 53:0.6714190196104435 54:-0.02537862299236182 55:-0.6976654205496879 56:0.7427371581710958 57:-0.3563130923239344 58:0.20287038032139804 59:-0.7158699944023175 60:0.1484012602585585 61:-0.670112338812338 62:0.012502482240625001 63:0.1531536450122366 64:0.7572950594371008 65:0.6485461085799917 66:-0.4222480746516222 67:0.3017329179372905 68:0.14041385912027904 69:0.32296039873338334 70:-0.3410864477060741 71:-0.6689110814301302 72:0.1794579748543903 73:-0.3415527478464069 74:-0.01498231776937009 75:-0.7025383056535184 76:1.0 77:-0.6603302185777027 78:0.43269004281113266 79:0.22637202412329183 80:0.03506690272145563 81:0.9978541990395982 82:-0.21822145556695538 83:0.3957131989205911 84:0.4200204272992225 85:0.8960652466193932 86:0.14641466411187487 87:-0.3367591838101024 88:0.8454192986602598 89:-0.44980425080109554 90:0.3107277408365279 91:0.44449495280006457 92:0.47305631899747613 93:-0.6569708327637185 94:0.3574532962723911 95:0.49403053914844186 96:0.5528289498710881 97:-0.4748349261003554 98:0.4891807011428506 99:0.3102529299350951 100:0.40425768199269196 101:-0.12224915636582034 102:0.4881500641964627 103:-0.25002172823900526 104:0.35080696747970586 105:-0.06832514676934942 106:0.41160696239035377 107:-0.4579018221046476 108:0.30143659980849336 109:-0.5440476334356591 110:0.12173640601761315 111:-0.19426436384742696 112:-0.0958391649979693 113:-0.4279075667878507 114:0.08048426910917539 115:-0.43536109645859067 116:0.173197783954816 117:-0.1518245412987218 118:-0.08403103749007468 119:-0.4630509404935572 120:-0.057156866413914154 121:-0.4897993533108831 122:0.16197185912969925 123:-0.3679918135752889 124:0.11916561228440448 125:-0.4905455576404706 126:0.1975723564928742 127:-0.10906321374918138 128:-0.18346332534132426 129:-0.38878074250461636 130:-0.23621630875170863 131:-0.542457381813934 132:-0.21420097652272418 
-1.0 1:-0.6971931552115366 2:-0.49960781092812356 3:0.338751431835127 4:-0.4995855547549862 5:-0.6 6:0.2505663982742512 7:-0.095917327387814 8:0.07405840984295242 9:-0.3947345303095098 10:0.14933692364328266 11:-0.31171203128304936 12:-0.2953746669816365 13:0.05939108841749596 14:-0.22493307979026433 15:-0.3009917313694972 16:-0.19774165158809198 17:0.21883875447756784 18:-0.3365694177636882 19:-0.28806129819714354 20:-0.10692308572012632 21:0.025211194976782814 22:-0.1984008379218939 23:-0.1832183563273374 24:-0.03119520459970959 25:-0.7865246197626268 26:-0.10901422430141472 27:-0.5629576661018807 28:-0.39658414039979717 29:-0.0616426663568681 30:-0.1485800459846578 31:0.5680988032765482 32:-0.4330053236478004 33:-0.7903230218329158 34:0.11897629328786175 35:0.41054506492440934 36:-0.059187925647476325 37:-0.7935541854365076 38:0.07284305102562438 39:-0.8324100304233666 40:-0.18386756621164857 41:-0.18615059831568548 42:-0.16941256442318453 43:0.6774997184890412 44:-0.29252009993774775 45:0.0 46:0.0 47:-0.7205073112549547 48:0.27158703264811535 49:-0.6452459324026674 50:-0.4997656276946477 51:0.45556264857516116 52:-3.6638906107167024E-5 53:0.6721560140341856 54:-0.10919592753054375 55:-0.691684795058302 56:0.5095551486488252 57:-0.6627938395028381 58:-0.4621202775344222 59:-0.7097004244568517 60:-0.03538689788500349 61:-0.6559528066947247 62:-0.6280198593279382 63:0.15706826296742804 64:0.5368985274070757 65:0.6528135284327832 66:-0.568142065202822 67:0.6329027973023829 68:-0.1479092400689871 69:0.3253301872133134 70:-0.475736186935382 71:-0.9897097598942035 72:-0.31136722930596705 73:-0.6598860862489833 74:-0.44343012952553473 75:-0.6864567839211704 76:0.18194203971891776 77:-0.6470582041343487 78:-0.0726343370819823 79:0.24312997196649033 80:-0.5418927707153346 81:1.0 82:-0.3247089774802818 83:0.40222150582952887 84:0.16306295319035735 85:0.5190468995629407 86:0.0025852252857505587 87:-0.32494470146850973 88:0.49135787286624755 89:-0.4521066423633041 90:0.35176913941269183 91:-0.04076397344858773 92:0.21758989811106022 93:-0.6511164768007562 94:0.16909753596329358 95:0.5064910230132889 96:0.2680565693783046 97:-0.9146330949692536 98:0.2616659260871015 99:-0.22982225862134187 100:0.4025184045168073 101:-0.5741520328171063 102:0.05098642244925666 103:0.12976438406204038 104:0.0021224504163415148 105:-0.3876361078985002 106:0.15314695199206807 107:-0.3184089179843742 108:0.05100485908608121 109:-0.9315843079077839 110:-0.13606801941781554 111:-0.431229479087224 112:-0.19943820220997788 113:-0.41692749706670373 114:-0.06908207527457566 115:-0.6090406522279965 116:-0.03918668651200419 117:-0.14398022842145508 118:-0.21256174659324467 119:-0.4604237390168352 120:-0.1343549553975787 121:-0.22552239672934105 122:0.040684118611610254 123:-0.35916787306313447 124:0.0035873305801239486 125:-0.4872020863394464 126:0.1148575563782972 127:-0.10097717263987305 128:-0.3350878921816459 129:-0.38100706009858876 130:-0.36603732088890917 131:-0.5394545998461973 132:-0.32323464881108366 
-1.0 1:-0.12834108739188665 2:-0.0013825376201860307 3:0.33085322304349996 4:-0.001339327724015682 5:0.19999999999999996 6:0.25288967051105926 7:-0.05296234998518434 8:-0.055519066029779074 9:-0.46705247810857087 10:0.09788819006913951 11:-0.1208811837055973 12:-0.2797404597166623 13:-0.12434100571185058 14:-0.24302025678500272 15:-0.06009902493100405 16:-0.25083923908441674 17:-0.2180791960761992 18:-0.2823531889947818 19:0.04732068995465388 20:-0.203561956860001 21:-0.2746260928743387 22:-0.32182086402923105 23:-0.16724490692690974 24:-0.23699006470447137 25:-0.3126160974327039 26:0.06848667463821467 27:0.09886253814170143 28:0.2017706920670883 29:0.23669479238936408 30:0.05646191911109799 31:0.7781803166371479 32:0.09422182441034899 33:0.040898390316446154 34:0.6028950849293935 35:1.0 36:0.561789780601486 37:0.02512264941581588 38:0.3080980656402743 39:-0.13681785039057726 40:0.2813731745981509 41:0.3501065524571665 42:0.28246443745749916 43:0.9899544331576906 44:0.31098287177962214 45:0.0 46:0.0 47:-0.18039091443897226 48:0.35313764651056134 49:-0.38447819510979675 50:0.35408153060073944 51:0.39499108816040285 52:0.14378438275629457 53:0.31912388675071357 54:0.10602328178552556 55:-0.12453097240768896 56:0.7178514422776576 57:0.024812389372716126 58:-0.06190490335854293 59:-0.14873001322372204 60:0.08600539871985591 61:-0.35537025397414734 62:0.08290403800028656 63:0.4708849540983038 64:0.7671413356653287 65:0.6883980363945212 66:-0.13887949884099482 67:0.6173443683984823 68:0.049667512593033036 69:0.3068508039613267 70:0.0345022434000517 71:-0.3036448720242313 72:0.09492579973489779 73:6.761289873282728E-4 74:0.06493536963314916 75:-0.09499535904444545 76:0.3649338271844875 77:-0.3884394462969525 78:0.1396659014955124 79:0.24708601773714145 80:-0.05902182306210768 81:0.6400617896310348 82:-0.1438975508418655 83:0.7944417761186113 84:0.3370855076930399 85:0.4656682168396593 86:0.24038801214539562 87:0.04818990191168537 88:0.7224438138332492 89:-0.3763979425893116 90:0.4006780329090194 91:0.4504146591115792 92:-0.0342366448325464 93:-1.0 94:0.23545803518645791 95:0.4459873595000756 96:0.479310393881633 97:-0.5175840199945572 98:0.30097015017889106 99:-0.3495841856802028 100:0.2028211081663649 101:0.07802194277238073 102:-0.0035546515652956634 103:-0.4654297221487217 104:-0.07515291226781973 105:0.031349272780601956 106:-0.10200306069924903 107:-0.521646744007328 108:0.004165800046278534 109:-0.7715637268633745 110:-0.13665654782478187 111:-0.43778291462800034 112:-0.3992786900945047 113:-0.5915962601218256 114:-0.21565749984141203 115:-0.5346143793760503 116:-0.13125870568722153 117:-0.1294417272815942 118:-0.43782390854254316 119:-0.5820921034240789 120:-0.3005347069791263 121:-0.4139955150377783 122:-0.07650295268634077 123:-0.6016643658318378 124:-0.10828164442816102 125:-0.5991195112368124 126:-0.06256207274253944 127:-0.2629940965136178 128:-0.6050231711006897 129:-0.3350153698073923 130:-0.36524243643650856 131:-0.6479023480712407 132:-0.42713481169301104 
-1.0 1:0.44639412666563794 2:0.3336260521450167 3:-0.005141923044383545 4:0.3336588266217162 5:0.19999999999999996 6:-0.9873626756524396 7:0.3434819927063262 8:-0.3298332376754961 9:-0.12152453062383628 10:0.021780679341351084 11:0.5282249386230984 12:-0.875620316499248 13:0.07520725474581846 14:-0.4970661847144576 15:0.4177229468017214 16:-0.9297056644198203 17:0.2126175035002129 18:-0.8062851938053609 19:0.5019561774612502 20:-0.9193738738951709 21:0.21864415718629426 22:-0.8379452529913929 23:0.29175782366189607 24:-0.9224207678387345 25:0.7060931779464252 26:-0.0846782542105754 27:0.6011809544776168 28:0.6823235729513426 29:-0.4665049846684687 30:0.5276303189111768 31:-0.7320669004782426 32:0.07440384466226724 33:0.8467789562212866 34:0.4077044192330772 35:-0.8388610625960964 36:0.5368877677961967 37:0.8542756266094671 38:-0.06030276219141262 39:0.5533786350191006 40:0.46324928355579686 41:-0.8750828640592205 42:0.45249802027534103 43:-0.6866335624788362 44:0.07510538554914414 45:0.0 46:0.0 47:0.9982876743146181 48:0.36404583721192263 49:0.38366837965764145 50:0.36806122256146656 51:-0.3780647715114437 52:0.6388386019985752 53:-0.27365511471833537 54:0.7024753448361918 55:0.6838790293943224 56:0.7264279526044597 57:0.5663192828122858 58:0.20475912266547058 59:0.7237389677143489 60:0.39408847752552156 61:0.35207747825532065 62:0.08989573646482851 63:-0.47144333649200754 64:0.7620733055712658 65:-0.27615227523822683 66:0.1422702199381174 67:0.01521894379481692 68:0.5176547210403517 69:-0.3240923023468302 70:0.3537196641110638 71:0.631675953110562 72:0.09885721229086908 73:0.6248260887954602 74:0.06883241769875137 75:0.6615735152324118 76:0.36993467859990425 77:0.3927181994167319 78:0.14820083252450167 79:-0.5806084457571303 80:0.28697783947286437 81:-0.23390910170547585 82:0.4273197489103324 83:-0.36762441946302993 84:0.7478230078034198 85:-0.12622636341526772 86:0.6231826164415764 87:0.5727687341300449 88:-0.42109258124733795 89:-1.0 90:-0.4397679925494956 91:0.9982859840890901 92:-0.6163002815010932 93:-0.5797131629899086 94:-0.752509541516071 95:0.2157865183913481 96:-0.993879071633982 97:-0.8040216980401294 98:-0.9903171238518382 99:0.1118333097378581 100:-0.3922289052616945 101:0.7838788730658182 102:-0.12388345014927471 103:-0.10004230342754994 104:-0.06526985180847023 105:0.6679815357604435 106:-0.1966170687638259 107:-0.13751354336357557 108:-0.08535405165627308 109:0.0477888289013777 110:-0.5094390636321371 111:0.6489837836024184 112:-0.7887390907024832 113:0.6333786036464017 114:-0.44457063497000804 115:-0.15495383481439917 116:-0.23909412563829946 117:0.782942051730791 118:-0.7329601269518702 119:-0.16801499950849552 120:-0.5707089573165136 121:0.24116975156054177 122:-0.16714709590396293 123:0.536126631346658 124:-0.32040917414332715 125:-0.19318219226557698 126:-0.054732905273399135 127:0.5502084537754179 128:-0.7176174640413866 129:0.4077261739431657 130:-0.7299599675305394 131:-0.1323678086984541 132:-0.544579443519672 
-1.0 1:0.44285397249600256 2:0.16458053839868048 3:0.32028933605506693 4:0.16457313399736906 5:-0.6 6:-0.7431643988796193 7:0.5005515430789784 8:-0.203940165650213 9:-0.13250599687534648 10:-0.10533066948258984 11:0.6215724393802631 12:-0.7265914524483179 13:0.25076368559785034 14:-0.6628430384907513 15:0.6863054356828007 16:-0.8833704768340663 17:0.4010037081245448 18:-0.8718523629260297 19:0.49071860561146496 20:-0.9732016612196084 21:0.3147513262467616 22:-0.9488088479106277 23:0.2838916885468672 24:-0.8618067950615353 25:0.9159873872539279 26:-0.10922511988624162 27:0.31273498565443947 28:0.5601612602918442 29:-0.47217399982573827 30:0.3299213648837176 31:-0.5741481858447777 32:-0.2541329419939563 33:0.8566735783083199 34:0.5166963096546624 35:-0.8468431159202648 36:0.1753976090528846 37:0.8654834360922619 38:0.07250126230222609 39:0.5627203336489695 40:0.5336993369357275 41:-0.8813389647510019 42:0.19950706637465143 43:-0.47362607067539353 44:-0.29296127954992857 45:0.0 46:0.0 47:0.9967917193281988 48:0.2716521344240932 49:0.7037322765167526 50:0.5011059012019752 51:-0.4011118110509262 52:1.6815764989464022E-4 53:0.03742644553712404 54:0.18779957226667188 55:0.6782974010445331 56:0.5098219316336488 57:0.5636314509592006 58:0.07039791534860673 59:0.7209451656342047 60:0.2659465063480442 61:0.687599135530639 62:0.27221227024758865 63:-0.48188842994591685 64:0.5371663444990942 65:-0.28264691290175226 66:0.002976271010575182 67:0.32555341397622706 68:-0.1478608996675328 69:-0.0029610974219772546 70:0.1635039265084357 71:0.6410075551134278 72:0.2876305278822946 73:0.6299837266069979 74:0.18035439329236413 75:0.985461633611032 76:0.6793139673979929 77:0.7092595799804673 78:0.28549834188744794 79:-0.585891480572449 80:0.16193795136756495 81:0.14859001247920034 82:0.24809282097510632 83:-0.3924785830595987 84:0.16327714268997684 85:-0.13786964045502492 86:0.38255329564791696 87:0.5662670025859069 88:-0.37123182728773274 89:-0.20120181703816042 90:-0.4859005656388802 91:1.0 92:-0.37093607490002034 93:-0.26628163985059494 94:-0.5801845269957947 95:0.5960186096232416 96:-0.7123871978784884 97:-0.35828215366055727 98:-0.7724665125694601 99:0.10571465596336393 100:-0.1978674015192864 101:1.0 102:-0.32697022179014834 103:-0.11185261826419002 104:-0.13113166134497478 105:0.8177443034951155 106:-0.3494887870088874 107:-0.2829468668089843 108:-0.24653804907550658 109:0.024810054464652787 110:-0.5151345527908113 111:0.4024594540959372 112:-0.5985038061812786 113:0.6184930946062184 114:-0.42580084859796397 115:-0.17289502071984963 116:-0.3859303169964562 117:0.9931270004358546 118:-0.6171427167666905 119:-0.174244156146944 120:-0.5054843303567645 121:0.4741931982250609 122:-0.24733453322225984 123:0.20357995252278838 124:-0.32827754113261065 125:-0.20980493907910402 126:-0.18050194291096056 127:0.758189804107146 128:-0.821115691407137 129:0.39846553088837355 130:-0.6142639034793702 131:-0.14292898053274017 132:-0.5825057171559598 
-1.0 1:0.4278508193971058 2:-0.3286445418304388 3:0.30580806151782824 4:-0.32858377040445397 5:0.19999999999999996 6:-0.9874329975887229 7:0.5029942395507176 8:-0.3277292773757089 9:0.07081666896466965 10:-0.061247951133437395 11:0.6249224012769838 12:-0.7866674316604934 13:0.1722949260384412 14:-0.4090955325989085 15:0.6915324972641295 16:-0.9246334906346406 17:0.215775005224623 18:-0.7179332180929738 19:0.8101381435694466 20:-0.9154457532384217 21:0.21860548781386213 22:-0.8385381263693119 23:0.5257804050720447 24:-0.8508907061656414 25:0.6862083955759539 26:-0.558320915800605 27:0.5735749729042094 28:0.20388766768935795 29:-0.27807546236243086 30:0.05033021742485766 31:-0.4094147869871241 32:-0.280803671430086 33:0.5897453552351952 34:0.00761005285589178 35:-0.3843357311537937 36:-0.16350397758659307 37:0.5996722864847246 38:-0.43251640822837634 39:0.5350316016360883 40:0.10504915839984053 41:-0.458417750438621 42:-0.09707016104830768 43:-0.25640624062995954 44:-0.3516372557142431 45:0.0 46:0.0 47:0.9803293321062485 48:-0.2687529151443149 49:1.0 50:-0.6148444359477543 51:0.0764737877848094 52:-0.35637572126923267 53:0.35914470517294883 54:-0.18312901961385042 55:0.9785461224843446 56:-0.13222251316566958 57:0.865371108283598 58:-0.5885023213999578 59:0.42097074944093205 60:-0.2113839440445886 61:0.6724560121067895 62:-0.350164651033545 63:0.2928413819800646 64:0.336420282389863 65:0.10580807582810992 66:-0.4272153245691973 67:0.6477241363485808 68:-0.4151561542885064 69:0.3137956058468587 70:-0.278768184946938 71:0.9481404786669669 72:-0.4927781246401003 73:0.9464086910076244 74:-0.23638691199233797 75:0.9691156028435979 76:-0.1143234835108008 77:1.0 78:-0.5542523331308267 79:-0.2137182083819381 80:-0.4139546539482253 81:0.5245381779531859 82:-0.13966520276839167 83:0.06858507899908983 84:-0.08570182517838987 85:0.6078985105821755 86:-0.12862295662928647 87:0.22894470904026099 88:-0.7132028563951902 89:-0.20068776917908782 90:-0.7110153051421588 91:0.742879638546251 92:-0.8154125038937436 93:-0.2713699014273879 94:-1.0 95:0.5952707610908066 96:-0.9891769764992238 97:-0.3536861469444491 98:-0.9866769244615466 99:0.6520543460246102 100:-0.38898096204917676 101:0.7762858586572488 102:-0.24938140390923325 103:0.26141646779355177 104:-0.1959304265825712 105:1.0 106:-0.192446877988675 107:-0.0023246532296710143 108:0.014760061852903572 109:0.4453057168060339 110:-0.6341640416424505 111:0.6568411657480959 112:-0.6888227947450021 113:0.62356344626218 114:-0.5635319758859372 115:0.19861660158106487 116:-0.46762850282339585 117:1.0 118:-0.7310236192337869 119:0.08730017985580862 120:-0.568065864421138 121:0.7352614990002102 122:-0.35631751987032945 123:0.5159573350513404 124:-0.5425251640715684 125:0.11501631228169229 126:-0.2494514064618294 127:0.7708879064336445 128:-0.8371257060804035 129:0.6741321474242938 130:-0.8526971280315425 131:0.00601331345115419 132:-0.6732499405487967 
-1.0 1:0.15258258557495474 2:-0.3362061665070173 3:-0.3429619520203431 4:-0.3361435303129028 5:-0.6 6:0.4956556147493505 7:0.3506312601310224 8:0.8709811482872576 9:-0.5138224528897755 10:0.9456927227543197 11:0.056641925768584844 12:0.665027334077223 13:0.4337216624820994 14:0.7295820029359663 15:0.18995572212943657 16:0.8604568095561747 17:0.4545051303497232 18:0.7971928102074444 19:0.41024375863599327 20:0.8780402797960605 21:0.3361274126861524 22:0.8078481465031815 23:0.28036157443347287 24:0.8015678843187135 25:-0.6560655330635663 26:-0.575306466010649 27:0.7138500828769474 28:-0.4305497036936202 29:-0.9996406052084814 30:-0.43406422221771335 31:0.5000256124608797 32:-0.07989408591284364 33:0.033219067525294355 34:-0.793373570442363 35:0.027185991982268565 36:-0.383783840574764 37:-0.43645765445860485 38:-0.6296712426874067 39:0.42791585487234673 40:-0.6111615055196224 41:-0.7506956853582647 42:-0.4650933071899973 43:0.5555864656516234 44:-0.11563509887020929 45:0.0 46:0.0 47:-0.42611443158423 48:-0.6173849879817387 49:0.3350979280369286 50:0.8643561724790152 51:-0.9464483993721758 52:0.6261102335409141 53:0.018753897134727637 54:-0.4815615879860692 55:-0.011417254124558074 56:0.27308737412832884 57:0.27282519110748127 58:-0.33067415905365305 59:0.1418850734421233 60:-0.21918803099919792 61:0.33506862160134987 62:0.08873801821837479 63:-0.16472556274883587 64:0.7648791576141236 65:-0.6381811198123002 66:-0.43196673532656615 67:-0.33683397513292646 68:0.035902964999657616 69:-0.3410350553013374 70:-0.2860634263593169 71:-0.015518313383518278 72:-0.508851452001277 73:0.3073318209054634 74:0.06422997923649332 75:-0.3356014286129897 76:-0.15577186681135335 77:0.02240028285515927 78:0.138894020685292 79:-0.9645633112558522 80:-0.07041741607151797 81:-0.21654996616423106 82:-0.43100473231090974 83:-0.4637727588512468 84:0.7435068153657105 85:0.1841008865237217 86:-0.13308693579796027 87:-0.04814629592132946 88:1.0 89:0.28157342313241074 90:0.6848354850470442 91:-0.26821096376561193 92:0.9301059015280579 93:0.33179072107126983 94:1.0 95:0.16890139406757876 96:0.7131850800174491 97:0.03618573603439912 98:0.5601956264147929 99:-0.0798616264047135 100:0.7996545254306526 101:0.20416020770456034 102:1.0 103:-0.0020997176331672973 104:1.0 105:0.21052454719870606 106:1.0 107:-0.24138971130619324 108:1.0 109:-0.27023261768302886 110:0.873455655734231 111:-0.15361529626075 112:0.9965699503899126 113:0.08323821439980539 114:0.8546684651081435 115:-0.3094835735928647 116:0.9097517413228295 117:0.08451122596203176 118:0.9759621688145279 119:-0.325494450382679 120:1.0 121:0.23461024775831363 122:0.8842639227844136 123:0.21338343650361935 124:1.0 125:-0.5178725000300153 126:0.9214380727486768 127:0.3163466727209221 128:0.7319470735531859 129:-0.15175041569065872 130:0.8755267119585957 131:-0.5669997937124809 132:1.0 
-0.2842064979078987 1:0.44285397249600256 2:0.16458053839868048 3:-0.012028387986004474 4:0.16457313399736906 5:-0.6 6:0.7441961170159044 7:0.19180420567594503 8:1.0 9:-0.3187459255368673 10:0.9975728139583369 11:0.24442546045923774 12:0.824519645292972 13:0.4329921996364814 14:1.0 15:0.3728275025905059 16:1.0 17:0.25478781553883123 18:1.0 19:0.6158223796328937 20:0.9735167963005673 21:0.11215085905784883 22:1.0 23:0.3953747531490084 24:0.8661206724326083 25:-0.24080166517275725 26:-0.4249651686191188 27:1.0 28:-0.3954156938284492 29:-1.0 30:-0.46651375817846563 31:0.49866129633908196 32:-0.07384909804734774 33:0.03443252755078663 34:-0.4763425950289215 35:0.2646648277268724 36:-0.29219410930294 37:-0.195702790291005 38:-0.2966112208370353 39:0.4288592112966132 40:-0.5412156232224548 41:-0.5326051284736135 42:-0.5370539680712637 43:0.7762558183637378 44:-0.07551060094668527 45:0.0 46:0.0 47:0.13716757348578046 48:-0.046432299938428456 49:0.017642622348890136 50:1.0 51:0.0238526846691014 52:0.9988432195765382 53:0.34902096098113633 54:-0.10931041941481667 55:-0.009971166375551954 56:0.942623419275793 57:0.6049716292893816 58:-0.19529321778902442 59:0.42770724965280804 60:-0.03538689788500349 61:0.6669291056502487 62:0.7216694678605524 63:0.22177273819915966 64:0.9716454621172985 65:-0.23162179791986848 66:-0.28197376437262334 67:-0.33791296700458995 68:0.323826164570274 69:-0.013255946069076985 70:-0.15613249304790522 71:0.3242495155076286 72:-0.3109052596743257 73:0.6403580146460541 74:0.18050659635970878 75:-0.016366871027577834 76:0.6781010658394018 77:0.023480925090953786 78:1.0 79:-0.5736399320127602 80:0.1621096856618185 81:0.17307144982005385 82:-0.32426721115868806 83:0.4669628572665252 84:0.9986562315451986 85:0.5611738119488636 86:0.38162669758495893 87:-0.04752471577063677 88:0.7757129872561637 89:-0.12508462283839772 90:0.9073711172318217 91:-0.26746503697204294 92:1.0 93:0.6493598687549622 94:0.9152517165267431 95:0.16944599106993619 96:1.0 97:0.03553929917593579 98:0.7750184546542778 99:-0.0798616264047135 100:1.0 101:0.2050821145239261 102:0.9316030968197611 103:-0.002838086871616352 104:0.9364833960657646 105:0.04544849285066355 106:0.9556769473144371 107:-0.2420291154527655 108:0.9427531854192734 109:-0.27023261768302886 110:1.0 111:-0.15361529626075 112:0.9965699503899126 113:0.08380869070954544 114:1.0 115:-0.3098244631700817 116:1.0 117:0.30182604938220536 118:1.0 119:-0.19816628846114548 120:0.8850366065525468 121:0.23504989362039197 122:1.0 123:-0.09893766469970189 124:0.9981214716018671 125:-0.35900260792430816 126:1.0 127:0.31673936854099805 128:1.0 129:-0.15175041569065872 130:1.0 131:-0.5672461326140992 132:0.9735545336602272 
-1.0 1:0.152662904041454 2:0.0012965727641640612 3:0.3216735281265175 4:0.0013410622374288028 5:-0.6 6:-0.24996589205031183 7:0.8287898379032272 8:0.13411878357039986 9:-0.31841774402813827 10:0.18209221654326413 11:0.4309588975796781 12:-0.36281182330076933 13:-0.13072176749175013 14:-0.5090079210936689 15:0.6460161454962348 16:-0.331335468944973 17:-0.043357632637481935 18:-0.551759867112561 19:0.8209139959738512 20:-0.4163647466476197 21:0.11251131718974117 22:-0.6222392146091555 23:0.3954520654049787 24:-0.5824159312842305 25:0.378182061037865 26:-0.5573927956775875 27:-0.42873554611708786 28:-0.5992848343520458 29:-0.3740081744639209 30:-0.42728210060095806 31:-0.3334244199767048 32:-0.6374275887347713 33:0.2747216313294847 34:0.009668012383355462 35:-0.4503839916817579 36:-0.16119267967861028 37:0.5203372185771944 38:-0.24192923926043064 39:-0.14324083301859947 40:-0.25594909537132005 41:-0.3130567279437899 42:-0.27683285741019925 43:-0.33343665337148165 44:-0.3508529792119358 45:0.0 46:0.0 47:-0.14526091337912495 48:-0.2860974888699074 49:0.01691582750425691 50:-0.1396245468356777 51:0.5107010164092092 52:-0.3531240328661761 53:0.6834427140970238 54:-0.4790891170730057 55:-0.011323989478808527 56:0.28080958736904904 57:0.2729170964545804 58:-0.3262342269088714 59:-0.14241022811858284 60:-0.21809826282502898 61:0.33514214566815137 62:0.09474080564694942 63:1.0 64:0.3430473072429516 65:0.9947360747786049 66:-0.13217919756140595 67:0.31644341592290615 68:0.045343500626490396 69:0.3178169803194284 70:-0.28180368634066433 71:-0.015396252033427982 72:-0.2029455833098468 73:0.3073994740758055 74:-0.24374459592579656 75:-0.0180301601776387 76:-0.13657398126592513 77:0.022469978290565518 78:0.14366766586501734 79:0.6037729808878427 80:-0.4030548761543482 81:0.9585826674306099 82:-0.13649130463394143 83:0.9347290163725481 84:0.3405294914051509 85:0.9423537377019549 86:-0.12865839076442742 87:0.2848425055200079 88:0.14374347986391633 89:0.2815282978495457 90:0.1242447980272452 91:-0.020819375045288635 92:-0.04608739638788262 93:0.33173171797383283 94:-0.25263705988908103 95:0.927389734131437 96:-0.01313700565525644 97:0.4862861793504325 98:0.045655045768798974 99:1.0 100:0.004842213831270925 101:0.6797484541541912 102:0.12317433093841146 103:0.18148075252547513 104:-0.20426307068386795 105:0.8741131417809642 106:0.10306485828049783 107:-0.2414309493301391 108:0.004864594709799386 109:0.1403166902823474 110:-0.5164573550056069 111:0.3339677976401261 112:-0.4988733740085589 113:1.0 114:-0.32949358781079574 115:-0.12690843806403618 116:-0.362523843118552 117:0.9521708328574445 118:-0.33334741117488154 119:-0.1979091476356467 120:-0.29998263093310296 121:1.0 122:-0.16826390953397374 123:0.5256987524034924 124:-0.21723453850344399 125:-0.19955906355920616 126:-0.1608488624088934 127:1.0 128:-0.7210957167548987 129:0.39853945980326255 130:-0.738544392818931 131:-0.2811215070258053 132:-0.6866675927606389 
-0.05141190165957957 1:-0.13985859036351977 2:0.16440786419922304 3:0.32564790569975544 4:0.16474580048573673 5:-0.6 6:-0.0014253897837577245 7:0.6681239369259029 8:-0.08401131986997512 9:-0.31747544905683567 10:0.045781799518830546 11:0.42929861252798585 12:-0.3395423228093596 13:-0.3171847799217936 14:0.1658199128870972 15:0.5536493121091017 16:-0.29192272072575964 17:-0.4403103122449251 18:0.026394857024178986 19:0.6149146878897727 20:-0.2937937396552325 21:-0.3338045569152328 22:-0.0777512791136804 23:0.16539574574564542 24:-0.30439481180834815 25:0.16720533193492604 26:-0.3740154327971492 27:-0.4306087555488207 28:-0.4828913232771107 29:0.04446316375035608 30:-0.37898919454601243 31:-0.330081217884873 32:-0.4895743847957029 33:0.030037876858845847 34:0.09479677300336453 35:-0.2084155203422705 36:0.2082673349281372 37:0.03784019905961067 38:-0.1950963097528171 39:-0.14599510684322148 40:-0.3271675492990519 41:-0.09201910856516926 42:-0.1976060579213803 43:-0.10734801117772463 44:0.021906018752571033 45:0.0 46:0.0 47:0.13059737177287012 48:-0.5079573456169695 49:0.014829009359263345 50:-0.2746287191748823 51:1.0 52:-0.19412932631197888 53:0.6893410606407042 54:0.03454135653173185 55:-0.015208298537528031 56:0.4943151242118966 57:-0.061804053600370334 58:-0.1954316890335096 59:-0.14646916045636582 60:-0.09386802123986404 61:0.001187492774893828 62:-0.09123540902507943 63:0.6166635620016321 64:1.0 65:0.5913622157154841 66:0.003682275312106631 67:0.31959369824744055 68:0.23268526616558338 69:0.32251944555225043 70:0.22538123976907642 71:-0.020479893364658053 72:-0.3883693367916088 73:-0.027568059132123235 74:-0.050940284146588355 75:-0.022805898481706777 76:0.05261124331648248 77:0.019567285539992207 78:0.007319422334594927 79:0.21514949588518562 80:0.07145895393854662 81:0.5727205684356005 82:0.0361289173256647 83:0.47302446665362563 84:0.4996898209679803 85:0.9482045485116142 86:0.49209584113347526 87:0.28330132269011754 88:0.08892515538595624 89:0.2834076868034454 90:0.17747761658473138 91:0.47215019761483146 92:-0.09576838352936545 93:0.3341890935851841 94:-0.1732501081219464 95:0.5468465772706057 96:0.19303624211500536 97:0.03788042630634059 98:0.08248896366698011 99:0.4602774601408115 100:0.20508422060926979 101:0.9153116781817168 102:0.07717696502415539 103:0.1835349050726598 104:-0.008820361397867016 105:0.8722574779127268 106:-0.14445514461668163 107:0.1533012778468752 108:-0.03121875035379995 109:0.1404750559003387 110:-0.3879035879855216 111:0.09027029103574336 112:-0.598839618246818 113:0.6931284021394892 114:-0.2331593294815799 115:-0.3085899020103229 116:-0.22476801396992374 117:0.7343425901732243 118:-0.5552756204841595 119:-0.32482189868812295 120:-0.4666767318202262 121:0.7438954304372118 122:-0.18511217960578996 123:0.21350101772713392 124:-0.2172917697290373 125:-0.5171534302675445 126:-0.145290044321306 127:0.7712449891049897 128:-0.7424078484532701 129:0.1235006566843675 130:-0.6141353886163475 131:-0.5663539949237697 132:-0.5361532718917675 
-0.8358885650237373 1:-0.13985859036351977 2:0.16440786419922304 3:0.32564790569975544 4:0.16474580048573673 5:-0.6 6:-0.24996589205031183 7:0.6681239369259029 8:-0.08401131986997512 9:-0.4152259028237202 10:0.043037356340748234 11:0.05488059904242659 12:-0.7823118938064834 13:0.15332696539051582 14:-0.5213666433348483 15:0.18868525038312445 16:-0.6460184769392934 17:0.25691088516830174 18:-0.6678287288569227 19:0.5122120437787037 20:-0.5849920875002672 21:0.33722170864328227 22:-0.5887793073977924 23:0.28053489743207916 24:-0.5791528737589591 25:0.37411317788583265 26:-0.5272765324858653 27:0.14092163358174403 28:-0.3131686188818652 29:-0.37280146999066865 30:-0.2297655616278419 31:-0.330081217884873 32:-0.31051428580160934 33:0.2715553064194891 34:-0.09775816532396919 35:-0.44725280383525245 36:-0.03431766751434473 37:0.5163700960074615 38:-0.368501351527299 39:0.13972382868593014 40:-0.141976795072434 41:-0.5298735177301237 42:-0.20951987948058048 43:-0.10734801117772463 44:0.021906018752571033 45:0.0 46:0.0 47:-0.1502422313520596 48:-0.5182134577431592 49:-0.30352300356793227 50:-0.29076984568967057 51:1.0 52:-0.19412932631197888 53:0.6893410606407042 54:0.03454135653173185 55:-0.015208298537528031 56:0.4943151242118966 57:-0.061804053600370334 58:-0.1954316890335096 59:0.1380306654508967 60:-0.08414727800164179 61:0.001187492774893828 62:0.358661033371084 63:0.6166635620016321 64:1.0 65:0.9997754637616902 66:0.012896986269678612 67:0.31959369824744055 68:0.23268526616558338 69:0.32251944555225043 70:0.22538123976907642 71:-0.020479893364658053 72:-0.08895528041910494 73:-0.027568059132123235 74:-0.36272824903145884 75:-0.34038201312040817 76:0.03657304273897166 77:-0.2940945964384094 78:-0.004227702957574353 79:0.6074029767551339 80:-0.268984511707826 81:0.9646273125857148 82:0.3316896302319019 83:0.939404661375481 84:0.9313870757707028 85:0.9482045485116142 86:0.49209584113347526 87:0.6163784675589559 88:0.09821011637502175 89:-0.12276184397665901 90:0.16846120376381424 91:0.22471130656707872 92:0.2905766115580404 93:0.3341890935851841 94:-0.1732501081219464 95:0.9262194687330552 96:0.20095140339851603 97:0.03788042630634059 98:0.341160767495007 99:0.4602774601408115 100:0.004738746039922415 101:0.9153116781817168 102:-0.04894510930787732 103:0.1835349050726598 104:-0.14263969967508472 105:0.7063090161661594 106:-0.24829948898081944 107:-0.10870854598319213 108:-0.03763019936598311 109:0.1404750559003387 110:-0.3879035879855216 111:0.3341558783322369 112:-0.4957002451014879 113:0.6931284021394892 114:-0.2331593294815799 115:-0.3085899020103229 116:-0.22476801396992374 117:0.7343425901732243 118:-0.45398787952779485 119:-0.32482189868812295 120:-0.4666767318202262 121:0.4886765542249172 122:-0.09204342347471617 123:0.21350101772713392 124:-0.32810902891588756 125:-0.35792647035280056 126:-0.14210697309288978 127:0.7712449891049897 128:-0.6207546716162136 129:0.1235006566843675 130:-0.6141353886163475 131:-0.42335176730988966 132:-0.5319573850044284 
